0.017378911, -0.01134927, -0.020786457, -0.009203734, -0.00923051, -0.014134469, 0.017416725, 0.03332497, -0.010124529, -0.008880655, 0.027452517, 0.020843273, -0.005951191, -0.018010357, 0.019943895, -0.001315443, -0.01911557, -0.0019836964, -0.012305037, 0.015300241, 0.017448
0.03236905, -0.033300273, 0.026788592, -0.013298328, -0.011166156, -0.04363527, -0.0025059746, 0.02358145, 0.017350398, 0.004980556, 0.049986422, 0.030994393, -0.020282025, 0.01904847, 0.05753958, -0.029756151, 0.0045269798, -0.0010227947, -0.034164064, 0.0049676998, -0.006259976
-0.00040698727, -0.0005039921, 0.00089217024, 0.0005246354, 0.00053759455, -0.0006120136, -0.0006335986, 6.877799e-05, 0.0011004799, 0.0011497509, 0.0002498733, -0.000104758394, -0.00035751335, 0.001407884, 0.0002896904, -0.00015573879, 0.0005822782, 0.0010720904, -0.0006607421, -0.0014504613, -0.0005549512
0.0057401443, -0.0026064755, -0.0059960242, 0.001290754, 0.001059815, -0.0021408848, 0.0062550725, 0.006200809, 0.00037423402, -0.003062401, 0.0012540768, -0.00071579387, 0.0009788186, 0.00015484578, 0.001981606, 0.0039174594, -0.004887597, -0.000660272, -0.0034957626, 0.004232625, 0.0066946563
0.0047801128, -0.0031602029, 0.002699626, -0.0024550105, -0.0017587048, -0.0041545415, -0.0006721112, 0.0016970811, 0.0012203353, -0.0009120787, 0.0057396917, 0.0035062335, -0.0014038422, 0.0017733662, 0.007364599, -0.004660451, 0.00084686885, -0.0018273458, -0.003607525, 0.0006616792, -0.00094901404
0.012174043, -0.0056183, -0.010363306, -0.0030540966, -0.0024924676, -0.006768291, 0.007733573, 0.011943638, -0.00503708, -0.008464078, 0.010526132, 0.008059189, -0.00543656, -0.006167467, 0.009679521, -0.002037594, -0.005875367, -0.0054013464, -0.005996266, 0.010772959, 0.0074985027
-0.002708392, -0.0006359527, 0.002024903, -0.0013360468, -0.0013242131, -0.0012172292, -0.001025609, 0.0018753695, 0.0011934927, 0.0035837668, 0.0029663553, 0.0021939604, -0.0034550917, 0.0011490504, 0.0011395096, -0.00047106037, 0.00076663465, 0.0029059155, -0.0005486719, -0.0025152378, -0.0006464215
-4.0217497e-14, 1.2507518e-14, -5.797548e-14, -5.0495195e-14, 1.8383174e-13, 1.6555477e-13, 3.4898062e-14, -1.0614101e-13, -5.1737572e-14, 1.6235362e-13, -7.5397554e-14, -2.2255326e-13, 1.0295715e-13, -1.4121935e-14, 7.167154e-14, 4.611425e-14, 9.8560774e-14, 5.0495364e-14, 8.3089365e-14, 2.6886994e-14, -8.1644225e-14
-4.49783e-14, 1.4685773e-13, 2.9843813e-14, -5.0958654e-14, 9.0843274e-14, 4.9333232e-14, 1.0331981e-13, -1.1882831e-13, -1.6499412e-14, 3.1869137e-14, -8.867076e-15, -1.6685267e-13, -7.1863244e-14, -4.2157606e-14, 3.1965892e-14, 3.057484e-15, -5.834344e-15, 1.1251598e-13, -1.475087e-13, 1.11671035e-13, -8.973374e-14
0.013570399, -0.0057525006, -0.008780373, -0.0010600683, -0.0017265677, -0.0078000897, 0.010037458, 0.008860642, -0.0036327008, -0.006633897, 0.006476551, 0.004161715, -0.0010659052, -0.005358977, 0.007035899, -0.00047899247, -0.00915781, -0.0060417973, -0.005420963, 0.013305687, 0.009412277
0.00014019193, -0.00024760375, -0.00028696808, 0.00044318082, 0.00045422808, -0.00025260512, 0.00014889379, -4.3476288e-05, 0.00023829132, -9.2824615e-05, -0.00038595177, -0.0004883447, 0.00041533302, 0.00033506684, -0.000115395276, 0.0003960666, -0.00019908261, 4.45506e-05, -0.00035837226, -0.00015075465, 0.00013948837
-0.0050786287, 0.019704921, -0.014484532, 0.0084086405, 0.0055761524, 0.023185125, 0.0005762644, 0.01685749, -0.011897327, -0.011533922, -0.0026924517, 0.019257462, -0.011677598, -0.012232796, -0.010426573, 0.024052493, 0.019444607, 0.014715474, 0.021263184, 0.0007506723, 0.0014782369
-0.0029095595, 0.0015506495, -0.00059641723, -0.0016539745, -0.0020224666, 0.0014738595, 0.0037775144, 0.0007663938, -0.00071883015, 0.0040275385, -0.0013428719, -0.00280853, 0.002207189, -0.0011718775, -0.0029516427, 0.0013523421, -0.0012109602, 0.0011634727, 0.0018271427, 0.0011826021, 0.003975373
0.020610062, 0.003810672, -0.023783475, -0.009685471, -0.01324567, 0.0039353785, 0.030859401, 0.022662105, -0.021114422, -0.013491196, 0.013847373, 0.015068446, -0.00027554153, -0.02910268, 0.006800753, 0.0010302628, -0.027788391, -0.016969, 0.0076771593, 0.036517695, 0.028966626
-0.0018325121, 0.007423655, -0.0049546366, 0.004582033, 0.0036549359, 0.009320432, -0.004250725, 0.0014303427, -0.005498614, -0.0068393787, -0.003153369, 0.004835982, -0.0016056844, -0.0060707247, -0.0055450476, 0.0065621845, 0.0066436417, 0.002134841, 0.007904148, -0.0010701375, -0.0049104425
-0.004757108, -4.927194e-05, 0.0024853945, -0.006481943, -0.00577982, -0.00086859, -0.00063251576, 0.0032858504, 0.0012363719, 0.0062289387, 0.004727961, 0.0041949674, -0.0054678675, 0.0008758508, 0.001072484, -0.002475252, 0.00017696402, 0.004587913, 0.00063834846, -0.0016342679, 3.0354936e-06
0.038057644, -0.007378848, 0.013224492, 0.0054075615, 0.0061811735, -0.010299721, 0.022389488, 0.0035035808, 0.0052890233, -0.0009765532, 0.006581583, -0.0016217167, 0.01737093, 0.009948135, 0.020746967, -0.006728997, -0.010634729, -0.01867924, -0.005494402, 0.0304672, 0.021527223
-0.0074539986, -0.0024342227, 0.0085059535, -0.013303034, -0.011394788, -0.0041754325, -0.0033669802, 0.0059645856, 0.0041435733, 0.01189844, 0.011676869, 0.008799432, -0.012572568, 0.0039584185, 0.005730513, -0.0077304207, 0.003729473, 0.008975578, -0.0019293401, -0.004058355, -0.003082173
0.0054642204, -0.007582046, 0.012256067, 0.030297747, 0.03379946, -0.006982473, 0.01804757, 0.055898976, 0.03990938, 0.040138356, 0.029054353, 0.029346585, 0.0046768896, 0.04906016, 0.021068148, 0.051863976, 0.027079487, 0.06731404, -0.0116161555, -0.017197788, 0.025668638
-0.0018608986, 0.009829392, -0.011354753, 0.007945731, 0.006271835, 0.0121933995, -0.0013745584, 0.002699314, -0.008509385, -0.009935007, -0.0061813854, 0.004638063, -0.0029009148, -0.010574072, -0.00959937, 0.011190017, 0.004961255, 0.0014405801, 0.010584747, 0.0016670797, -0.0010987218
0.0010720898, -0.0016433533, -0.00067695376, 0.002402417, 0.0025212124, -0.0016205311, 0.00055451266, -0.00045087474, 0.001568787, -0.0005550199, -0.0011180134, -0.0023235842, 0.0022754888, 0.0021839722, 0.00044592246, 0.002013134, -0.00075990276, 8.110098e-05, -0.0022015793, -0.0009168678, 0.0007964083
-0.010545506, -0.00056989, -0.0086518265, -0.0035775031, -0.0039610495, -0.0027218133, 0.020146964, 0.0027640066, 0.004431645, 0.02009545, -0.008625757, -0.015913716, 0.013671236, 0.004317128, -0.01002946, 0.010966607, -0.018260708, 0.008284838, -0.00026821202, 0.0024859263, 0.02113509
-0.042099096, 0.050538458, 0.022213249, -0.03254959, -0.0359934, 0.05599841, 0.10952407, -0.021818347, -0.0067333994, 0.11558636, -0.028856, -0.04623558, 0.094178796, -0.010989668, -0.05523667, 0.014701726, -0.057888728, 0.0093779275, 0.06401878, 0.05775261, 0.10499363
-0.002458605, -0.0022509967, -0.0011037465, 0.00056383794, 0.0007575441, -0.0028576327, 0.00040392583, 0.0018879522, 0.0028964612, 0.0032222155, -0.0005531575, -0.0019325973, 0.0011244699, 0.0035653145, -0.00073047227, 0.002383267, -0.0012033823, 0.0038903747, -0.003058505, -0.0039566667, 0.00084612437
-0.017809272, 0.030894354, 0.0057305177, 0.01503449, 0.013060793, 0.038635347, -0.022950167, -0.00495529, -0.006500377, -0.00817793, -0.015064953, 0.011829879, -0.008403888, -0.007842605, -0.016701404, 0.01972643, 0.024505138, 0.00807181, 0.033543658, -0.0052947975, -0.019671055
-0.016006568, 0.012423608, -0.014860303, 0.007873053, 0.006358749, 0.014973695, 0.00014757256, 0.0052486765, -0.0059131104, 0.0021409383, -0.0110665085, 0.0006810242, 0.00046410185, -0.007032602, -0.018107567, 0.021113988, 0.0035213288, 0.011777448, 0.012159992, -0.007798273, 0.001582957
-0.013807034, 0.0008765822, 0.015228055, -0.0225565, -0.01953983, 1.5164298e-05, -0.011166807, 0.01023083, 0.0045077517, 0.01664117, 0.021816613, 0.019758353, -0.024875019, 0.0038459005, 0.010921779, -0.014189882, 0.010546439, 0.014367524, 0.00067089056, -0.0031629547, -0.009196642
-0.01818569, 0.0060801506, -0.0074642845, 0.0027018385, 0.0036597848, 0.0057838713, -0.0019122834, 0.01139646, 0.0057242257, 0.00796657, -0.00053956616, 0.0074873697, -0.008147878, 0.005939059, -0.010555212, 0.019932227, 0.006909573, 0.021965418, 0.00620648, -0.01740407, 0.00018390105
0.023883922, 0.008365512, 0.03145042, 0.017445648, 0.016449964, 0.014273069, -0.0052466895, -0.029957194, 0.006298631, -0.0067851734, -0.0077440464, -0.00879743, 0.029148793, 0.011285476, 0.016801395, -0.017415525, 0.014772803, -0.024564248, 0.013085162, 0.013683432, -0.011061986
0.034168754, -0.020729816, -0.006459552, -0.022989975, -0.022503396, -0.029456677, 0.027551495, 0.05995319, -0.002188363, 0.0065648593, 0.055683345, 0.044263907, -0.020973135, -0.0044538425, 0.04233585, -0.007156891, -0.019878088, 0.0003833537, -0.022309517, 0.029283838, 0.029085958
0.0075785914, -0.00017539738, -0.0070712008, 0.0005863325, -0.00028437504, -0.0007110567, 0.0041675125, 0.0070243315, -0.005094534, -0.007452386, 0.0035989059, 0.0059769726, -0.00502468, -0.0080449255, 0.0038149308, 0.002499826, -0.0035766314, -0.0035260941, 0.00026574478, 0.0073441654, 0.004110517
-0.004766175, -0.008185256, 0.011315232, -0.015447911, -0.014353413, -0.0119674895, 0.00066521624, 0.009324253, 0.007893113, -0.004099247, 0.016532041, 0.008920632, -0.011281551, 0.008263412, 0.010799765, -0.010036447, 0.00052783464, 0.0089780595, -0.008129823, -0.0027256818, 0.00070994324
-0.011406601, 0.04099754, -0.019908674, 0.03575997, 0.031596355, 0.0541613, 0.024109112, 0.00094123837, -0.005481254, 0.0028331773, -0.043036807, -0.013654632, 0.04837864, -0.0030784146, -0.040397074, 0.051728472, 0.008235308, 0.013737591, 0.04371333, 0.011450029, 0.021094201
0.011325345, 0.0057282867, 0.0066134906, 0.01705561, 0.016192487, 0.010168517, -0.009647864, -0.006374196, -0.0016210863, -0.012056693, -0.0055043492, 0.001945775, 0.004943336, 0.0010673854, 0.004061636, -0.0008175336, 0.01883592, -0.00636329, 0.0057191257, 0.0009010398, -0.008796076
0.016299248, -0.008538694, 0.03311045, 0.0040453575, 0.0061958344, -0.007368854, -0.014265737, -0.014172391, 0.0155819, 0.0025652691, 0.0077583953, 0.0010985244, 0.007525312, 0.021626322, 0.022789035, -0.022790061, 0.02111143, -0.0068555595, -0.009250615, -0.0006077261, -0.01462458
0.012014343, -0.0063597816, 0.02677878, 0.003992917, 0.00508719, -0.0063330745, -0.016061345, -0.011672366, 0.013624112, -0.0014918164, 0.0075816032, 0.003519471, 0.0034697573, 0.018572511, 0.019989472, -0.014892004, 0.019734131, -0.002454404, -0.0070144236, -0.005409708, -0.016028557
0.029590998, -0.003359961, -0.026270973, -0.0012396091, -0.0029392017, -0.0056685824, 0.018165858, 0.03560187, -0.0152905155, -0.028012857, 0.02086241, 0.02686454, -0.0152968755, -0.021662695, 0.017495204, 0.009372443, -0.009251591, -0.00958315, -0.0029121945, 0.028462268, 0.01749499
0.0023281313, 0.007835703, 0.014652625, -0.02448752, -0.025195854, 0.006907791, 0.013956728, 0.015965695, -0.0030289774, 0.03182108, 0.030170584, 0.02162491, -0.0067615598, -0.0072553027, 0.018596334, -0.021328395, -0.011379043, 0.0025305313, 0.011372846, 0.018061077, 0.016998716
0.03234991, 0.0021170368, -0.016708205, 0.003438771, 0.000377986, 0.0026233357, 0.011553106, 0.04354161, -0.018519705, -0.024024943, 0.0363086, 0.0495523, -0.02563348, -0.025007905, 0.030112261, 0.007371962, 0.005061434, -0.0075541567, 0.0025899196, 0.023881894, 0.0098789595
-0.0030126802, 0.00783994, 0.006368417, -0.0041790116, -0.0043794345, 0.009023969, 0.0060456917, -0.003732763, -0.0023648166, 0.0066980035, -0.0026268202, -0.0028361971, 0.006637027, -0.003632774, -0.0026335365, -0.004293794, -0.0017495638, -0.0026875723, 0.010283215, 0.008798124, 0.005218848
-0.010334592, 0.020496543, -0.011395537, 0.013445451, 0.01113697, 0.025712121, -0.010983037, 0.005559975, -0.012205065, -0.011198785, -0.008473037, 0.014745427, -0.010616776, -0.014366407, -0.012544644, 0.019893587, 0.020827336, 0.008063413, 0.021360166, -0.0057065478, -0.010387089
-0.021674514, 0.025864778, -0.02633219, 0.025750132, 0.024414776, 0.032754604, -0.013328655, 0.014069252, -0.0055877445, -0.0122408755, -0.02420005, 0.0077675767, -0.0015688732, -0.0029859368, -0.02934422, 0.04578494, 0.0263979, 0.029827705, 0.024114262, -0.021109216, -0.011430708
-0.00970577, -0.003774253, -0.009401149, -0.0031981834, -0.0017091786, -0.006311699, 0.005583377, 0.010922872, 0.006692754, 0.012005822, -0.00040084493, -0.0017264081, -0.003091616, 0.0073788925, -0.0048516137, 0.0104056625, -0.008228437, 0.014492346, -0.005166772, -0.0039903694, 0.007621407
0.0017336644, -0.0010759794, -0.0017030378, 0.00027708162, 0.0002399329, -0.0013514376, 0.00094468304, 0.0012208506, -0.0005512039, -0.0015518459, 0.00067212083, 0.00033986854, -0.00029414057, -0.00084910967, 0.0010430241, 0.0002752069, -0.0012263303, -0.0007842612, -0.0011840473, 0.0010903048, 0.00088849635
0.006197919, -0.028098438, -0.107454695, 0.053573973, 0.053426046, -0.03485046, 0.05049129, 0.09803731, 0.019938316, 0.004457208, -0.0075439215, 0.002577338, 0.0071732593, 0.024694996, -0.0072446186, 0.1286683, -0.031733114, 0.06863558, -0.044883084, -0.018939637, 0.06501783
0.032873422, 0.000854111, -0.008945025, 0.015456671, 0.012446514, 0.0042290357, -0.00045498746, 0.015590712, -0.012368536, -0.033146944, 0.011013043, 0.022929996, -0.0052660624, -0.017007865, 0.02090102, 0.00049096835, 0.012263513, -0.0131629, 0.0022061353, 0.021293797, -0.0034925675
0.04235158, -0.017738605, 0.016922584, -0.0067419037, -0.004897668, -0.019330772, 0.02186058, 0.021241007, 0.00883842, 0.009836025, 0.034675878, 0.017178372, 0.00044501433, 0.010315596, 0.044136748, -0.02272973, -0.012488212, -0.0155212525, -0.019173509, 0.03221954, 0.018650353
-0.0011692683, -0.0023399729, -0.0037691498, 0.001540081, 0.0017832026, -0.0029276095, 0.0022046983, 0.0024533058, 0.001837324, 0.0015210491, -0.0009624873, -0.0020018925, 0.0011654472, 0.002222536, -0.0013967386, 0.004495582, -0.0030334669, 0.0030610044, -0.003306104, -0.0023625419, 0.0026307646
0.0031624406, -0.010199476, -0.010102923, 0.015230022, 0.016281126, -0.011491219, 0.0045315563, 0.0026799534, 0.010541829, 0.0005221357, -0.00633817, -0.0041887253, 0.0116671575, 0.014446842, 8.037148e-05, 0.017905181, -0.00057075074, 0.007287232, -0.014053578, -0.010498248, 0.00509373
0.0034035074, -0.0011260374, 0.0009878455, 0.0018257789, 0.0018337157, -0.0009801827, -0.00038560075, -0.0015162633, 0.00047394863, -0.0025298223, -0.00017108377, -0.0005582382, 0.0016583332, 0.0008077279, 0.0021400575, -0.0011812011, 0.0007449321, -0.0024845763, -0.0012792128, 0.001135703, -0.000865157
-2.6736758e-14, -1.202075e-13, 1.5638644e-15, -5.6510017e-14, -6.5042725e-14, -6.8960056e-14, -2.0532621e-13, -1.5027198e-14, 6.859859e-15, 5.839057e-14, 1.1251146e-13, 2.6055758e-13, -4.3447742e-14, 6.7341884e-14, -1.7099084e-13, -2.0112547e-14, -1.4710943e-14, 1.9543652e-14, -1.3150499e-14, 1.3630533e-13, -6.215243e-15
0.01792883, -0.0050014737, -0.009113948, 0.010330492, 0.00945906, -0.0051307552, 0.0040965434, 0.008813086, -0.0022428604, -0.015444602, 0.0015696072, 0.004553031, 0.0032409183, -0.0012425691, 0.007153344, 0.004861166, -0.004069325, -0.0072186613, -0.006326784, 0.008655561, 0.0027049808
0.0031294446, 0.0017215068, 2.6130943e-05, 0.0038377861, 0.0034878831, 0.0026303027, -0.002150025, -0.0009817227, -0.0015813499, -0.005324141, -0.0015291782, 0.0012565579, 0.0005251434, -0.0014154445, -2.8666407e-05, 0.0015277554, 0.0034431801, -0.0016071879, 0.0017212712, 0.0009843647, -0.003305879
0.013538111, 0.020223586, 0.018077992, 0.010187911, 0.005827921, 0.024937928, 0.021504745, -0.026364356, -0.007074992, 0.0012201531, -0.017228128, -0.013933146, 0.045802187, -0.0061614383, -0.015709413, -0.009041521, -0.0057529467, -0.027073596, 0.026150992, 0.03072286, 0.018121425
0.0024713706, 0.0026968895, -0.0005270426, -0.010827212, -0.009760205, 0.0030796598, 0.0004698139, 0.017530324, -0.008321668, -0.0014604657, 0.02137081, 0.02488195, -0.019106219, -0.0114200525, 0.011975443, -0.007301973, 0.0029608943, 0.0016483677, 0.0026491636, 0.004339212, 0.0010109278
-0.011956578, -0.004571456, 0.025841603, -0.019409914, -0.014730499, -0.0070694764, -0.009513839, 0.005124398, 0.014835982, 0.025883622, 0.019504216, 0.011605684, -0.01353972, 0.018128958, 0.013676813, -0.015484648, 0.009534503, 0.014695085, -0.0060910406, -0.0172412, -0.008536501
0.0023227204, -0.0021968225, -0.0019315705, 0.00018383989, 0.0002603553, -0.0027744889, 0.0014258368, 0.0024372719, 0.0005060412, -0.0018664909, 0.0016181716, 0.00056340714, -0.00085224706, 0.00055717916, 0.0018022002, 0.0006403681, -0.0008991576, -0.00048522637, -0.002490455, 0.00094612763, 0.0014218609
0.0018163085, -0.005923028, 0.05283126, -0.0021649892, 0.00209676, -0.006788622, -0.03135359, -0.015747594, 0.026792666, 0.017306523, 0.01761755, 0.012198238, -0.00441667, 0.03594506, 0.030293712, -0.029611384, 0.03813262, 0.007254899, -0.007424563, -0.014077485, -0.034440957
-0.0005501712, -0.0008842554, -0.004868436, 0.0017724984, 0.0016700828, -0.0011706738, 0.0026726117, 0.0018991072, 0.00034035384, 0.0006950039, -0.0027556848, -0.003121795, 0.0016323272, 0.0003535786, -0.0031069305, 0.004724946, -0.0035860718, 0.002043207, -0.0015379703, -0.000888186, 0.003059931
-0.011526888, 0.010376668, -0.0031084483, 0.0043501747, 0.0037795622, 0.012800183, -0.010659989, 0.0034208572, -0.0031217497, -0.0020487944, -0.0030941472, 0.0083133215, -0.0074240267, -0.0039337096, -0.008034734, 0.009497585, 0.012409223, 0.008230674, 0.010771719, -0.005359093, -0.009882041
0.0006414489, -0.00032449438, -0.00042537742, -0.00012476993, -0.00014562959, -0.0004371397, 0.00038057246, 0.000433091, -0.00029995778, -0.000493743, 0.00042149768, 0.0002843152, -0.00020793217, -0.0004604637, 0.00045913077, -0.0001330837, -0.00045074805, -0.0003766019, -0.00031142373, 0.00054379716, 0.0003491902
-0.006586037, -0.004514185, 0.030571949, -0.019394036, -0.01738524, -0.0064688046, -0.01407003, 0.004895164, 0.011452651, -0.018271733, 0.028111842, 0.025799427, -0.018037578, 0.013112881, 0.023294099, -0.02409421, 0.024248552, 0.012008149, -0.002795586, -0.008464957, -0.016200189
4.2934223e-14, 2.1142657e-13, 1.4371334e-14, -9.5726067e-14, 1.3804576e-13, -1.341341e-13, -1.07696106e-14, 4.883386e-14, -1.2495519e-14, 9.1809474e-14, -4.291689e-14, -5.4231366e-14, -7.635339e-14, 1.4144507e-13, -8.265693e-15, 8.309771e-14, -4.374034e-14, -5.2475785e-14, 2.1002143e-14, -1.777272e-13, 9.460156e-14
0.003039806, -0.0014515704, -0.00057211355, -0.00019054173, 6.940499e-05, -0.0019658534, 0.0024823246, 0.0021556418, 0.00010966297, -0.0025028547, 0.0013823407, 0.00074813055, 9.127505e-05, 0.00012814155, 0.0014990539, 0.00012681655, -0.00022166336, -0.0018520383, -0.0014286028, 0.0029488946, 0.0023519057
-0.0006807623, 0.0018301605, -0.001327235, 0.0013653691, 0.0010526174, 0.0022867015, -0.0013986175, 0.0006714347, -0.0018379209, -0.0023902569, -0.0007862984, 0.001323335, -0.0012901921, -0.0021333043, -0.0013671396, 0.001908625, 0.0012589344, 0.00017514323, 0.001963176, 0.00012659765, -0.0011537006
0.2649971, -0.07275301, -0.13911131, -0.036783937, -0.048867643, -0.101780206, 0.21192324, 0.22806226, -0.101865634, -0.12682086, 0.20770384, 0.21644776, -0.07938847, -0.13351722, 0.197517, -0.011052577, -0.15297693, -0.12547195, -0.060052875, 0.27353278, 0.19216292
0.003768599, 0.0013897374, 0.004511302, 0.0029886717, 0.0026066655, 0.0024586064, 7.837493e-05, -0.006025174, 0.0006209016, -0.0018880977, -0.0028385345, -0.003106814, 0.005989584, 0.0017382285, 0.00046372958, -0.0025364368, 0.001265881, -0.004910073, 0.0012469804, 0.002842061, -0.0009068313
0.011964889, -0.0014214674, -0.009688603, -0.0015296893, -0.0024452866, -0.0012635814, 0.008826253, 0.009345692, -0.0045370813, -0.0037247785, 0.0067258975, 0.005245043, -0.00061013113, -0.0063136052, 0.006443291, -0.00017319055, -0.009797459, -0.004544777, -0.002531824, 0.012436566, 0.008397364
0.0011926526, -0.00045575798, -0.001240813, -8.3015504e-05, -0.00017422151, -0.0006307971, 0.00082725694, 0.0008692722, -0.0007842273, -0.001129083, 0.0006122812, 0.0004866267, -0.0003296408, -0.0011399342, 0.0006178808, 1.2993868e-05, -0.0009880237, -0.0007634118, -0.00042044415, 0.0011971196, 0.0007872098
0.024888856, 0.014768729, 0.050265025, 0.0008511647, -0.0021259955, 0.021769887, -0.0007360201, -0.037645467, -0.0024937645, -0.003559501, -0.002618092, -0.007364973, 0.034694605, -0.0003362884, 0.013917478, -0.042773686, 0.015273937, -0.03986156, 0.021392437, 0.031158255, -0.00925755
-0.0013187481, -0.00022099365, 0.0010652107, -0.0014796366, -0.0012311005, -0.00042328713, -0.0009093261, 0.00078751426, 0.00053417677, 0.001268367, 0.001443277, 0.001292287, -0.0017972104, 0.00055423204, 0.0007423718, -0.00082645955, 0.0008621912, 0.0012691121, -0.00017578788, -0.00047213113, -0.0007827972
0.00732525, -0.0034003458, -0.0066065392, -0.00058772234, -0.0010451901, -0.0046487283, 0.0051787877, 0.0064967494, -0.0009671137, -0.002089936, 0.0041417666, 0.0031614664, -0.0026393873, -0.0014854814, 0.0041063884, 0.0005892523, -0.0058815433, -0.0018027907, -0.003409961, 0.0068198037, 0.0050289608
-0.0062336586, -0.013502438, -0.023995547, 0.014934305, 0.016458917, -0.017354434, 0.013524971, 0.015454061, 0.013636998, 0.009662777, -0.008708243, -0.010809884, 0.010373569, 0.01726745, -0.0069782888, 0.035554368, -0.007707183, 0.022743609, -0.019630676, -0.019639974, 0.016695553
0.008920598, -0.0072967554, 0.022491198, -0.002661802, -0.0024345207, -0.008546916, -0.0069691716, 0.0032632179, 0.013754363, 0.014103069, 0.016783928, 0.009535823, 0.004661687, 0.01767768, 0.02274966, -0.015584046, 0.010895927, 0.0053191073, -0.008910342, -0.0060581947, -0.007328923
0.001331678, 0.003606607, -0.0015719724, 0.0038230817, 0.003332981, 0.00484153, -0.0026890486, -0.00074782805, -0.0024067187, -0.0049749557, -0.002189277, 0.0020284967, -0.0014188639, -0.0023436192, -0.0019504869, 0.002750197, 0.004586297, -0.00025639465, 0.0037773636, 0.0002110303, -0.003324524
0.030393068, -0.032557864, 0.02350007, -0.008587555, -0.005852937, -0.04709721, 0.015131237, 0.049952805, 0.032362927, 0.035184473, 0.06324303, 0.038161386, -0.0074982774, 0.035546124, 0.053673726, -0.013808059, -0.0024005568, 0.03190865, -0.029988945, 0.010173729, 0.01732923
-0.005946383, -0.0057901293, 0.028566608, -0.0049482794, -0.0038033521, -0.007967006, -0.013270412, -0.0011357048, 0.016398847, 0.020278784, 0.012360924, 0.006460895, 0.0013069529, 0.020863233, 0.014704078, -0.013925054, 0.01713989, 0.012718896, -0.0060671903, -0.018378003, -0.012530528
-0.002678373, 0.008277075, -0.025122626, 0.0036347946, 0.0018239253, 0.009048376, 0.017761644, 0.018973608, -0.009915473, 0.0009596975, -0.0022751829, 0.0029797913, 0.0006230399, -0.013030803, -0.0143839205, 0.024352135, -0.014654887, 0.007236899, 0.009546812, 0.01089351, 0.020309987
-0.0046654064, 0.012964364, 0.0088294735, -0.006392601, -0.0075890725, 0.014975329, 0.012783692, -0.012176514, -0.006554641, 0.013375388, -0.0036611597, -0.0016941366, 0.013655877, -0.008719448, -0.008367274, -0.0037916664, -0.0011022732, -0.005889758, 0.016270408, 0.0125616845, 0.012084808
-4.4276028e-14, -1.2981795e-14, -1.1502057e-13, -4.8876147e-15, 5.805121e-14, -9.022628e-15, -7.568893e-15, 8.3658944e-14, 1.3346105e-13, -1.3586701e-13, 5.801671e-14, 1.0546618e-13, -3.6991443e-14, 1.3152255e-13, 3.636747e-14, -3.468297e-14, -7.087736e-14, 6.636841e-14, 7.3916743e-14, -6.878748e-14, 3.0852274e-14
0.0024180529, -0.001487772, -0.0016463025, 0.0029447628, 0.0028311892, -0.0015073635, 0.0013998598, -8.530627e-05, 0.00085782394, -0.0022785899, -0.0016317443, -0.002371733, 0.002503446, 0.0013478454, -6.0530943e-05, 0.0020764759, -0.0010308904, -0.001172373, -0.002016121, 0.0007436603, 0.001207911
0.010130403, -0.0011324484, 0.0017998167, 0.0025895457, 0.0019911688, -0.00046869618, 0.002251163, -0.0018621956, -0.0010944683, -0.0031038285, 0.0012631487, 0.0007264495, 0.0030303798, -0.0009355914, 0.00550059, -0.0035256222, -7.5499474e-06, -0.0057644574, -0.0014266178, 0.0077747563, 0.0010000356
0.021180598, -0.016532155, 5.1618037e-05, 0.01354738, 0.016474033, -0.018192736, 0.038715582, 0.013861747, 0.01004076, 0.006105732, 0.0046777003, -0.015762135, 0.03603994, 0.012267002, 0.01458093, 0.013064223, -0.027024841, -0.00500866, -0.022814738, 0.017646933, 0.037859615
-0.004104729, -0.0006176892, 0.007175093, -0.003224631, -0.0021529214, -0.0012428125, -0.0038498987, -0.00095869025, 0.0046334644, 0.00604748, 0.0024926001, 0.0013960858, -0.002378061, 0.0059291925, 0.0021310337, -0.0028906541, 0.0046824007, 0.0042424877, -0.00064224406, -0.006152558, -0.003324945
0.0004253461, 0.018888703, -0.011627295, 0.015447163, 0.01323251, 0.023810469, -0.0050255633, 0.009097879, -0.007785688, -0.01767288, -0.008027452, 0.015505464, -0.0021864087, -0.008944947, -0.0070481463, 0.022915388, 0.01889159, 0.008095172, 0.019408068, -0.0030130288, -0.0053376444
9.218322e-15, -0.0074918894, -0.0104620345, 0.0061299694, 0.00674375, -0.008950138, 0.0089957435, 0.007497301, 0.006165835, 0.005502837, -0.0044565815, -0.007144059, 0.00611491, 0.0075023584, -0.0037428478, 0.016357359, -0.00999337, 0.009935957, -0.008571432, -0.0010866249, 0.010395986
-0.006122781, -3.0466204e-05, 0.0069411765, -0.0034752493, -0.0024215912, -0.00017000812, -0.0045623495, -0.00086027174, 0.0046165483, 0.0072115716, 0.0017872681, 0.001060732, -0.0019288824, 0.005973195, 0.0004947181, -0.0024082917, 0.0048526214, 0.005588264, -0.0001967054, -0.0072388034, -0.004116005
0.02675759, -0.0060283756, 0.024645051, 0.035519235, 0.03577467, -0.0024972472, -0.02072422, -0.00665958, 0.019695926, -0.01683353, 0.00085846666, 0.0073571396, 0.021334188, 0.029362397, 0.024013447, 0.0001619747, 0.038294807, 0.00078533916, -0.009541544, -0.013180275, -0.025274754
1.3081021e-13, -7.943929e-16, -3.9192486e-14, -5.1228444e-14, 1.7497712e-14, -1.9336156e-13, 1.9932539e-14, -1.6167208e-13, 4.6626538e-14, -1.3277972e-13, 2.1937859e-14, 2.2159356e-14, -1.4775368e-13, -3.9219743e-16, -1.1605158e-14, -8.777037e-15, 1.4919022e-13, -7.215932e-14, 5.2483855e-14, -1.6461999e-13, -5.824565e-14
-0.0011555748, 0.0010474331, -0.0018502157, 3.107919e-05, -0.00019579017, 0.00041482545, 0.002184815, 0.00021534062, -0.0004342019, 0.0012593245, -0.001548552, -0.0017951233, 0.0014240239, -0.0006497991, -0.0019136476, 0.0016835617, -0.002402022, 0.00048233292, 0.0013104745, 0.0006209168, 0.00231295
-0.0031073925, 0.0022773447, -0.013142414, 0.007799002, 0.007455991, 0.0029553848, -0.0011729508, 0.006472798, -0.0014282126, -0.004687814, -0.00652285, -0.0007744315, -0.001437608, -0.0011145627, -0.008011065, 0.01495543, 0.0013601716, 0.007946946, 0.0008011708, -0.006365492, -0.00151874
-0.005053814, -0.0014396438, 0.0064783413, -0.0054030116, -0.004259165, -0.0024792736, -0.0033811845, 0.003960574, 0.004027057, 0.0066003036, 0.0066906726, 0.0058497526, -0.004972785, 0.0039719082, 0.004630096, -0.0034293877, 0.0045563052, 0.00705141, -0.0014555452, -0.0041075484, -0.0029777933
-0.0066931937, -0.0008266916, -0.013531318, 0.0054977834, 0.005906558, -0.0014073581, 0.0093886275, 0.0079047205, 0.0051512537, 0.0064092814, -0.006922631, -0.00579348, 0.0056563895, 0.0062656053, -0.010203689, 0.017368259, -0.0085484525, 0.010805941, -0.0012014828, -0.0019693424, 0.011042644
-0.0013259453, 0.013967481, 0.014676192, -0.0056375633, -0.008173903, 0.01734773, 0.005253904, -0.00971999, -0.007043514, 0.006332691, -0.0037265685, -0.002328377, 0.012330831, -0.00849514, -0.007225085, -0.012314019, 1.3446971e-05, -0.008606764, 0.018450154, 0.015093475, 0.0031604047
-0.005826767, 0.00075120566, 0.0062062647, 0.001244947, 0.00055943686, 0.0006342236, -0.0073490436, 0.0013582844, 0.003650149, 0.005921039, 0.0036115872, 0.004535544, -0.007086879, 0.0047488776, 0.0011707066, -0.0019045209, 0.007271584, 0.007261952, 0.00068431726, -0.008802223, -0.0064694784
0.010479863, 0.014252736, -0.015110036, 0.02105228, 0.017777849, 0.019426262, -0.0072059836, 0.0056544114, -0.012193346, -0.026589522, -0.010993809, 0.0072292583, -0.00050871895, -0.013566888, -0.0076342686, 0.017499968, 0.01265461, -0.006207503, 0.014892299, 0.006598361, -0.0069098403
0.0047966605, 0.003240969, 0.010674036, 0.00071545504, 0.00019325665, 0.0048232204, -0.0013612375, -0.0059110723, -9.967468e-05, -0.0009048403, -0.0013786798, -0.00146152, 0.0076597384, 0.00065659947, 0.0042073308, -0.008398649, 0.004306495, -0.0077446355, 0.004506773, 0.005271571, -0.0024954497
0.008848763, 0.00064257433, 0.010168365, 0.0035662411, 0.003458031, 0.0021504874, -0.0054022786, -0.008913145, 0.0005760814, -0.006886929, 0.00069754047, 0.0013900938, 0.0038978548, 0.00172795, 0.0070311055, -0.008618864, 0.008058526, -0.009170102, 0.001313555, 0.003824303, -0.0071949945
0.008962821, -0.0040134923, -0.008857456, -0.003412619, -0.003872815, -0.0063519957, 0.0077513754, 0.0077012144, -0.0061633424, -0.0049943877, 0.006783258, 0.004725493, -0.0025183863, -0.009298769, 0.005729841, -0.001515819, -0.009031353, -0.005712344, -0.0034694078, 0.009925162, 0.007369619
-6.879073e-15, -3.2194713e-14, 4.279832e-14, -7.618974e-14, 2.649957e-13, 1.3673229e-14, 1.12772625e-13, 1.0873285e-13, -8.166304e-14, 7.6093666e-14, 4.226624e-14, -2.4591073e-15, 1.080196e-14, -3.3477855e-16, 2.7202734e-14, -2.6446933e-14, 1.256123e-13, 8.1059196e-14, 5.249816e-14, -7.7255354e-14, -1.2187527e-14
1.03465454e-13, -1.8314723e-14, 1.2486316e-13, 1.39744e-15, -1.1657252e-13, -5.5796117e-14, 1.6674392e-14, 1.2706836e-14, 2.7048896e-15, -1.1506003e-13, 4.7025633e-14, -2.9906907e-14, 1.9247846e-14, -1.50837e-14, -1.16989844e-14, 1.5909766e-13, -5.1567454e-14, 1.0163055e-13, -7.9084376e-14, -4.2655583e-14, -5.2475026e-14
-0.0005580731, 0.006658541, 0.0072404873, -0.00096683565, -0.002110965, 0.0082584685, 0.0046217567, -0.007999152, -0.0025960822, 0.0044004177, -0.004793128, -0.0050624907, 0.009503964, -0.0030235525, -0.0048113205, -0.0054667043, -0.0019057613, -0.0065618684, 0.008543265, 0.007837776, 0.0034325249
0.10113575, -0.05989748, 0.092655905, 0.09051968, 0.09777287, -0.05951372, -0.007499081, -0.04454228, 0.09885244, 0.0057073757, -0.009463705, -0.047783755, 0.11952138, 0.13874203, 0.08518533, -0.025261879, 0.03739885, -0.029860258, -0.071375474, 0.0024356479, -0.01982921
0.015183684, -0.0030901642, -0.0006673194, 0.009729001, 0.008975467, -0.0023650657, 0.0018430151, -0.0062791915, -0.0008199102, -0.0074259797, -0.0037345134, -0.004471256, 0.009698285, -0.00016861477, 0.005592903, -0.0017815772, -0.00053957105, -0.008222655, -0.0034530405, 0.008363325, -0.00021162255
-1.753378e-12, 0.005863338, -0.003995077, 0.0046371687, 0.0038461338, 0.007473239, -0.0013680359, 0.0014278091, -0.003640574, -0.005825539, -0.0031178312, 0.0036030114, -0.0017462412, -0.0047640526, -0.0033897117, 0.0062912884, 0.005312407, 0.0017990633, 0.006105525, -0.0002604526, -0.002058711
-0.0063766316, 0.0073092696, -0.0068699988, 0.008524874, 0.007547997, 0.009227514, -0.0055903057, 0.0050016926, -0.00074084714, -0.004297133, -0.0067982357, 0.0028383012, -0.0010358953, -0.0010014457, -0.008711533, 0.015004994, 0.005051026, 0.00682153, 0.0067033325, -0.0055739516, -0.004915505
0.0038271737, -0.0016153633, -0.0014562978, -0.00029982752, -0.00018780874, -0.0021948062, 0.0028375958, 0.002490589, -0.0007353321, -0.0032266874, 0.0018343952, 0.0011707584, -0.00021664197, -0.0010805998, 0.001992175, -0.00013349806, -0.0011009333, -0.0024766296, -0.001536733, 0.0037625022, 0.0026583336
0.0008440389, -0.00015142772, 0.0006253231, 0.0007209121, 0.0007203107, -2.1191707e-05, -0.00031110752, -0.0008432289, 0.00028541646, -0.00062149996, -0.00034442567, -0.00038272399, 0.0007662506, 0.0004840323, 0.00043997852, -0.00035694617, 0.0004958198, -0.0007286646, -0.00019554253, 0.0001749092, -0.00046993216
-0.0006032976, -0.0018308965, -0.0031266932, 0.0012282394, 0.0014215679, -0.0022677465, 0.0015323105, 0.0018418866, 0.0014105276, 0.0009812405, -0.0014830297, -0.0023497788, 0.00082161947, 0.0017199614, 7.496196e-15, 0.0033218048, -0.002352989, 0.0022304682, -0.0025673306, -0.0018640835, 0.0018426983
0.0038364208, -0.0051384172, -0.013391839, 7.134208e-05, -6.969645e-05, -0.00701649, 0.011039197, 0.014680252, -0.0010697524, 0.0003368793, 0.002844055, 0.0007030231, -0.0032706468, -0.0025952854, 0.00092439016, 0.009993959, -0.007099753, 0.0049807606, -0.007359699, 0.0033916219, 0.012106039
0.0047368724, 0.03889152, 0.048568167, 0.0045726695, 0.0025110245, 0.047878645, -0.025874402, -0.004380805, 0.00066277664, 0.004900634, 0.016210796, 0.042429995, -0.0030203706, -0.001747753, 0.016310157, -0.0147417765, 0.057773296, 0.005174, 0.047357824, 0.02169545, -0.02941066
0.020718763, 0.005702089, 0.028497072, 0.007232404, 0.006867982, 0.010170714, -0.0004191609, -0.023602022, 0.000908562, -0.0070147845, -0.0050542383, -0.008853598, 0.025918592, 0.0034791068, 0.009618929, -0.023205874, 0.009055876, -0.025809126, 0.008527589, 0.018404845, -0.005995571
-0.0058304076, 0.014215777, 0.010962835, -0.012302155, -0.014839055, 0.015882917, 0.011953008, -0.010390398, -0.008636087, 0.014104498, -0.0029642277, -0.0034939328, 0.010079387, -0.01179965, -0.0070125284, -0.011502294, -0.0069454894, -0.00826114, 0.019058635, 0.016155776, 0.01077893
-0.009959396, 0.015624745, 0.012699673, -0.008062374, -0.007270305, 0.017939914, 0.011895858, -0.012179755, -0.004912181, 0.017294113, -0.00686048, -0.007772822, 0.0137474565, -0.0077309865, -0.015776416, -0.0042821653, -0.0074233063, -0.0030788223, 0.02016485, 0.014076983, 0.010753033
0.02080915, 0.003006609, 0.029659273, 0.015442867, 0.01465379, 0.0064495117, -0.023900915, -0.005061752, 0.008871316, -0.01267722, 0.011585667, 0.022465654, -0.0035506827, 0.01482671, 0.02623886, -0.015098549, 0.045562156, -0.0030893383, 0.0034551932, 0.0016320037, -0.024481121
-1.487677e-13, -1.4673104e-14, 3.8552908e-14, 2.3787887e-14, 1.9363837e-14, 1.0072315e-13, -4.8899266e-14, -2.0696352e-15, 1.3455984e-14, 9.169426e-14, 8.776472e-14, -1.058588e-13, -4.4676692e-14, 2.5752348e-14, -1.6840975e-13, 1.366977e-13, 1.538568e-14, 1.9413698e-13, -2.535998e-14, 7.0510214e-14, 3.3183617e-15
6.618998e-14, 2.2136142e-14, 3.5044406e-14, 2.9548866e-14, 6.3186164e-14, -2.9092607e-14, -2.8762586e-14, 1.7989463e-13, 1.8977075e-13, -1.0453241e-13, -8.6116654e-16, 1.03378826e-13, 3.0748783e-15, -5.0619014e-14, 6.0997587e-15, -3.8386598e-14, 5.4354734e-14, -7.247898e-14, -8.638658e-14, 4.1328703e-15, -1.7066337e-13
3.1269966e-15, -8.43775e-14, 4.871424e-14, 6.38337e-14, 7.8396245e-15, -5.0902052e-14, 4.0277e-15, 7.7220484e-14, 4.4824164e-14, -6.883866e-14, -1.493215e-14, -8.5628905e-14, -6.747949e-15, 1.9615828e-13, -3.620069e-14, -1.9410055e-13, 1.3487242e-13, 2.304539e-14, -9.2870664e-14, 2.5631458e-14, -4.0968392e-14
-0.00029786845, 0.002933885, -0.0027268697, 0.0023742295, 0.0019989787, 0.0037082646, -0.0011526499, 0.0008877936, -0.0022297697, -0.0032344128, -0.0015244778, 0.0019315941, -0.0008942814, -0.0024216436, -0.0023772432, 0.0033182756, 0.002775372, 0.0011003201, 0.0030210698, -0.0004927674, -0.0009729079
0.0019840302, -0.0022133512, -0.0031819358, 0.009121775, 0.009627277, -0.00232226, 0.008788829, 0.004248241, 0.0071836277, 0.0037452248, -0.0050022556, -0.005962755, 0.0099159535, 0.009371772, -0.0018498492, 0.01603562, -0.0033927767, 0.0074418453, -0.0025997316, -0.00023085561, 0.00964231
-0.00023097194, 0.00059603265, 0.0005596471, -0.0006009588, -0.00070158875, 0.0006651185, 0.00041615992, -0.00053239, -0.00038739218, 0.0005333595, -4.8504347e-09, -1.6297667e-05, 0.0003092038, -0.0005283887, 1.4787531e-13, -0.0006138869, -9.197756e-09, -0.000415637, 0.00080823177, 0.0006948707, 0.0003594852
-0.005428758, 0.007313226, -0.008928416, 0.005799059, 0.004853999, 0.00907032, -0.005909977, 0.0038606974, -0.005862188, -0.007361461, -0.0035612849, 0.0055932296, -0.0063012196, -0.006520434, -0.0051160036, 0.010085846, 0.006681206, 0.0042725233, 0.007389079, -0.0032055357, -0.004779777
0.011320464, 0.0050959075, 0.009414819, -0.005970188, -0.007495587, 0.006748746, 0.015946738, -0.008068741, -0.0064952034, 0.0039908313, 0.0025259424, -0.003158662, 0.015102359, -0.008365162, 0.006048605, -0.014210217, -0.011981655, -0.017635746, 0.007282494, 0.02256635, 0.014691142
0.0018204413, -0.00094575883, -0.0016069426, -0.0001895618, -0.00024490114, -0.001254087, 0.0009087097, 0.0014404776, -0.0009041257, -0.0016658967, 0.0012088993, 0.00094631896, -0.0008048822, -0.0013547231, 0.0013290566, -0.00013897463, -0.0011729802, -0.00094856415, -0.0009421608, 0.0014081736, 0.00085407007
-0.0155933825, -0.0037846554, -0.014255519, -0.00736353, -0.005831712, -0.006197913, 0.007983959, 0.016704127, 0.0054685334, 0.01654244, 0.0014044931, -7.7809345e-05, -0.0076498664, 0.0050483644, -0.008253687, 0.013820679, -0.012051436, 0.02017766, -0.0051583336, -0.006117388, 0.011226399
-0.0015114403, -0.0033233168, -0.023173738, 0.00884821, 0.008304587, -0.0050865994, 0.02837914, 0.01575626, 0.0062853196, 0.010226312, -0.0066849873, -0.0120039405, 0.015914924, 0.0061351294, -0.012919173, 0.030055616, -0.028954443, 0.01156059, -0.0034617183, 0.0056534214, 0.030403258
6.5612304e-14, -1.0119195e-13, -1.3496521e-14, -1.0140058e-13, -6.067953e-14, 8.3844615e-18, -2.5742735e-13, -5.5199734e-14, 3.113e-14, 1.5580733e-15, -7.0685794e-14, -5.830676e-14, -2.9629775e-14, 2.6761826e-13, -8.2168525e-14, 6.227893e-14, -2.3268513e-13, -3.056304e-14, 2.853775e-14, 1.0640027e-13, -2.3064018e-14
-0.009056227, 0.0020336881, -0.012839782, 0.005830795, 0.0060458523, 0.0020823786, 0.006236893, 0.008189842, 0.0039300486, 0.0051472574, -0.007280309, -0.0032399406, 0.004431585, 0.0046209465, -0.011632397, 0.01836724, -0.0053219553, 0.011928233, 0.002059986, -0.003091762, 0.0082575455
0.0064802566, -0.0143451085, -0.0149806915, 0.0031500743, 0.0046380456, -0.016534172, 0.016709466, 0.016851692, 0.005320378, 0.003904585, 0.005600711, -0.0038544333, 0.0056202617, 0.0056324606, 0.0054100216, 0.012777139, -0.017624909, 0.0060315495, -0.019200094, -0.00031198873, 0.01781967
0.027957976, -0.0049760626, 0.011041794, 0.016360613, 0.015616877, -0.002512687, -0.003367391, -0.008989969, 0.0024973922, -0.020253465, -0.0035701285, -0.0042707706, 0.01519117, 0.006308065, 0.014761059, -0.00679974, 0.0075600124, -0.022685071, -0.0057127667, 0.012475017, -0.0047399555
0.003807385, 0.000446654, -0.009146011, 0.00043854685, -0.00019628752, 0.00011320004, 0.0033171654, 0.008991045, -0.0029280768, -0.0028634167, 0.0031678255, 0.0055211317, -0.0039617773, -0.0037528253, 0.0008491831, 0.004860108, -0.0021600267, 0.0012971341, 0.0004277226, 0.0040196264, 0.0032936605
0.01519248, -0.02860415, 0.007613525, 0.017922716, 0.020411763, -0.034349997, 0.0049102143, 0.017284986, 0.035091557, 0.017431533, 0.011314831, -0.002243397, 0.022495702, 0.04484284, 0.021421159, 0.013645426, 0.000741693, 0.025550792, -0.032748893, -0.0075292117, 0.00512216
0.007661652, -0.00018832252, 0.0062356577, 0.006708581, 0.006696155, 0.00011427016, -0.003920608, -0.007914831, 0.002344844, -0.00628356, -0.0028994158, -0.0026584722, 0.0063657574, 0.0041460604, 0.0042751185, -0.0035739983, 0.005735022, -0.004545731, -0.00025617264, 0.0014113254, -0.005369933
0.021503918, -0.013637482, 0.023691306, 0.004334274, 0.0051579447, -0.014384422, -0.010125207, 0.0009944187, 0.01307742, -0.0029833796, 0.018185364, 0.011198092, -0.0017449093, 0.016273987, 0.028123027, -0.018253567, 0.015745657, -0.0050628018, -0.015873175, 0.001613854, -0.012372763
0.008591896, -0.003861813, -0.00683459, -0.0026855338, -0.0020758177, -0.0043627676, 0.0053821173, 0.008678367, -0.0029302707, -0.0052849804, 0.007906343, 0.0060396153, -0.003700562, -0.0028924162, 0.0072165146, -0.0016964992, -0.0029583315, -0.0034871725, -0.0043367846, 0.0075281523, 0.0052368604
-0.0014783967, 0.015412857, 0.022879066, -0.0089879595, -0.007731779, 0.018302867, 0.014210983, -0.026104098, -0.0020277465, 0.018351978, -0.0077808243, -0.011957355, 0.022693308, -0.0024523481, -0.006615079, -0.018628698, -0.007058474, -0.016144432, 0.020592526, 0.019918421, 0.011592664
0.00071796787, -0.001054314, -0.00032788754, 0.0016043409, 0.001685118, -0.0010718561, 0.00036821153, -0.000351674, 0.0010718028, -0.0003439265, -0.00057294563, -0.0014215762, 0.0015631373, 0.0014914607, 0.00040356556, 0.0011175026, -0.00049272657, 3.8645794e-05, -0.0014665142, -0.0006159784, 0.00029300764
-0.005446158, 0.007548503, -0.002003204, 0.0058242893, 0.0052072164, 0.009715104, -0.008772372, -4.8089616e-05, -0.002156929, -0.0032321957, -0.0038856678, 0.0045715687, -0.003492742, -0.0023828894, -0.005159428, 0.0067532253, 0.00977802, 0.0032248937, 0.0076886676, -0.0037464115, -0.008333356
0.019150529, 0.0069476087, 0.007491572, 0.010633227, 0.010714167, 0.01090657, 0.013513267, -0.0092808055, -0.0052934345, -0.0032897003, -0.0034883106, 0.00042155953, 0.024636257, -0.0047006495, 0.0031443273, -2.1479369e-05, 0.0035194647, -0.016403578, 0.008127285, 0.020993393, 0.010387408
-0.007077706, 0.0025318556, -0.0007650998, -0.0023040061, -0.0018842273, 0.0023632257, 0.008511014, -0.0013001192, 0.0013030258, 0.010952053, -0.005401711, -0.008029368, 0.006918205, 0.0008838236, -0.009383523, 0.004102286, -0.008082722, 0.0036652389, 0.0028824357, 0.0013439131, 0.008794826
0.035117522, -0.001877716, 0.02330371, 0.033344183, 0.03403773, 0.004239442, -0.018999109, -0.031152226, 0.013591696, -0.029341042, -0.012551662, -0.00977778, 0.02692449, 0.022880845, 0.019159488, -0.0097288415, 0.026495947, -0.025118267, -0.0004420047, 0.0013626323, -0.025049409
-0.0024153504, 0.013831278, 0.004754058, 0.0022099945, 0.0013154926, 0.016823664, 0.0051451824, -0.0071972143, -0.0051194523, 0.00423283, -0.0041853613, 0.00510743, 0.009336558, -0.006785679, -0.0060642147, 0.0040429756, 0.007174382, -0.0020581821, 0.015945796, 0.006379625, 0.0040683276
-0.02566978, 0.033763647, -0.013990558, 0.02096823, 0.018252023, 0.042472526, -0.030891871, 0.0066044754, -0.011021326, -0.012861217, -0.016461642, 0.020517308, -0.01591566, -0.011891319, -0.025520684, 0.03357002, 0.037340514, 0.02095831, 0.034489695, -0.020665685, -0.029387372
0.0037044236, -0.0018830325, 0.0002893027, 0.006958971, 0.007124947, -0.0010956202, 1.682792e-05, -0.004140451, 0.0039056116, -0.0023073256, -0.0054828944, -0.0055884356, 0.0072713587, 0.005809377, 4.737534e-06, 0.002532055, 0.00027677076, -0.0018003413, -0.0025388547, 0.00039490184, -0.00063911
1.5942493e-14, -1.6100346e-14, 1.1594253e-13, -1.3018282e-13, -2.603504e-15, -6.956903e-14, 7.879594e-14, -3.4183865e-14, -3.2427535e-14, -7.676748e-14, -1.7290326e-14, 1.3643398e-14, -2.2761156e-15, 2.4541535e-15, -1.4075301e-13, -6.167423e-14, -3.3768534e-14, 8.616848e-14, -5.6536447e-14, 9.81868e-15, 2.6026243e-14
-2.277815e-14, 8.017961e-15, -2.5127998e-14, 2.1537322e-13, -2.5726132e-14, 1.2859143e-13, 5.3398766e-14, -1.481758e-13, 2.3532083e-14, -2.505683e-14, 5.6122367e-14, 1.2167692e-13, -1.6670206e-13, 3.989902e-14, -6.31975e-15, -8.0627155e-14, 2.5744129e-13, -1.0484144e-13, -7.977049e-15, -6.7979984e-16, 8.337226e-14
-0.0025442196, 0.011292507, 0.010500453, -0.008308158, -0.010265277, 0.012938164, 0.0066839876, -0.010390271, -0.0067317723, 0.007869045, -0.0014237071, -0.0012570672, 0.0074005662, -0.008888234, -0.0060291807, -0.010237044, -0.0019037223, -0.008164622, 0.01498662, 0.012579047, 0.005471586
-0.007741497, 0.002771763, -0.0029208963, -0.0029557645, -0.0036957895, 0.0024200552, 0.0102581065, -0.00047906974, 0.000260768, 0.011749711, -0.0057216026, -0.009058873, 0.0076451423, -0.00018791988, -0.010856336, 0.004845342, -0.009986723, 0.003637531, 0.003072205, 0.0015279879, 0.010770019
-0.017732466, -0.0067043374, 0.020874057, -0.022115083, -0.017725984, -0.00985786, -0.010005034, 0.010000537, 0.014235228, 0.025952661, 0.021199642, 0.0145270815, -0.021774858, 0.016295677, 0.012516695, -0.011466311, 0.011556083, 0.021423759, -0.0069264714, -0.018049376, -0.008220819
-0.014485009, 0.0028093485, 0.0070148213, -0.011983305, -0.011736846, 0.0011118441, 0.008696307, 0.0036026628, 0.0030972296, 0.025698774, 0.0055669886, -0.0001869088, -0.00040388107, 0.00206493, -0.0025366575, -0.00069265824, -0.0058654086, 0.0102724675, 0.004270276, -0.0030547609, 0.009896822
0.0019043803, -0.0008977657, -0.0017959762, -0.0005278113, -0.0006330582, -0.0012591907, 0.0013994128, 0.0015625765, -0.0011870493, -0.0015540688, 0.0013634664, 0.0009846713, -0.00077625545, -0.0017891949, 0.0012574934, -0.000287912, -0.0016736053, -0.0011518035, -0.00082254014, 0.001904204, 0.0013335915
-0.00019192019, 0.00021010886, -0.00011228549, 0.0013574886, 0.0015019377, 0.00033689386, 0.0012701984, -0.0011981657, 0.00035127916, 0.0008264045, -0.0017309939, -0.002125651, 0.0022739465, 0.00052755733, -0.0014178193, 0.0006598547, -0.001144597, -0.00033363185, 0.00013304, 0.00041397678, 0.0011696261
3.3656753e-14, -2.1688655e-14, -4.8695043e-14, -1.597328e-14, 1.4809907e-14, -1.384652e-13, 1.3586793e-14, -8.569856e-15, -1.2464154e-13, -4.8997065e-14, -3.800105e-14, -1.2595782e-13, -1.6349957e-13, 1.182764e-13, 1.06630904e-13, 1.06752396e-13, -9.1472924e-14, 3.5308168e-15, 1.7669061e-13, 1.11105244e-13, -3.6918185e-15
-1.04280615e-14, -6.629256e-15, -4.117323e-14, -1.5350604e-15, -9.100105e-14, 8.287937e-14, 1.2893919e-13, 3.9879887e-14, -8.982055e-14, 3.1843912e-14, -1.6314123e-13, 1.3663342e-13, -1.8593612e-13, 6.4988284e-14, 3.1588373e-14, -9.914139e-14, -1.8841954e-13, -5.7233616e-14, -9.477872e-15, -7.846576e-14, -1.007515e-13
-0.0025183293, 0.0026349316, -0.0025835063, -0.00036926806, -0.0006478167, 0.002906162, -0.00043176877, 0.0015684537, -0.0016624362, 0.00096650457, -0.0009714876, 0.0013707868, -0.0018510642, -0.0021009527, -0.0034081922, 0.003018527, -1.4182639e-06, 0.0026239536, 0.0028298965, -0.0009219442, 0.00021180518
-0.013312874, -0.0008350732, 0.019736493, -0.0271639, -0.023884013, -0.0025676696, -0.010550258, 0.009707199, 0.0049954653, 0.019688927, 0.02553244, 0.021482062, -0.026253672, 0.003980615, 0.013715771, -0.019514427, 0.010439934, 0.013456488, -0.00028798968, -0.0035324492, -0.008948159
-0.011714912, 0.0034979226, 0.016293429, -0.0072742957, -0.0061770864, 0.0036517347, -0.015394383, 0.0022393926, 0.0059496392, 0.010552178, 0.009875081, 0.013169339, -0.011999549, 0.007798356, 0.0046315454, -0.004650916, 0.018367173, 0.013690429, 0.0038231828, -0.012828241, -0.014780096
-4.5298468e-14, -6.701219e-14, -4.131498e-15, -1.2563488e-13, 1.1046675e-13, 2.292364e-14, 1.8259859e-14, 2.1371092e-14, 1.1853264e-13, -8.322892e-16, -1.3827909e-13, 4.066094e-14, -1.2795594e-13, 1.09133934e-13, 8.105523e-14, -7.772979e-14, -3.0839677e-14, 9.35161e-14, 1.7855041e-13, 1.3158574e-13, 4.0510296e-14
-0.0035389357, 0.004518737, -0.0014555221, 0.0031112893, 0.0026115237, 0.005700752, -0.004419805, 0.00070262235, -0.0021176925, -0.0035373128, -0.002523765, 0.0023411214, -3.808884e-11, -0.0024694947, -0.0039330283, 0.0045762113, 0.0042183604, 0.0020217437, 0.004676603, -0.0019387798, -0.0037568328
0.00044793976, 0.00087675714, 0.0006810348, -0.00047408012, -0.0003357885, 0.000853485, 0.0021094114, -0.0006691849, -0.0010209205, 0.00065888296, 0.00025827947, -0.0001553328, 0.00094718806, -0.0014239014, -0.000581944, -0.0013345287, -0.0018080185, -0.0016265037, 0.0013650452, 0.0026983558, 0.0019168623
0.002024374, -0.0011914513, -0.0012066273, -0.0004196736, -0.0002995002, -0.0016315265, 0.0011992897, 0.0018239067, -0.0008662697, -0.0015829168, 0.0017668984, 0.0012858241, -0.0011659252, -0.0013675248, 0.0017185333, -0.00048002694, -0.0015114275, -0.0010189669, -0.0011547267, 0.0016760026, 0.001145645
0.0017852982, -0.00037729548, 0.0014627302, 0.0014370847, 0.0014790149, -0.00011543551, -0.001001974, -0.0016296904, 0.0006431133, -0.001428219, -0.0004402326, -0.00045271672, 0.0012245247, 0.0010689674, 0.0012206082, -0.00088817434, 0.0013827598, -0.001429252, -0.00047288937, 0.00016591244, -0.0013208713
0.00033281778, -0.008101544, -0.004821621, 0.005078691, 0.0060980995, -0.009752742, 0.0047910167, 0.005672666, 0.00688604, 0.0035976653, -0.00055641483, -0.003315857, 0.0038344993, 0.008606432, 0.0011907212, 0.010953497, -0.0035857083, 0.00773347, -0.011062995, -0.0072804266, 0.00566461
0.010364298, -0.00078132434, 0.012380581, 0.0063809515, 0.006743844, -0.0005721831, -0.00714044, -0.010938999, 0.0040363716, -0.0071287705, -0.00075810537, -0.00105315, 0.0062854895, 0.0065803784, 0.008679636, -0.008586003, 0.009976591, -0.0068396563, -0.00061621465, 0.0016181534, -0.008950425
-0.00016470277, 0.0039389674, 0.0041222144, -0.0034344627, -0.004067299, 0.004523597, 0.0017379397, -0.0037588247, -0.002468821, 0.002669527, 9.21553e-08, 9.475129e-13, 0.0017393394, -0.0032716736, 3.0604344e-14, -0.0042784195, 9.0389935e-15, -0.0029796, 0.005338041, 0.0043028602, 0.0013221157
-0.012732789, 0.023517728, 0.024567738, 0.0007679889, -0.0010367177, 0.023825496, 0.011614535, 0.016989717, 0.002110769, 0.037378583, 0.018082798, 0.030410798, 0.0072485562, 0.0037511631, 0.004171175, 0.009888451, 0.027410476, 0.023469212, 0.030699126, 0.0029165887, 0.012074523
-0.008155347, -0.029285956, 0.03966889, -0.0005251474, 0.009425284, -0.035980713, -0.0058268877, 0.03109013, 0.0521979, 0.044046618, 0.031679466, 0.017039882, 0.0026325693, 0.06677264, 0.03302201, 0.0063715023, 0.023251297, 0.05147089, -0.03183113, -0.03660054, -0.0015858699
-0.0022638089, 0.0031533302, -0.00213921, 0.0020017966, 0.001662308, 0.0039633, -0.0033783116, 0.0007498107, -0.002154897, -0.0028485218, -0.0012951085, 0.0022375132, -0.0024968055, -0.0023155021, -0.0023348134, 0.0029443733, 0.0032163665, 0.001308416, 0.0033150185, -0.0012560629, -0.0028980905
0.06500775, 0.044563323, 0.0039814613, 0.104312845, 0.090817764, 0.061115354, 0.019058293, 0.042453118, 0.013347443, -0.03739386, -0.017526543, 0.03798495, 0.07050825, 0.02853541, 0.016144188, 0.08915266, 0.06809694, 0.015038641, 0.046617474, 0.03908328, 0.011714743
0.15509306, 0.002528305, 0.016444964, 0.04945479, 0.049656324, 0.010420323, 0.0043952777, 0.11335641, -0.005411378, -0.092088066, 0.09623248, 0.13509093, -0.024046857, -0.0020903891, 0.13382371, -0.006731907, 0.07228328, -0.026131852, 0.0013394811, 0.103010155, -0.0020327643
0.004824399, 0.0007360615, -0.008562637, 0.018048804, 0.017839517, 0.0022689514, 0.0014329473, 0.0040610395, 0.004264279, -0.008351716, -0.009151363, -0.0041691423, 0.009552704, 0.006857926, -0.0037498474, 0.02158275, 0.002069042, 0.0056906343, 7.4955824e-05, -0.0009791158, 0.0024514522
0.007133224, -0.014058725, 0.02874804, 0.0081118, 0.00994806, -0.014945275, -0.012477948, -0.005201982, 0.022934321, 0.0141289765, 0.009622027, 0.0013625638, 0.009322627, 0.029633455, 0.022095624, -0.009094958, 0.017801262, 0.004964613, -0.016683217, -0.011320121, -0.011920809
-0.0035289766, 0.008574285, 0.0038349926, -0.0032532054, -0.0031869344, 0.010136541, 0.0024920886, -0.0061844825, -0.005318519, 0.0030578182, -0.002699272, -0.0004004074, 0.0035593475, -0.006663605, -0.0035860017, -0.003374068, 0.00024552536, -0.004041153, 0.010742978, 0.006687443, 0.002110756
-0.012217436, 0.02560729, 0.034178328, -0.0133011285, -0.010508179, 0.030598078, 0.013507595, -0.026968066, 0.000500474, 0.029994112, -0.0035650874, -0.004003451, 0.019785201, 0.00034381737, -0.013101373, -0.021194536, 0.0052295015, -0.0050336057, 0.03241951, 0.018790787, 0.009323407
0.00028867365, 0.010860699, -0.00428643, 0.0101390155, 0.008801258, 0.014220149, -0.006523775, 0.0025712124, -0.0023235292, -0.011907923, -0.005813, 0.007685579, -0.000540641, -0.0021588737, -0.00643402, 0.012087054, 0.012503686, 0.0034676685, 0.011080286, -0.004172929, -0.006896029
0.005552301, 0.005746565, 0.0008723049, 0.02053203, 0.018587055, 0.010061483, -0.013369293, 0.0026105158, -0.00016147815, -0.015156868, -0.004192637, 0.0052391477, 0.002352539, 0.0019705605, 0.00084002106, 0.009952778, 0.017748427, 0.0049796943, 0.004748901, -0.005208947, -0.014367269
-0.0003294148, -0.0020437432, -0.002146349, 0.0015363003, 0.001745864, -0.002486927, 0.0015891152, 0.0017328884, 0.0016336166, 0.0009072925, -0.00062879745, -0.0013505832, 0.0011427464, 0.0020230561, -0.00029306638, 0.0034794463, -0.0017358176, 0.0021995693, -0.0028272858, -0.001973917, 0.0018773313
0.061674286, -0.029423919, -0.028911628, -0.014818288, -0.017045278, -0.041097045, 0.04058435, 0.12630177, -0.0025277326, -0.01620711, 0.09158763, 0.081594735, -0.058737807, -0.011590802, 0.0847869, 0.022197349, -0.032355238, 0.017984156, -0.036369234, 0.052052725, 0.045692507
-0.0047636726, 0.009411276, 0.0142791895, -0.008201881, -0.009623048, 0.0100243, 0.008115565, -0.012550773, -0.0018909648, 0.01405139, -0.0018132267, -0.003201777, 0.013662495, -0.0025010337, -0.007354042, -0.006575201, -0.0024700821, -0.0055684093, 0.0127438875, 0.009542212, 0.006219828
0.026191464, 0.0036882302, 0.01160666, 0.03976012, 0.038274728, 0.008020489, 0.0037434357, -0.011728945, 0.006014438, -0.01801575, -0.017413601, -0.016368, 0.03502738, 0.013717962, 0.005452886, 0.013924029, 0.009482982, -0.011502979, 0.002408724, 0.009941165, 0.00036046462
-4.6868725e-14, 1.438585e-13, -1.8075775e-13, 1.7062293e-14, -1.3768423e-13, -1.3136547e-13, -4.9299123e-14, -2.4873192e-14, -1.5524894e-15, -6.1990825e-14, 1.081773e-13, 2.711912e-14, -9.349075e-14, -8.307202e-14, 9.690544e-14, 8.401922e-14, -5.2869205e-14, 3.7552414e-15, 1.3689111e-13, -5.0435716e-14, 3.930302e-14
-2.9124794e-14, -4.033549e-14, 6.129208e-14, 3.6584054e-14, -2.971134e-14, 2.062643e-13, -1.8760613e-14, 3.208338e-14, -7.9280346e-14, 3.6819147e-14, 4.9124198e-14, -8.534411e-14, 2.0565162e-14, -8.393294e-14, -3.4861667e-14, -1.3299412e-13, -2.9632438e-14, -8.29458e-14, 8.820706e-14, 9.762766e-16, 2.7252258e-14
-0.005565418, 0.011411818, 0.0013883514, 0.006229047, 0.005526172, 0.014703863, -0.012141249, -0.0014131002, -0.0034798656, -0.004935358, -0.0028654272, 0.008539692, -0.0034831096, -0.0038936364, -0.0047718715, 0.00524888, 0.014024423, 0.0024434128, 0.013049727, -0.004222751, -0.012110935
1.2250707e-14, -1.8458421e-13, -2.9655098e-15, 9.985914e-15, -8.575125e-14, -8.7435715e-14, -1.302188e-13, -2.6535816e-13, -3.7949302e-14, 4.873432e-14, -2.295327e-13, -2.5327657e-15, -8.297298e-14, -5.0352707e-14, 1.8367821e-14, 3.1173598e-14, 3.653941e-15, -1.1867623e-14, 2.9174237e-14, 9.013203e-14, -2.1161307e-14
-0.0026968212, 0.013474041, 0.011456145, -0.009971807, -0.011323568, 0.015535147, 0.010916062, -0.013705261, -0.008514961, 0.01031137, -0.0034471676, -0.004091004, 0.011815637, -0.011469751, -0.008057282, -0.012190043, -0.0064338758, -0.011511391, 0.018046994, 0.017123966, 0.009228242
0.00011060179, -0.00066827727, -0.0009442613, 0.0009525015, 0.0009942416, -0.000735727, 0.00048776428, 0.00016678499, 0.000602595, -2.5268582e-05, -0.0007078914, -0.00089484587, 0.00085983356, 0.0008107119, -0.00041085554, 0.0011676542, -0.00068639225, 0.00038994223, -0.0009628146, -0.0004098028, 0.0005239392
0.011421769, 0.011813647, 0.021585174, 0.0025218055, 0.003312727, 0.014979044, 0.012536367, -0.022700105, -0.0006151731, 0.0066154115, -0.006924951, -0.01040943, 0.027680825, 0.00041804463, -0.0017177814, -0.013853792, -0.0005644287, -0.018358398, 0.01610101, 0.024409035, 0.008219762
-0.0013463052, 0.0022480725, 0.0007285436, -0.0016317962, -0.002141785, 0.0024942723, 0.0032127043, -0.0019173226, -0.001392565, 0.0027388842, -0.0014225823, -0.0018537563, 0.002843913, -0.0019266746, -0.0015508956, -0.000837198, -0.002672519, -0.0013525164, 0.0029122494, 0.0029210506, 0.0030388988
-0.0031191034, -0.002304939, 0.003727008, -0.0051528453, -0.004130967, -0.0030507362, -0.001552497, 0.003190322, 0.0026135347, 0.0055645723, 0.0057683154, 0.0037045765, -0.0035623726, 0.0026056007, 0.0034935188, -0.0036187856, 0.0011515686, 0.004259185, -0.0022844197, -0.0039775628, -0.0011105066
0.019855626, -0.009924759, -0.012714199, -0.0069409776, -0.007898986, -0.014170679, 0.014817091, 0.018036587, -0.0082367705, -0.009095093, 0.015806267, 0.011388948, -0.009577345, -0.0123896105, 0.013980143, -0.0036850013, -0.017844878, -0.011509552, -0.009086643, 0.01971979, 0.014253591
0.0025836707, -0.00069166906, 0.0013692998, 0.0023506912, 0.00236561, -0.00035489202, -0.0008868487, -0.0021436058, 0.0008967112, -0.002056706, -0.0010526081, -0.0005394331, 0.0021529272, 0.001493695, 0.0013402544, -0.0006752508, 0.001322802, -0.0019780216, -0.0009032921, 0.00035732944, -0.0013297198
6.082677e-14, -2.7642295e-14, 5.4059777e-14, 2.7128083e-14, -1.4164852e-13, 3.513259e-14, 6.251064e-14, 2.5365594e-14, 1.2557734e-13, -2.542791e-14, -2.32113e-13, -5.3805464e-14, -8.7695e-14, -2.2735404e-14, 1.9802109e-14, -4.280248e-14, 2.3230014e-15, 3.31314e-15, 8.056092e-14, 2.4701392e-14, 2.8974507e-14
-0.0052258116, 0.0069816383, -0.005730817, 0.0052109947, 0.004423111, 0.008765981, -0.0062047704, 0.0024687662, -0.0032444536, -0.003916589, -0.003360445, 0.004867252, -0.004158273, -0.004565478, -0.0057477057, 0.007965774, 0.0068749804, 0.003423344, 0.007150639, -0.0031124437, -0.00595759
0.0008177336, -0.006372485, 0.0026370648, 0.0081735775, 0.009772948, -0.009130368, 0.0012158462, 0.004618738, 0.013145043, 0.002533043, -0.0006434619, -0.0027309544, 0.0037935418, 0.017965421, 0.0013426173, 0.009936505, 0.0035266837, 0.009152981, -0.0071070245, -0.0066345544, 0.0018666892
-0.0043671415, -0.0013130984, 0.0076728966, -8.307886e-05, -0.00040189992, -0.0019509064, -0.005050449, 0.00075486803, 0.005098599, 0.007880921, 0.0044020684, 0.0029482518, -0.0052893977, 0.0062964167, 0.0026595131, -0.0038924832, 0.0050914623, 0.0063538854, -0.0014767728, -0.007927033, -0.004497125
0.0027328136, -0.0012515563, 0.0029762702, 0.001546395, 0.0017789465, -0.0010428351, -0.0015649953, -0.0023155697, 0.0016590375, -0.0014135797, 1.1458584e-05, -0.00058030343, 0.0015769454, 0.0024148563, 0.0025931585, -0.002025607, 0.0021290581, -0.001852768, -0.001457372, -0.00024182025, -0.0020691066
0.018717743, -0.010042881, -0.011715866, -0.00285225, -0.004649749, -0.013494508, 0.012259617, 0.018459022, -0.00725077, -0.006740195, 0.017037716, 0.012360948, -0.006180509, -0.010975777, 0.014061038, -0.0010130142, -0.014606165, -0.006804258, -0.009468789, 0.016079126, 0.01206747
-0.009234708, -0.044433463, 0.0028919794, -0.018725414, -0.011230704, -0.05980212, 0.021244965, 0.050064694, 0.043359708, 0.05471372, 0.042029124, 0.017379178, -0.004642488, 0.04983709, 0.02930085, 0.016624631, -0.0070057753, 0.05784086, -0.054686498, -0.034365054, 0.026378231
-0.00038711852, 0.0004656275, 0.0015381342, -0.0004910789, -0.00034825143, 0.000598576, -0.0011002343, -7.586526e-05, 8.6026535e-05, -0.00026108514, 0.0011024721, 0.0017389543, -0.0016741776, 0.00019517212, 0.0009820771, -0.0010509957, 0.0022323716, 0.00036712966, 0.0005996912, -0.0003540766, -0.0015018414
-0.011034633, 0.010831871, 0.0033136508, 0.0045051794, 0.0043504997, 0.013454729, -0.012934312, 0.002962586, 0.0016210349, -0.00097377936, -0.0028384044, 0.009340675, -0.005163554, 0.0024020176, -0.0063727377, 0.009320475, 0.016111426, 0.010413778, 0.010957168, -0.011792696, -0.012305279
0.06947903, -0.058641024, 0.030931044, -0.00010087525, 0.00077824434, -0.07365217, 0.022900103, 0.04775687, 0.046348475, 0.017826037, 0.072666235, 0.026869353, 0.013624424, 0.053363528, 0.09973853, -0.026661417, -0.004299773, 0.0070958654, -0.060540292, 0.01620628, 0.023583416
0.012481276, -0.002204814, 0.0144154, 0.011378247, 0.011855686, -0.0018477053, -0.0067576803, -0.015722325, 0.00753351, -0.0012174388, -0.0057105194, -0.007005137, 0.013242778, 0.011724215, 0.007973711, -0.0065546744, 0.010642521, -0.0064340224, -0.002678647, -0.00013701775, -0.009046676
-0.0034063787, 0.008914939, -0.0017176386, 0.005893783, 0.004786691, 0.010616676, -0.010158078, 0.0035493076, -0.0042322953, -0.0076242844, -0.0021660107, 0.00859815, -0.008319936, -0.0055078473, -0.002025262, 0.008370832, 0.009496809, 0.002627226, 0.00950296, -0.0022998005, -0.008787956
-0.0045692925, -0.0022154658, -0.009601112, 0.002356734, 0.0026333395, -0.004053849, 0.005404331, 0.0056472765, 0.0026660294, 0.0040693264, -0.004503387, -0.0065414556, 0.0020123576, 0.0030318275, -0.0059205648, 0.010202919, -0.0078079663, 0.007010296, -0.002783557, -0.0046136486, 0.006530538
-0.0013807437, -0.0007728925, 0.0017826568, -0.00091958256, -0.0008264963, -0.0011554621, -0.00096812216, 0.0009458518, 0.0012143137, 0.0022317318, 0.0020130503, 0.001328927, -0.0010758811, 0.00134261, 0.0012587508, -0.0013818236, 0.00085816387, 0.0017625024, -0.0007879882, -0.001879974, -0.00079511094
1.1727513e-13, -0.0007463686, -0.0012745232, 0.0005016923, 0.0005795587, -0.0009253546, 0.00062512764, 0.0007518299, 0.00057534565, 0.00040056344, -4.112591e-14, 2.018878e-13, 0.0003357322, 0.0006996302, -3.3548275e-14, 0.001353516, 7.4363794e-14, 0.00091135706, -0.0010487672, -0.00076476316, 0.0007530562
-0.008121586, 0.016203055, 0.0019985803, 9.751294e-05, 4.9541835e-05, 0.0195624, 0.006741863, -0.009662155, -0.0056085265, 0.008284688, -0.012936404, -0.0075011468, 0.012827326, -0.0060381596, -0.017530737, 0.0048100227, -0.002449187, -0.0012222183, 0.018824082, 0.0061879726, 0.00561887
0.0008801036, -0.0003372635, -0.000918567, -6.0728933e-05, -0.00012920798, -0.0004654597, 0.00061469944, 0.0006429794, -0.0005804676, -0.00083391403, 0.00045357997, 0.00036044617, -0.00024232219, -0.0008430154, 0.00045751053, 8.624139e-06, -0.00073268154, -0.0005652342, -0.00031002308, 0.000884201, 0.0005826877
0.027529975, -0.001567013, 0.008134219, 0.0121159535, 0.011991454, 0.0011151445, -0.0055503943, -0.0033946335, 0.002033139, -0.016120771, 0.0042437436, 0.0062021133, 0.007539602, 0.004931395, 0.019268777, -0.009988785, 0.0109490445, -0.016012967, -0.0030986776, 0.009816782, -0.009435848
0.009401443, -0.00641582, 0.017106554, -0.014149876, -0.011491044, -0.0077032964, -0.008778649, 0.01219313, 0.0071441666, 0.0057661897, 0.02459096, 0.019873582, -0.016114991, 0.007983879, 0.024709012, -0.020893175, 0.0096115535, 0.006063205, -0.006541172, 0.007651058, -0.009182087
-0.017205155, 0.0010209711, -0.005633248, 0.0064400304, 0.0067539643, -0.00060234225, 0.0021020952, 0.014945427, 0.009332118, 0.012244448, -0.0027941947, -0.0003658818, 0.0022305732, 0.011815698, -0.010603873, 0.024498265, 0.0020177278, 0.025463363, 0.0006182332, -0.019002438, 0.004078754
0.013560991, 0.001153158, 0.002402979, 0.0072791115, 0.008058075, 0.0021977634, 0.021997258, -0.0107020205, 0.006727005, 0.010279084, -0.014522827, -0.022289729, 0.032230806, 0.009785295, -0.00021169822, 0.0016484433, -0.013472985, -0.009723027, 0.0018388091, 0.020476624, 0.0197036
0.01968368, -0.012438155, 0.020193448, 0.020147078, 0.021990187, -0.010822604, -0.018158184, -0.006609598, 0.019623691, -0.012608551, 0.00019052038, -0.0045057544, 0.011794709, 0.028142104, 0.021581734, -0.008419449, 0.02084796, -0.004587965, -0.01519774, -0.007883913, -0.021269174
0.0003122811, 0.017654968, 0.015426324, -0.013088399, -0.01682111, 0.02025016, 0.015724065, -0.01835247, -0.01155112, 0.013309986, -0.004019213, -0.006091764, 0.016755573, -0.01533229, -0.005192808, -0.01688621, -0.0092501985, -0.016797455, 0.023829134, 0.024581736, 0.013124685
0.0055566123, -0.0018309786, -0.004896931, -0.001835937, -0.0021122696, -0.0026406967, 0.0040298197, 0.0062111607, -0.00095122133, -1.9269654e-11, 0.0048132897, 0.003946677, -0.0037680499, -0.0011908776, 0.0040278416, -0.0002150403, -0.0032230592, -0.001046666, -0.0017181638, 0.005457863, 0.0040120026
0.029039945, -0.01124743, -0.014219314, -0.0025529559, -0.0038606287, -0.01340326, 0.01844749, 0.020318916, -0.00874664, -0.019274166, 0.015765773, 0.011890735, -0.005542295, -0.011997678, 0.016843153, -0.001654561, -0.015143028, -0.016737433, -0.011442472, 0.027301595, 0.01727472
-0.0061389296, -0.0002698202, -0.012129752, 0.0050180526, 0.0053659226, -0.0005912697, 0.008576189, 0.007084252, 0.0046077203, 0.005816026, -0.006400869, -0.0046954094, 0.005205001, 0.0054831365, -0.009405495, 0.015816871, -0.007449573, 0.0097236065, -0.00036816736, -0.0011934304, 0.010069549
0.008090703, -0.0034704246, -0.0055297106, 0.0015761203, 0.0011426487, -0.004052605, 0.0058654663, 0.0063018072, 4.7036374e-06, -0.0049468167, 0.0025552409, 0.0015128176, 0.00031384017, 0.00036320815, 0.0029727067, 0.0029226935, -0.0069876513, -0.0040765265, -0.0036953988, 0.0071209217, 0.005763196
-0.00108917, 0.00211734, -4.458446e-05, -0.00038141655, -0.0007463246, 0.0024881507, 0.00038680425, -0.0008459504, -0.0015138166, 0.00023791671, -0.0007967718, 0.000121489786, 0.0003736378, -0.001884593, -0.00186842, 6.270617e-05, -0.00011009415, -0.000536108, 0.0025544353, 0.0012941043, 0.0004095971
0.009762862, 0.003474809, -0.010126688, 0.0017417583, 0.0005082924, 0.0039471434, 0.004604614, 0.013331569, -0.004174379, -0.0055543557, 0.005397488, 0.011365018, -0.0066541135, -0.004438218, 0.0053585432, 0.0068661687, 0.0014245331, 0.0017425145, 0.0038026953, 0.008572435, 0.0045479843
-0.0066901743, 0.007609787, 0.008913595, -0.0033425943, -0.0028041683, 0.008666544, 0.0054234094, -0.006405953, -0.0004978754, 0.012126092, -0.0035218298, -0.0048141167, 0.00715259, -0.0011502074, -0.008332972, -0.002003018, -0.003047142, 0.0008154557, 0.00976743, 0.0047027078, 0.0049427073
-0.0025521016, 0.007441081, -0.007840284, 0.0067534302, 0.005463626, 0.009473468, -0.0037176907, 0.0010731927, -0.0061374065, -0.008344407, -0.005445349, 0.0026221275, -0.0025555508, -0.0068631284, -0.0071101263, 0.008684634, 0.00455779, 0.00095804676, 0.007719443, -0.00016125437, -0.0030588037
-0.008898122, -0.010143493, -0.009761497, -0.00062319846, 0.0017868795, -0.01260152, 0.003991187, 0.013944204, 0.013715769, 0.013759806, 0.0016092751, -0.0035779215, -0.0037066261, 0.016384806, -0.0007004629, 0.013471769, -0.0079295505, 0.019375088, -0.012346447, -0.011613951, 0.0063704243
-0.003034057, 0.009111894, -0.0046059517, 0.0044825375, 0.003938924, 0.011354603, -0.0050333766, 0.0033275047, -0.0045347475, -0.0074495403, -0.0017714314, 0.00898764, -0.0066864197, -0.005047144, -0.005444467, 0.00776209, 0.012084381, 0.005879875, 0.009546659, -0.0036950454, -0.0047699823
-0.010363989, -0.005830496, 0.013514788, -0.013509051, -0.010835295, -0.008705264, -0.005820169, 0.007084482, 0.009114769, 0.016804274, 0.015183539, 0.009983335, -0.010357168, 0.010118616, 0.009463844, -0.010366102, 0.00645454, 0.01331008, -0.0059295353, -0.011392918, -0.0047006407
-0.0066107186, 0.00012539419, 0.008933604, -0.014862618, -0.014795279, -0.0037744336, 0.005792297, 0.011070734, 0.003069932, 0.017378138, 0.01733463, 0.0133748995, -0.014739999, 0.002438722, 0.0065529863, -0.006273504, 0.003626843, 0.0096325865, 0.0027579078, 0.0011398239, 0.007067868
0.014969274, 0.011119106, 0.008959876, -0.003776689, -0.004513968, 0.012784999, 0.02544225, -0.009694028, -0.009709896, 0.005292624, 0.0026722976, -0.0018894044, 0.017761331, -0.011636846, -0.0014011615, -0.015266452, -0.010919518, -0.021492802, 0.016562214, 0.038606856, 0.023577679
0.005216592, -0.0033031343, -0.004262822, -0.0002698686, 0.00013759408, -0.0044892607, 0.0046470654, 0.005252216, -0.00078714086, -0.0039603533, 0.0031487662, 0.0019323193, -0.0011223553, -0.0013669733, 0.0031077433, 0.0009325285, -0.0030962047, -0.0024536445, -0.0034401224, 0.0047017387, 0.004572338
-0.0042603915, 0.003985085, 0.015066481, -0.00753839, -0.0065165684, 0.003983688, 0.0030852128, -0.006928848, 0.004422665, 0.015532299, 0.003574765, 0.00043273057, 0.0066966084, 0.005023141, -0.0012292158, -0.009734388, 0.0016866467, 0.00318931, 0.005907373, 0.0049016494, 0.0020590832
0.019739527, -0.007502459, 0.013088042, 0.019889573, 0.021012556, -0.004971227, -0.009456982, -0.008451696, 0.011744271, -0.013968375, -0.004934081, -0.007888297, 0.015763603, 0.018125936, 0.011459949, -0.0038346676, 0.014283976, -0.008350303, -0.010250114, -0.003457573, -0.013442734
0.0015904157, 0.0115101375, 0.009649042, -0.02142427, -0.021261774, 0.013795875, -0.010428523, 0.024383077, -0.0071067973, 0.005760023, 0.039702877, 0.048335664, -0.03475805, -0.011796758, 0.023534512, -0.017046366, 0.025782691, 0.010877451, 0.014392822, 0.011811249, -0.010232708
-0.0014101954, 0.0023494805, 0.0012442117, -0.0024542916, -0.0028815889, 0.002539042, 0.002081489, -0.0014227804, -0.0017095237, 0.0023413082, 2.482619e-07, -1.5669584e-06, 0.0010076266, -0.0023804747, -2.2483629e-14, -0.0016646336, -0.0015526451, -0.0011105693, 0.0031477392, 0.0026230835, 0.0019837578
0.014334625, -0.0032562264, -0.01095774, -0.002930353, -0.0039773243, -0.004698274, 0.010320151, 0.0134277735, -0.005672633, -0.005520013, 0.009785723, 0.008179315, -0.0063582407, -0.0084408885, 0.0085285045, -0.00025694649, -0.008834647, -0.0040375334, -0.003393199, 0.014960529, 0.010168535
0.0076777474, -0.0014609997, -0.008566743, 0.001502785, 0.000495879, -0.0020208743, 0.006270433, 0.0034594412, -0.005627311, -0.006704959, 0.00092841714, 0.00074445416, 0.0009570735, -0.007748132, 0.001502823, 0.0014419334, -0.006973716, -0.006098966, -0.0011812187, 0.008870809, 0.0058359588
-0.0027106034, 0.002367376, -0.0072392323, 0.0048477612, 0.0045142914, 0.0030360352, -0.0026856554, 0.003328397, -0.0015482523, -0.00320838, -0.0041901506, -6.080578e-05, -0.0021715069, -0.0014340393, -0.0048355507, 0.008843641, 0.0013992025, 0.0044799177, 0.0016543872, -0.0038573109, -0.0015939473
-0.008430191, 0.010853529, -0.0026708161, -0.00044277613, -0.0018130289, 0.012754471, -0.0032543484, 0.0007151832, -0.0064066933, 0.0013485971, -0.0022315448, 0.0057399264, -0.004036047, -0.008544965, -0.008714447, 0.0043043816, 0.004510486, 0.0023618024, 0.012503368, 0.001804639, -0.003074422
-0.031333998, 0.057729583, -0.033349086, 0.033761296, 0.02965686, 0.07405944, -0.03996425, 0.033091202, -0.01877935, -0.034048997, -0.01129176, 0.055021822, -0.029059632, -0.024481453, -0.029939238, 0.06288712, 0.069175646, 0.045066662, 0.056041885, -0.03632058, -0.037546176
0.0036739667, -0.002977163, -0.010399383, 0.0031670094, 0.003942438, -0.0048650913, 0.01905838, 0.008041379, 0.0037249338, 0.0058505153, -0.005157431, -0.008789623, 0.009081669, 0.004173302, -0.006229578, 0.0124952905, -0.015325135, 0.0030981936, -0.0028061648, 0.010600863, 0.021178143
0.0057785227, -0.0020063778, 0.0011371656, 0.003935563, 0.0039738333, -0.0016974972, -0.00085796433, -0.0025099388, 0.00097288, -0.004711293, -0.00085490744, -0.0013107833, 0.0030442765, 0.0016697538, 0.0033546938, -0.0012525867, 0.0013801215, -0.003992068, -0.0024032989, 0.0015261816, -0.0010669788
0.0040049707, -0.0072721047, -0.007955018, 0.011327997, 0.011791303, -0.007788369, 0.0046825493, 0.0013883124, 0.006614879, -0.0015317486, -0.0058545987, -0.008376881, 0.009334004, 0.00906801, -0.00013246304, 0.012641965, -0.0037017239, 0.0037076909, -0.0105312625, -0.004792448, 0.0067745815
0.019781116, -0.0012966738, 0.00023598324, 0.016830204, 0.016411534, 0.0021998915, -0.0055506527, -0.0019250803, -0.0012867873, -0.020763837, -0.0033197121, 0.0018658972, 0.007649201, 0.0018298314, 0.009956506, 0.0016859794, 0.013228229, -0.012683659, -0.0019532037, 0.006529902, -0.006445887
0.019500673, -0.0040171375, 0.015767543, 0.015628641, 0.016084485, -0.0011646642, -0.010813563, -0.00889154, 0.006880071, -0.015654584, -0.0027510573, -0.004877969, 0.013312138, 0.011451312, 0.013160425, -0.009656205, 0.014946343, -0.010567678, -0.005046101, 0.0019616869, -0.014334212
0.007889128, 4.739533e-05, -0.004795172, 0.0039049634, 0.0031516068, 0.00038329593, 0.002470967, 0.001652775, -0.001699924, -0.0037228677, 0.0019432172, 0.004079339, 0.0003800291, -0.002485582, 0.0032292528, 0.0014214589, 0.0015446907, -0.004246051, 0.0001960143, 0.0052844416, 0.001217418
0.005427358, -0.0017895437, 0.0021770506, 0.0031934395, 0.003242175, -0.0014614587, -0.000978321, -0.0029522656, 0.0011163702, -0.003965086, -0.00052748877, -0.0011424769, 0.0029953418, 0.0018272154, 0.0034699915, -0.0020536664, 0.0016622107, -0.0040054587, -0.0020631077, 0.0015250708, -0.0017930936
-0.0038800268, 0.0015837437, 0.005684388, 0.00051619206, 0.0020761727, -0.00023952448, -0.010802249, 0.014495844, 0.011925641, 0.008298376, 0.010114906, 0.016002262, -0.009588019, 0.014148689, 0.007993718, 0.0058364314, 0.014173812, 0.01942643, 0.0011919246, -0.012875879, -0.007945534
-0.02294188, -0.016058281, 0.00675498, -0.0057100984, 0.00015636344, -0.020261135, -0.009219142, 0.05018796, 0.04020781, 0.04972449, 0.032442335, 0.026555236, -0.026490824, 0.04615744, 0.019819126, 0.027699022, 0.026406275, 0.07476236, -0.02441672, -0.032393668, -0.002363624
0.0026501904, 0.0071106087, 0.011888063, -9.373309e-05, -0.00027747772, 0.009214422, 0.0031978043, -0.009679442, -0.000492778, 0.003915857, -0.004032632, -0.004433208, 0.011079782, -0.0004635673, 0.0010667017, -0.007947319, 0.0025543058, -0.007887627, 0.009448765, 0.009961872, 0.0012574481
-0.0017817664, -0.03008575, 0.045161374, -0.024359275, -0.020372113, -0.0390053, -0.0016242353, 0.05233692, 0.03406785, 0.045212604, 0.07563456, 0.04980585, -0.0093301, 0.034919214, 0.06197333, -0.015989186, 0.012403575, 0.03569906, -0.0309484, -0.027605075, 0.0047755395
-0.006694186, -0.007844874, 0.012005905, -0.013184425, -0.0113985725, -0.0108086, -0.0045603276, 0.010098999, 0.008668756, 0.015055062, 0.017123424, 0.011172767, -0.0109688565, 0.009366728, 0.01163716, -0.008332671, 0.0045615532, 0.011344725, -0.007992848, -0.011001714, -0.0033062727
-0.006367575, 0.0135477055, 0.011346779, 0.019011654, 0.024999453, 0.01448648, 0.065702826, -0.013535082, 0.018014995, 0.050928593, -0.025131077, -0.03913554, 0.07439677, 0.02377612, -0.026923459, 0.029437097, -0.034129478, 0.007710893, 0.017653968, 0.02674314, 0.06046116
0.006359713, -0.0006674135, -0.0043838997, 0.0016521849, 0.0010131092, -0.0006174066, 0.0035733304, 0.0056495117, -0.001579988, -0.0063906205, 0.002043306, 0.0036415635, -2.5371255e-10, -0.0013462453, 0.0016826958, 0.002736722, -0.004363158, -0.0043789437, -0.00039684883, 0.007252198, 0.0035687499
0.020249948, -0.003973713, 0.018388864, 0.013475628, 0.013569473, -0.0012699065, -0.005436054, -0.013376532, 0.007269209, -0.0061335233, -0.005984935, -0.009093435, 0.01886137, 0.011658671, 0.011659848, -0.012515377, 0.010376419, -0.013195327, -0.004515263, 0.00582022, -0.007993705
0.00013909287, 0.0017326529, -0.002114881, 0.001976986, 0.0017576639, 0.0022502812, 0.0001485262, 0.00065502315, -0.0008359742, -0.00217417, -0.0013547635, 0.00090474874, 0.0004153357, -0.00057245226, -0.0017338275, 0.0026716115, 0.001770085, 0.0009853076, 0.0016804433, -0.0010153448, 0.0001399921
0.0006861383, 0.01812003, 0.005692171, -0.015390935, -0.015366289, 0.020657837, 0.024804873, -0.008944324, -0.01458457, 0.017282741, 0.00021307167, -0.0033407577, 0.013085424, -0.020969134, -0.009548396, -0.012291464, -0.020347161, -0.013959682, 0.02431746, 0.03227186, 0.02262413
-0.012887225, 0.031180933, -0.019485649, 0.021451347, 0.017664736, 0.039538234, -0.021053499, 0.0071335277, -0.021297222, -0.028380983, -0.014574543, 0.020171046, -0.012245451, -0.023199048, -0.023655618, 0.030871892, 0.028914934, 0.010902329, 0.032580383, -0.0074163713, -0.023299228
-0.00057579094, 0.0009581904, 0.00051149155, -0.0010049047, -0.0011729959, 0.0010343133, 0.00085297244, -0.00058564305, -0.00069600187, 0.0009585837, -2.6608664e-08, -2.5304405e-07, 0.0004138335, -0.00097185024, -6.616817e-14, -0.00068123534, -0.00063390477, -0.0004539055, 0.0012807717, 0.0010719552, 0.00080926454
-1.3863848e-13, -9.25326e-14, -8.9937945e-14, -4.9374807e-14, 2.2444272e-13, 5.4789047e-15, -1.3867442e-14, 9.905615e-14, -1.4767975e-14, -3.7688572e-14, -2.1549682e-13, 1.5639017e-13, 4.58144e-14, -2.3554553e-14, -2.657396e-13, 6.242165e-14, 6.514935e-14, -9.4572116e-14, 7.433556e-14, 1.3127441e-13, -2.4245626e-13
-0.000338952, 0.01772476, 0.0061170026, -0.00096290227, -0.0029691344, 0.02143298, 0.010401538, -0.013709712, -0.010393004, 0.002469237, -0.009808137, -0.004364241, 0.014183643, -0.013548049, -0.011930842, -0.0031985748, -0.0019655188, -0.010679314, 0.021686584, 0.01676258, 0.008375777
-0.001517684, -0.0024541267, -0.004722236, 0.0017033061, 0.0019496053, -0.0030781156, 0.0023657721, 0.002724279, 0.001911236, 0.0016049881, -0.001165386, -0.0025832178, 0.001199173, 0.0023124856, -0.0016307681, 0.005019353, -0.0032127716, 0.003379588, -0.003491833, -0.0026092199, 0.0028596914
0.004015141, 0.0051569403, 0.003329285, 0.0062969583, 0.0056917155, 0.007513554, -0.007212817, -0.004840331, -0.0030670343, -0.008277084, -0.0015014505, 0.004792857, -0.00037370838, -0.0024690717, 0.002455682, -0.0011301485, 0.011090343, -0.004570641, 0.0057907784, 0.00065324263, -0.008459293
0.019732574, -0.00010802215, -0.0040405244, 0.0059309197, 0.0042936457, 0.0028166894, 0.006666124, 0.0038337635, -0.005825551, -0.0072644046, 0.0025796306, 0.0030944312, 0.0043888134, -0.007129174, 0.008475967, -0.002558301, -0.0016631344, -0.011389346, 4.6462443e-05, 0.016789753, 0.007063309
0.007737287, -0.0045923106, -0.006068028, -0.00048784693, -0.0006636277, -0.0057516615, 0.0046266993, 0.007108642, -0.0022916729, -0.0063802972, 0.005308673, 0.0039489917, -0.0025296805, -0.0034019086, 0.005666463, 0.00060697534, -0.0050385, -0.0033610477, -0.005014211, 0.005681542, 0.004520091
-0.021230433, 0.02167671, 0.012452036, -0.008380784, -0.0064726234, 0.024516394, 0.024685955, -0.01961834, 0.0022151314, 0.036604263, -0.01577901, -0.019367026, 0.02507666, 0.0026857231, -0.031178435, 0.0017414389, -0.013062409, 0.006669142, 0.026400628, 0.015525908, 0.024144338
-0.0014821937, -0.0021419893, -0.0038223052, 0.0016471419, 0.0018340865, -0.0026494858, 0.002642871, 0.0016999271, 0.0020069836, 0.0020290378, -0.002680283, -0.004037083, 0.002139709, 0.0024779416, -0.0024369725, 0.004408469, -0.0035995296, 0.002789469, -0.003083241, -0.0022111915, 0.0030023616
-0.00023637484, -0.0003375315, -0.00067677436, 0.00025259794, 0.0002861061, -0.00042363539, 0.0003319817, 0.00038147316, 0.0002685054, 0.00022504038, -0.00023611009, -0.00050104596, 0.00017694615, 0.0003268301, -0.00033214575, 0.00072443334, -0.0005034148, 0.00048124196, -0.0004860244, -0.0003837883, 0.0004022716
0.02439184, 0.005330785, 0.027793631, 0.0041910876, 0.0024586057, 0.009923246, -0.0003993204, -0.019677093, -0.001306131, -0.008478691, -0.000111613204, -0.0045791725, 0.022217426, 0.00014021255, 0.015468596, -0.025502687, 0.0087457625, -0.026651848, 0.008695187, 0.020381998, -0.0059256554
0.007257916, -0.00039396883, 0.003503743, 0.0053113624, 0.0050865556, -0.00045226878, -0.0016400773, -0.005769725, 0.00078448205, -0.005982225, -0.0021936465, -0.0021536618, 0.0054087057, 0.001807697, 0.0034039149, -0.002683592, 0.0029858332, -0.0064822794, -0.00045977178, 0.0029177219, -0.0028872052
0.02434048, -0.014963796, -0.023064094, -0.0008465752, -0.0020405625, -0.019557731, 0.020687768, 0.025381824, -0.004422931, -0.014195515, 0.014532009, 0.009316003, -0.0070040626, -0.006989668, 0.01345134, 0.0054450557, -0.016459113, -0.0053910958, -0.014769012, 0.02150791, 0.02054741
1.13960135e-14, -5.1062077e-14, -1.6391084e-13, 8.422262e-14, 1.3803181e-13, -1.10233085e-13, -3.8439717e-14, 1.3652247e-13, 8.157962e-15, 1.6538401e-13, -1.0079709e-15, 8.592089e-15, -4.849635e-16, -1.2767228e-14, 6.9514876e-14, -1.2034371e-14, 8.4977035e-16, 9.118846e-14, -6.1484793e-14, -1.4791294e-14, -4.1503046e-14
6.544654e-14, 3.2490412e-14, -7.547198e-14, -1.6099503e-15, -1.3496448e-13, -3.9067785e-15, -3.312007e-14, -5.4846066e-16, 4.2167375e-15, 2.1746095e-14, -9.2609466e-14, 8.5369994e-15, -5.410362e-14, 1.9488155e-14, 2.8549998e-14, 3.1513658e-14, -1.9100495e-13, 8.223293e-14, -7.591309e-14, 2.1394097e-14, -7.371724e-15
0.005938182, 0.00020131023, 0.0038128558, 0.005767082, 0.005585728, 0.0014622748, -0.0040005585, -0.0023608927, 0.00066978607, -0.0065514552, -0.0019382277, -0.0002316083, 0.0037855562, 0.0018427664, 0.0031260015, -0.0020887228, 0.005324818, -0.0053310934, 8.093553e-05, 0.0013247654, -0.0050184526
0.0026868386, 0.0045677153, -0.001424911, -0.0017394478, -0.0024052013, 0.0053365934, 0.011556978, -0.004324671, -0.004577195, 0.0026827196, -0.0036394354, -0.0024328528, 0.010681429, -0.005119148, -0.004731594, -0.0007901735, -0.0038733422, -0.0074190865, 0.0065311072, 0.011934792, 0.011033274
-0.018944377, 0.013821404, -0.010287249, 0.0060686893, 0.0060788193, 0.0151792085, 0.01299519, 0.0046424055, -0.003831953, 0.015430774, -0.010844197, -0.0040895916, 0.008051506, -0.0053914073, -0.023364902, 0.024325186, -0.0042132144, 0.012495989, 0.016307522, -0.002956447, 0.0140049355
-1.7592262e-13, 2.4354217e-13, -4.0100776e-14, -3.2175724e-15, 2.8201103e-14, -2.6922563e-14, 6.243049e-14, 3.113211e-14, 7.682262e-14, 6.9465214e-15, 6.6879106e-14, -2.6014174e-14, 2.0338138e-13, 1.8713488e-13, -8.353422e-16, -2.331553e-13, 9.009114e-14, -6.077825e-14, 9.304599e-15, 2.1622664e-14, 1.0596482e-15
0.009576698, -0.0003436781, 0.0031097063, 0.01045544, 0.010226938, -0.0009958354, -0.0012745106, -0.008709404, 0.0031540666, -0.007660886, -0.0066001406, -0.0071694604, 0.010857325, 0.0053870827, 0.0026389097, -0.0003325608, 0.0027972339, -0.007752684, -0.00051990635, 0.0021523172, -0.0023389682
0.00013376259, -0.00013852505, 0.0006576339, -7.4087846e-05, -6.389575e-06, -0.00013144485, -0.00040689093, -0.00022996239, 0.0002931189, 5.7102243e-05, 0.0002488612, 0.00016884446, -0.00010211415, 0.0003983284, 0.00045136127, -0.00046188777, 0.00048612864, -4.2156986e-05, -0.00014354431, -0.00024217818, -0.00044800073
-0.0007599483, 0.009689705, 0.009940317, -0.0066982834, -0.0072694574, 0.011264534, 0.0028364204, -0.009067593, -0.0066454746, 0.0039976086, 0.0011980312, 0.002350692, 0.0033298046, -0.008642826, -0.0032865559, -0.010704158, 0.00041918395, -0.008230327, 0.013061117, 0.010887652, 0.0017294857
0.029309692, -0.011091568, -0.025202775, -0.0037902775, -0.004083757, -0.0133934, 0.01987942, 0.024600241, -0.013562216, -0.022799471, 0.018905155, 0.014816026, -0.010634002, -0.01728213, 0.018208535, -0.0015413805, -0.015533641, -0.015580016, -0.01159077, 0.028257115, 0.019086333
0.038739845, -0.025881877, -0.026878718, 0.023421763, 0.022857191, -0.030493392, 0.025395121, 0.028371142, 0.0046811714, -0.022356518, 0.008245826, -0.0007966963, 0.008607784, 0.0047420748, 0.021000607, 0.028077472, -0.017914968, -0.0067416383, -0.03463884, 0.012941262, 0.026696015
0.00074506213, -0.00013381487, 0.0005523073, 0.00063582655, 0.00063434575, -1.8451577e-05, -0.0002738777, -0.0007427215, 0.00025251415, -0.00054831343, -0.00030396995, -0.00033853864, 0.00067657576, 0.00042457847, 0.00038774873, -0.00031494972, 0.00043730435, -0.00064188906, -0.0001730057, 0.00015471996, -0.00041432164
0.037228066, -0.018705197, 0.027714249, 0.025541019, 0.026638148, -0.01924354, -0.010721743, -0.0073989583, 0.022604313, -0.012976945, 0.0061642164, -0.0071448353, 0.023406057, 0.03168871, 0.032206774, -0.016372902, 0.016390238, -0.0061175306, -0.021091223, 0.0026649518, -0.01567555
-6.6192176e-14, -1.00274986e-13, 1.176972e-13, 1.0800676e-14, 1.2667937e-13, -2.2471001e-14, 4.9460314e-14, -4.176312e-14, -1.3783663e-13, -2.3697713e-13, 1.2030731e-13, -4.057886e-14, 5.705258e-15, 3.249623e-14, -7.634425e-14, -1.3150561e-14, 3.8336508e-14, -2.615062e-14, -9.064338e-14, -2.6159245e-13, -1.3906204e-15
0.00070070464, 0.0057290513, 0.0018073975, 0.0035035592, 0.003512127, 0.006981523, 0.0017667696, -0.0048094247, -0.0046221977, -0.0018432048, -0.0022992585, 9.091913e-05, 0.0038458947, -0.0055785407, -0.0038344814, -0.0014393633, 0.0009693732, -0.005190081, 0.007642638, 0.0063982815, 0.0012142125
0.0017186558, -0.0036942698, -0.0063598217, 0.0012937264, 0.0014084663, -0.0046932553, 0.0037022184, 0.0042091436, 0.0009551043, -0.0011358801, -0.00030337326, -0.0019348057, 0.00033044253, 0.0009288653, 0.00015931291, 0.0039282967, -0.005081691, 0.0011357865, -0.004601196, 9.243185e-05, 0.0039685667
0.00071144546, 0.0019864608, 0.0041131023, -0.000116007905, -0.0004207315, 0.0026747251, 5.34141e-05, -0.0044059847, -0.00026237025, 0.00069364754, -0.0011314184, -0.0010163427, 0.0030733352, -7.7153396e-05, -0.0005085517, -0.0029629823, 0.0011387577, -0.0028720144, 0.0025916554, 0.0021752345, -0.0005138769
0.01107445, 0.0062022735, -0.010675546, 0.006290506, 0.0047970926, 0.008637767, 0.0051021785, 0.011609935, -0.008393744, -0.012807031, 0.0019324219, 0.00976224, -0.0015252404, -0.010058804, 0.000688402, 0.009643727, 0.004523882, -0.0029704564, 0.0060528186, 0.008896345, 0.0044361544
0.0050050165, 0.033063713, 0.027219012, -0.046705518, -0.051658303, 0.03555975, 0.02396037, 0.030771574, -0.022051418, 0.033284623, 0.056548722, 0.058378015, -0.0031975976, -0.03586019, 0.025719322, -0.034762844, 0.00025085628, -3.3977627e-05, 0.044932995, 0.048841294, 0.02066092
0.024117356, -0.011097141, -0.020321948, -0.0036626498, -0.0034869919, -0.013014304, 0.014791534, 0.020721229, -0.010311183, -0.01706667, 0.018534543, 0.01401983, -0.008418386, -0.011927168, 0.01790209, -0.0039360938, -0.010387597, -0.012233847, -0.011136484, 0.021285823, 0.014122537
0.026802694, -0.009467056, -0.01497964, -0.00039753906, -0.00047233107, -0.010891485, 0.012406933, 0.0148397125, -0.010025412, -0.021993537, 0.01488999, 0.0119874375, -0.0068379897, -0.012218773, 0.01752334, -0.0050361096, -0.007864007, -0.0163875, -0.009348713, 0.02296487, 0.010938085
0.0010391218, 0.004768566, -0.00547659, -0.0018341509, -0.0025554297, 0.005804812, 0.000755261, 0.007809434, -0.0057781804, -0.0034498386, 0.0053314297, 0.010866603, -0.007707641, -0.0073899794, 0.00058576843, 0.0032368614, 0.0035399478, 0.0013745651, 0.004911837, 0.0022277746, 0.00051581353
-0.002927054, 0.023612512, 0.023350323, -0.01976423, -0.022177607, 0.026952155, 0.016221713, -0.024422385, -0.013907128, 0.02051303, -0.002000314, -0.0043059736, 0.016547555, -0.0186812, -0.005708393, -0.023928111, -0.0054267906, -0.018006336, 0.031835016, 0.027747663, 0.013485657
0.0043253703, -0.0013873999, -0.0022278598, 0.0004978103, 0.00026152347, -0.00064058375, 0.0016789967, 0.001309598, -0.001815941, -0.003873206, 0.0014815642, 0.0011297837, 0.0006577072, -0.0025379038, 0.0024396577, -0.0006791563, -0.0018601926, -0.0030234528, -0.0013064665, 0.0034607998, 0.0013594863
0.0055496194, 1.095821e-13, 5.132427e-13, -0.001355261, -0.0016347037, -2.0776553e-13, 0.0031728891, 0.0047045867, -0.0018260854, -0.0025852798, 0.004242539, 0.003612086, -0.002666402, -0.002697875, 0.0039620544, -0.0008436876, -1.2693796e-05, -0.0016348201, -0.00016625898, 0.005248488, 0.0030388273
0.004230657, -0.0005042409, 0.0031306718, 0.0035182922, 0.0034576366, 0.00019004419, -0.001506538, -0.001992513, 0.0011576487, -0.0032154815, -0.0011655919, -0.0009968656, 0.0038139038, 0.0020618897, 0.0020928115, -0.0018905725, 0.0024771525, -0.003832388, -0.00065326283, 0.0011689635, -0.0023147687
0.017956272, -0.008449446, -0.0074665584, -0.012009257, -0.01283611, -0.012664601, 0.015108961, 0.0152775, -0.009136047, -0.0060872934, 0.018673271, 0.012982645, -0.010034492, -0.014322545, 0.015179677, -0.009186537, -0.016627457, -0.01199241, -0.0066001317, 0.021532202, 0.014154351
-0.0024046064, -0.0077060414, -0.008692068, 0.005179099, 0.005993192, -0.0095095355, 0.0068300697, 0.0068864715, 0.006399907, 0.0049124425, -0.0019323925, -0.0062125847, 0.0045032613, 0.00785688, -0.0016646195, 0.013651076, -0.0061399746, 0.009192099, -0.010813305, -0.0075982753, 0.008054109
0.00011369079, -0.00019339475, -0.0002777645, 0.0004467448, 0.0004411396, -0.00018644614, 0.0002640559, -0.0001364478, 0.00022119319, -1.5716867e-05, -0.0004900182, -0.0006146784, 0.00056908606, 0.00031420056, -0.00023383716, 0.00040524977, -0.00029621262, -5.4556886e-06, -0.00029459153, -6.841634e-05, 0.0002468983
-0.00015837068, 0.000310221, 0.0001914134, -0.00024156482, -0.00029927093, 0.00035001486, 0.0002729327, -0.00027397464, -0.00018880714, 0.00029339897, -0.00010303086, -0.00011389999, 0.00024104856, -0.00025501958, -0.00029763798, -0.00019806965, -0.00019067386, -0.00017991447, 0.00040558906, 0.00034163104, 0.00025027682
0.021561423, -0.008714241, -0.008227269, -0.00680955, -0.006522036, -0.010849891, 0.014852309, 0.01989336, -0.0061687394, -0.0047812886, 0.02058073, 0.0150605, -0.0060267374, -0.008409581, 0.01815355, -0.0073685427, -0.016314117, -0.010352169, -0.009527902, 0.020943616, 0.014156361
0.00086312304, 0.012152414, 0.01673113, -0.0039970907, -0.005582892, 0.014414308, 0.009085462, -0.018334901, -0.005135474, 0.00934807, -0.0036813568, -0.006320681, 0.015678586, -0.006433829, -0.0025218793, -0.014728935, -0.002180309, -0.014013255, 0.016661815, 0.016352657, 0.006638982
0.036903687, -0.012613545, 0.007228971, 0.018181067, 0.018670758, -0.012732356, 0.0023974956, -0.0016442307, 0.011066734, -0.009605711, 0.0046289256, -0.0018324307, 0.013730443, 0.019429492, 0.026044386, -0.0071951775, 0.005043958, -0.015799046, -0.015972277, 0.013066989, -0.00066791556
8.0235196e-16, -5.2294195e-14, 1.9474872e-13, -8.252658e-14, 1.769059e-15, 2.3187439e-14, 4.0142192e-14, 2.0611448e-13, 1.01240766e-13, 2.4847657e-14, 8.865919e-14, 1.0010552e-14, 3.1528218e-16, -1.6543963e-13, -3.2720622e-14, 2.681834e-13, -5.469955e-14, -6.03982e-15, -1.9359778e-13, -9.126046e-14, 3.051145e-14
-4.1177835e-05, -9.764913e-05, 0.00022911587, 0.00024781725, 0.00035818043, -0.00021519732, -5.1881783e-05, -9.199013e-05, 0.00070210727, 0.00037460844, -0.00020970349, -0.0005330444, 0.0003315227, 0.0009201726, 0.00012847538, 0.00016372089, 8.866015e-06, 0.00035103358, -7.185439e-05, -0.00063216616, -5.832493e-05
0.016381754, 0.00014581672, 0.009010954, 0.014901936, 0.014176036, 0.0032390575, -0.005635515, -0.0071400916, 0.0020025654, -0.014589628, -0.007915368, -0.00622271, 0.014446582, 0.0049449084, 0.0077736047, -0.0031060774, 0.009203645, -0.01446245, -0.00021811137, 0.0058262916, -0.006139243
-0.0008730601, 0.001662178, -0.0011833861, 0.0013091746, 0.0010552043, 0.00210599, -0.0012927855, 0.00027403914, -0.0013245832, -0.0017296157, -0.0010041222, 0.0007938601, -0.0008097263, -0.0014633423, -0.0014471014, 0.0017493698, 0.0012111512, 0.00032416743, 0.0017470935, -0.00018048438, -0.0010818434
3.8934828e-14, -2.0234323e-14, 5.750503e-14, 9.141135e-15, 2.3771695e-14, 2.0353661e-13, 2.642792e-13, 1.8928495e-13, -1.8850688e-14, -8.592077e-14, -2.6727578e-13, -3.6038616e-14, -5.4616117e-15, 1.3699016e-13, 1.3556619e-13, 2.6678082e-13, 3.150333e-14, -9.38494e-15, 1.5318411e-14, -5.073622e-14, 9.867672e-14
2.0704337e-13, -2.2305673e-13, -1.3521303e-13, -3.5717045e-14, -7.784375e-15, -2.3984676e-14, 3.129853e-14, 2.2239257e-14, 6.5329774e-14, 1.794919e-14, -1.744847e-13, 7.154676e-14, 3.8863562e-14, 1.0341756e-13, -4.449466e-14, 2.0008573e-13, -1.3556963e-13, -7.800282e-14, -1.9967267e-14, -1.4040476e-14, 2.2755859e-13
0.007856214, -0.0031469874, 0.0011566884, 0.012506148, 0.013274894, -0.001997428, -0.008986068, -0.00036162412, 0.005477865, -0.008866271, -0.001631706, 0.00062942907, 0.0044570076, 0.008630576, 0.0053769653, 0.004822128, 0.01128106, 0.0019117787, -0.005007058, -0.006190567, -0.010292008
5.889855e-14, 2.866387e-14, -1.0126391e-13, -1.00885595e-13, 7.4240195e-14, 1.1396073e-13, -7.266699e-15, 1.6590224e-13, 1.1185172e-14, 1.0326205e-13, -3.874834e-15, -1.3597737e-13, -7.027554e-14, -6.4396486e-14, 2.2380695e-13, -9.636637e-14, 1.9839043e-13, -1.2616305e-13, 8.308866e-14, 1.5255806e-13, -1.3848406e-13
-0.0039596846, -0.000997202, 0.0038935482, -0.003979153, -0.0030671791, -0.0014433161, -0.0029398657, 0.0016186667, 0.002805504, 0.004904765, 0.003425082, 0.0025513489, -0.0043847784, 0.003324037, 0.0017753213, -0.0016602159, 0.002747509, 0.0044628074, -0.0010918399, -0.0049810465, -0.0024538378
-0.00054084836, -0.0020075606, 0.007832448, -0.005988325, -0.005174464, -0.0034062748, 0.00095704227, 0.0017664387, 0.003387511, 0.008949103, 0.007428904, 0.0040092543, -0.00014239631, 0.003462156, 0.00420737, -0.0072958916, 0.0007484442, 0.0036177435, -0.0014643101, 0.0019448048, 0.00070014555
0.0024910944, -0.00032325395, 0.0017076748, 0.0020449404, 0.002027203, 6.666466e-05, -0.0011076, -0.0013155785, 0.00060673035, -0.0020963324, -0.00079463894, -0.00072336296, 0.0018570772, 0.0011131158, 0.0013940459, -0.001065028, 0.0016392663, -0.0021477141, -0.0004193253, 0.00057298335, -0.0015512808
0.0008632129, -0.0009832059, -0.0021492129, 6.441389e-05, 3.235561e-05, -0.0013188496, 0.0013482859, 0.0015148103, -9.248119e-05, -0.00023268451, 0.00047625718, 2.0733132e-06, -0.00023254297, -0.00024541494, 0.00027020354, 0.0008912041, -0.0017437268, -7.184014e-05, -0.0011386768, 0.0006990745, 0.0014090138
-0.005643561, 0.004941279, 0.004561989, -0.002155721, -0.002250349, 0.0053595104, 0.007034563, -0.0013192836, 0.0012009488, 0.010232155, -0.003382119, -0.005636224, 0.008093283, 0.0007847099, -0.0038492705, -0.0006199113, -0.0036129698, 0.0018698999, 0.006351653, 0.004103403, 0.00676048
-0.0025255773, 0.013806096, -0.00848266, 0.012230186, 0.0105807455, 0.018113459, -0.00624379, 0.004939776, -0.0028188329, -0.012177482, -0.0076818625, 0.009397413, -0.0015620948, -0.0023889267, -0.009690122, 0.017362336, 0.014840349, 0.006497314, 0.0138606345, -0.006426957, -0.006440712
0.0033571147, -0.0011256954, -0.004226574, -0.00061384425, -0.00090389024, -0.0016323877, 0.002763837, 0.0032044468, -0.0020660611, -0.0014640113, 0.0021311652, 0.0017553151, -0.0014644, -0.003335096, 0.0017510025, 0.00021376593, -0.0033717125, -0.0013594601, -0.0012289222, 0.0037242533, 0.0027165224
-0.030619612, 0.001314783, 0.012529564, -0.026902415, -0.025452796, -0.0025201286, -0.009747783, 0.021614859, 0.007288305, -0.0046725054, 0.025460836, 0.026913896, -0.02922093, 0.0058081863, 0.0046818512, -0.005539813, 0.015188732, 0.03320836, 0.0022629448, -0.01870866, -0.007582588
0.003290153, 0.0014922274, 0.0018229069, 0.0054454966, 0.0051389476, 0.0026944045, -0.0025701148, -0.0041527436, -0.00014549955, -0.005574382, -0.0029344815, -0.0007080645, 0.0030639153, 0.000740468, 0.00066004525, 0.00038208085, 0.004618427, -0.0033779715, 0.0013036389, 0.0005017007, -0.0033062776
0.0041703684, -0.0016714904, -0.0037105526, -0.00043439164, -0.0005606457, -0.0013132645, 0.0020828706, 0.003301382, -0.0020644884, -0.0037779515, 0.002765975, 0.002165651, -0.00027806876, -0.0025387988, 0.003032186, -0.00032901432, -0.0026937963, -0.0021721178, -0.0021563768, 0.0032445134, 0.0019591027
0.007654769, -0.0014628812, -0.008614209, 0.0014979944, 0.00049615867, -0.0020195532, 0.0062655807, 0.0034590254, -0.0056284703, -0.006720884, 0.00093800906, 0.0007491418, 0.0009656424, -0.007736286, 0.0015029345, 0.0014390694, -0.0069412724, -0.006100142, -0.0011834203, 0.00888876, 0.005828165
-0.0026240547, -0.0005584822, 0.0023702648, -0.0043508518, -0.0038089366, -0.001196803, -0.001249683, 0.002105872, 0.0009169478, 0.0035699464, 0.0038032548, 0.0030565949, -0.0042139683, 0.00074577477, 0.0016978261, -0.0023723994, 0.0010439529, 0.0027727084, -0.0003361711, -0.0015053048, -0.00088197057
-0.0018516536, -0.0010140213, 0.0032627927, -0.003496208, -0.0027657116, -0.0014870467, -0.0017849298, 0.0014421968, 0.0021865505, 0.0034554556, 0.0035309258, 0.003053263, -0.0034182295, 0.0024687836, 0.0025816641, -0.0026165876, 0.0016459879, 0.0026860072, -0.000672411, -0.0014930008, -0.0015518302
-0.022621619, -0.009239868, 0.024968697, -0.036729604, -0.034481548, -0.015841814, -4.1544e-05, 0.013790791, 0.013938284, 0.0023866168, 0.030077694, 0.016095236, -0.02200188, 0.013521533, 0.013719488, -0.021830168, 0.0009917697, 0.02374209, -0.007935854, -0.009662485, 0.00065281603
-0.0047956724, -0.010236331, -0.017603818, 0.0067249695, 0.007723474, -0.012928628, 0.010127704, 0.011718537, 0.007817268, 0.006904571, -0.0028253885, -0.0052262447, 0.0047412696, 0.009480392, -0.004671524, 0.021088187, -0.0105293235, 0.014212229, -0.014597069, -0.010610967, 0.012217851
-0.001241676, 0.0019131397, -0.0010453429, 0.0014641511, 0.0011944855, 0.0023988013, -0.0016021378, 0.0004888751, -0.0014662263, -0.0018765552, -0.001129388, 0.0009872038, -0.00113314, -0.0016146798, -0.0017364857, 0.0021640067, 0.0014518955, 0.0006466866, 0.0019866403, -0.00045674614, -0.0013093302
-7.161001e-14, 2.1652261e-14, -1.4301285e-13, 3.3365932e-14, 6.3345427e-15, 8.503769e-15, -3.159715e-15, 5.7814315e-14, 6.104086e-15, 1.7234943e-13, -6.529266e-14, -7.626496e-14, 2.9112533e-14, -1.775038e-13, -9.712321e-14, -6.5288785e-14, 9.180599e-14, 3.9448354e-14, 1.7055742e-13, 8.744496e-14, -9.528239e-15
0.0018710179, -0.0007202541, 0.00095049076, 0.0014542609, 0.0015213536, -0.0005697211, -0.00055815914, -0.0012692952, 0.0008197488, -0.0011795481, 2.3415458e-05, 0.00033945686, 0.0013519389, 0.0012433301, 0.0013035145, -0.00049246306, 0.0012404151, -0.0011418564, -0.0009100765, 2.8748475e-05, -0.0008389028
0.0010857197, -0.0001348845, 0.0007495509, 0.00084998884, 0.00084339426, 3.0541956e-05, -0.0005045299, -0.0009487949, 0.00023627425, -0.00092691736, -0.0002850141, -0.00024307388, 0.00073698553, 0.00044196623, 0.0006410921, -0.00049452845, 0.0007304353, -0.0009327845, -0.00016764797, 0.00025809373, -0.0006968563
-0.0056327414, -0.0074246, -0.012500058, 0.005578348, 0.0063554673, -0.009763215, 0.008892646, 0.008610871, 0.006724703, 0.0063941996, -0.0052861506, -0.011042628, 0.005151966, 0.008147508, -0.006505223, 0.016940098, -0.011259603, 0.011235329, -0.010276956, -0.008764992, 0.010501689
-0.004332104, 0.005902825, -0.0015583173, 0.004284458, 0.0036321376, 0.0074228947, -0.0036830064, 0.0021271098, -0.001011941, -0.0009458124, -0.0026712506, 0.004318306, -0.0017517678, -0.0011583308, -0.0041142683, 0.0065750787, 0.0060125724, 0.0029611718, 0.006060435, -0.0027435233, -0.0034405887
-0.001617131, 0.0011403075, -0.0034908904, 0.0014758166, 0.0013431398, 0.0013368592, -0.00010978356, 0.0019778716, -0.00088481756, -0.00011118905, -0.0012120445, 0.00039572272, -0.00060279126, -0.0009808118, -0.002451727, 0.00384726, 0.00037252693, 0.0023610527, 0.00089074566, -0.0017434052, -0.00027495043
-0.0020466433, -0.001295645, -0.0031936956, 0.0018711331, 0.002036431, -0.0017149339, 0.0029272453, 0.0027294238, 0.0017799416, 0.0019318543, -0.0010885438, -0.0011957983, 0.0016879889, 0.0021392107, -0.0030902734, 0.0056738546, -0.0033357677, 0.0035836427, -0.0012610271, -0.0021786152, 0.0034697275
-5.0255573e-14, -6.069134e-14, -5.6843483e-15, 1.4033022e-14, 2.2721577e-13, -8.888098e-14, -6.757661e-14, 8.366133e-14, 1.0158243e-13, 4.3094522e-14, -1.3768996e-13, 1.747347e-14, -1.432824e-14, -8.116749e-14, 1.5784913e-14, 4.5956538e-14, 3.4843574e-14, -6.167002e-14, -1.0621471e-13, 6.734706e-14, -1.1125015e-15
-0.0006928484, 0.0026065446, -0.0022481438, 0.0004978321, 0.0003174626, 0.0025325727, -0.0042277076, 0.0029841287, -0.0031093636, -0.0035098512, 0.0017027599, 0.005443591, -0.0056684487, -0.0037989262, 5.911384e-05, 0.001895926, 0.0037979952, 0.0012698298, 0.00295462, 4.567108e-05, -0.0036301122
0.00015462602, -7.900977e-05, -7.1519884e-05, -3.031695e-05, -3.5405592e-05, -0.00010578999, 9.263213e-05, 0.00010556649, -7.284372e-05, -0.00012016098, 0.00010268074, 6.895048e-05, -5.0401373e-05, -0.000111706024, 0.00011134796, -3.2387477e-05, -0.00010984585, -9.1024514e-05, -7.579264e-05, 0.00013255213, 8.475957e-05
-0.00301789, -0.0009075512, 0.004319533, -0.003236864, -0.0026909222, -0.0015063988, -0.0020033428, 0.0012378837, 0.0022522921, 0.0045750258, 0.0038829215, 0.0027809052, -0.0040330696, 0.0025385518, 0.0022648885, -0.0023550382, 0.0022870516, 0.0032936626, -0.00079690246, -0.00306186, -0.002003415
-0.005318372, 0.0015594744, -0.009496839, 0.0087284995, 0.008694695, 0.0017683739, 0.0010774613, 0.015180369, -0.0017677861, -0.0016330953, 0.0008200769, 0.0062029865, -0.003938925, -0.0020964635, -0.003137473, 0.019408042, 0.005397387, 0.01129564, 8.651767e-05, -0.008250937, 0.0027758202
-0.0012628206, -0.0013226073, 0.003448103, -0.0027979524, -0.0020500275, -0.0017415574, -0.0019138554, 0.0009743954, 0.0025425914, 0.0030358394, 0.0032589256, 0.0024802247, -0.00276228, 0.0030274591, 0.0028229898, -0.0025563128, 0.0018361711, 0.0023365854, -0.0010932682, -0.0015530564, -0.001782003
-0.0009023001, -0.0063088587, -0.0067130933, 0.0056682285, 0.007089079, -0.007663162, 0.0035203686, 0.004221607, 0.009392105, 0.0045185564, -0.004985744, -0.00658426, 0.004894045, 0.012068665, -0.0013162056, 0.009744207, -0.005079018, 0.007897681, -0.008504702, -0.0026463035, 0.004146446
