0.08986665, -0.019971024, -0.04542183, -0.08759817, -0.007195531, 0.029547257, 0.09800545, 0.067577735, 0.09123723, 0.12420519, -0.021162478, -0.026915507, 0.04789264, 0.05393044, -0.12860508, 0.052844938, -0.0050229067, -0.021049043, 0.09226251, 0.13912706, -0.0695222, 0.012608277, 0.043692317, 0.023305083, 0.048441496, -0.058584496, 0.1328482, 0.04302543, 0.16545582, 0.05193558, 0.0016064077, -0.049901564, -0.069171265, -0.07936495, 0.10416442, 0.10234543, -0.011976142, -0.08279556, 0.11038376, 0.07784068, 0.038146183, 0.08381639, 0.07791298, 0.0964714, -0.11293106, 0.07390587, 0.017072486, 0.1025698, -0.13294628, 0.16834024, 0.016609004, 0.037693195, 0.080312885, 0.08337935, 0.014587329, 0.011079489, 0.05145343, 0.08293277, 0.005255494, -0.0038529267, -0.088445716, -0.095715016, 0.10691231, -0.040875476
0.0314693, -0.02878777, 0.05469993, 0.123980895, 0.050411653, -0.11011538, 0.048192497, 0.11922249, 0.06919209, 0.12250257, 0.013414119, 0.08154862, 0.017767727, 0.14005806, -0.028912045, 0.12506315, -0.048780583, -0.09524472, 0.052708007, 0.044502605, -0.03980112, -0.03993294, 0.034482982, 0.08622935, -0.020937245, -0.10414176, 0.0605532, 0.11326622, 0.04339143, 0.13395163, -0.11993426, 0.0056695514, -0.13419853, -0.12015508, 0.050743837, 0.04905851, -0.060750358, -0.07771275, -0.054751728, 0.070053734, -0.029468628, 0.0025460746, 0.0907659, 0.041226085, -0.078370385, 0.046360724, -0.048788927, 0.09288703, -0.0926692, 0.12324767, -0.02259827, 0.13054056, 0.11166353, 0.11525091, 0.03611257, -0.04402315, 0.0026313318, -0.058182012, 0.07234965, -0.1313552, 0.058646634, -0.07053438, 0.15069793, -0.037647005
0.06462301, -0.009313862, 0.08154744, 0.11183304, 0.059437554, 0.045413088, 0.018317742, 0.03726908, 0.11456521, 0.0032728713, 0.024717206, 0.054754283, 0.092488624, 0.09019228, 0.017500611, 0.05923052, -0.0023025635, 0.026948618, 0.073671386, 0.019472623, -0.06931236, 0.0413798, 0.032237817, 0.106569655, 0.09357367, -0.06446107, 0.14072697, 0.09512246, 0.13835697, 0.033773955, 0.06245561, 0.07994311, -0.029570235, 0.011515074, 0.057402544, 0.10005654, -0.0013925096, -0.0759549, 0.093423516, 0.032199595, -0.007048919, 0.10766852, 0.020421103, 0.08536005, -0.04220274, 0.0914465, 0.06889604, 0.13170016, 0.108056426, 0.04435864, -0.02674765, 0.08814467, 0.07220307, 0.072751515, 0.01944327, -0.007561129, 0.07548827, 0.06622374, 0.04677204, -0.08030307, -0.09819275, -0.019270709, 0.10224142, 0.0009512571
-0.08781984, 0.038418222, 0.017180303, 0.105144575, 0.08333949, 0.031727646, -0.04496973, -0.1459153, -0.09473605, 0.0020045212, 0.07597333, 0.035542406, -0.09262389, -0.026334725, 0.075087205, 0.07171714, 0.08626944, 0.15945208, -0.085909426, 0.10860803, 0.11161697, 0.13277593, 0.12814637, 0.11107984, 0.07419373, -0.018939499, -0.069767065, 0.09715098, -0.07763926, 0.1260059, 0.065935515, 0.09417153, -0.0911752, 0.0033425512, 0.10074988, 0.11177351, 0.11964678, 0.08731822, 0.092376985, 0.07544942, 0.11443122, -0.12345303, 0.0702637, -0.06135385, 0.0188449, 0.08517139, -0.09925655, 0.08717767, 0.11826507, -0.0659199, 0.060422957, 0.08819121, 0.13550967, -0.13648094, -0.0018581293, -0.025175676, 0.12991337, -0.02136346, 0.06848596, 0.13452505, -0.083675146, -0.0734256, 0.07777113, 0.13313992
0.0701955, 0.022034178, 0.03595623, -0.120194376, -0.00042109645, 0.072839476, 0.009580288, -0.15260677, 0.089418985, 0.027317014, -0.026004188, -0.14264038, -0.17187215, -0.036536932, -0.11190232, -0.12005855, -0.037851658, 0.06990154, 0.13071163, -0.0640778, -0.09756193, 0.12983237, 0.13554862, 0.053933937, -0.09612573, -0.13108636, -0.0056941165, -0.12931575, 0.042700876, 0.011779852, 0.048224475, -0.03180177, 0.118236884, 0.10424613, -0.1372632, 0.13072506, 0.14267883, -0.13189223, -0.06324829, -0.09853176, -0.05841126, 0.1381545, 0.044787355, 0.10135976, 0.06489222, -0.11589907, 0.12956305, -0.04657311, 0.052519508, 0.051984522, -0.07029568, 0.07786754, 0.10662931, -0.025735918, 0.041974563, 0.0325603, -0.046230763, 0.09671815, -0.167863, 0.050434474, -0.09307631, -0.049546428, -0.113431744, 0.0654998
0.055815674, -0.0903525, -0.034548897, 0.017133005, -0.12303836, 0.023890339, -0.0058939843, 0.12810935, 0.049639642, -0.04903521, -0.029607976, -0.08875514, -0.005922362, 0.12109303, -0.031199258, 0.05842334, -0.054468952, -0.11135569, 0.13722776, 0.0037574254, -0.035678703, -0.018333664, -0.050076228, 0.06949507, -0.08060033, 0.0005452322, 0.008886128, -0.11431438, 0.1283832, -0.017869543, 0.10694916, -0.061821084, 0.03135067, 0.0031721669, 0.015088692, 0.11520809, 0.011000969, -0.06494492, -0.017243054, 0.046023604, 0.11066912, 0.053633794, 0.13606109, 0.09862196, -0.071682625, -0.090989694, -0.015619011, -0.008604731, -0.1060941, 0.07905895, -0.017137611, -0.022158917, 0.07474282, 0.032606933, -0.03672191, 0.052240483, -0.1260004, 0.085521795, 0.10112262, -0.010607276, 0.04388389, 0.007966356, 0.03712951, 0.020942828
0.107237816, -0.08418855, -0.13344656, -0.0105739115, -0.07791562, -0.07529567, -0.061586834, 0.12123419, -0.025222808, -0.12308186, -0.032260027, -0.040902883, 0.0009260851, 0.047139928, -0.101694204, 0.03650804, -0.13905424, -0.110702865, -0.147135, 0.16529013, -0.1421083, -0.052667953, -0.049729273, -0.06419634, 0.07124877, -0.051371213, 0.1002928, -0.1311868, 0.06640448, 0.09154299, 0.08293873, -0.02500106, -0.09787664, -0.03280615, 0.03577238, 0.026632233, -0.14342831, -0.017222561, 0.080874614, 0.118098155, 0.13181236, -0.058400244, 0.101283476, 0.01590164, -0.08361215, -0.07478888, -0.09858348, 0.1588905, -0.036342386, 0.026278015, -0.08639191, 0.053803205, 0.038530797, 0.15541467, -0.0975623, -0.106802486, 0.13820599, 0.1271481, 0.14737682, -0.088126674, -0.025057714, -0.022536842, 0.13737328, -0.14345148
0.025855966, 0.066953234, 0.09694993, 0.09981895, 0.065441504, 0.018231299, 0.013235978, -0.072553016, 0.02508287, 0.058426734, -0.011627989, -0.07121172, -0.07735678, -0.07330375, -0.07219696, -0.09681258, -0.05927018, 0.01748718, 0.08971842, -0.035122078, -0.09791755, 0.020846708, 0.124679826, 0.025724595, 0.017545823, -0.097727545, 0.043363113, 0.090996265, 0.08220686, 0.0049623502, 0.07565695, -0.048925254, 0.06066039, 0.09642119, -0.052031476, 0.11530922, 0.09872796, -0.03840106, -0.0668096, 0.0047381036, -0.041543882, 0.038448866, 0.05908483, -0.00024202015, 0.09779206, 0.09669789, -0.009527787, 0.020532023, 0.011803247, -0.09220905, -0.09474337, 0.046895824, 0.056145202, -0.10989229, -0.010366081, 0.06911977, -0.10996586, 0.07155931, -0.034182794, -0.09586614, -0.013613236, 0.0015425186, -0.1126052, 0.11108617
0.040283617, 0.03946064, 0.09708799, -0.047522966, -0.02166658, 0.14764324, -0.017603131, 0.092862345, 0.10852221, 0.1285986, 0.008553532, -0.0032659865, 0.09241073, 0.10864711, -0.0091774035, -0.12777756, -0.07279238, 0.06330441, 0.07975965, -0.013992673, -0.1132878, 0.10394369, 0.055576384, 0.11606891, -0.027677061, -0.07835576, 0.108317025, -0.082650825, 0.15053904, 0.088698715, 0.07733236, -0.12348661, 0.119842306, 0.10483078, -0.0910275, 0.13749008, 0.11119499, -0.09544313, -0.1446296, -0.12709221, 0.012182738, 0.06516766, 0.1403196, 0.13003543, 0.050651878, -0.026867863, 0.12260643, 0.0009578569, 0.05014799, 0.08161223, -0.037169922, 0.09912635, 0.065493114, -0.038252003, 0.084142946, 0.15047944, -0.057213098, 0.12492632, -0.045610845, 0.0073248823, 0.12063568, -0.028378995, -0.057182763, 0.09416595
-0.028985286, 0.09136279, 0.043435887, 0.09612488, 0.03506916, -0.026447201, -0.020214485, -0.11166607, 0.016001232, -0.043713294, 0.0058790613, 0.14587346, 0.0071547506, -0.06024019, 0.03069543, 0.08608788, 0.0077685295, 0.040440332, -0.038975373, -0.02542246, 0.018979095, 0.017437207, 0.10376793, 0.091317885, 0.063136026, -0.0986402, -0.06981793, 0.12333702, -0.027767772, 0.037745308, -0.068974435, 0.1144905, -0.053130817, -0.042856716, 0.050827213, -0.008184832, 0.070224866, 0.07440037, -0.06646472, 0.045313213, -0.049897328, -0.08737948, 0.029944727, -0.05708499, 0.14352524, 0.07936714, -0.015351069, 0.1171776, 0.07812212, -0.13597733, 0.027438175, 0.0674305, 0.097344264, -0.05638262, -0.047918476, -0.02951319, 0.0042939633, -0.034472242, -0.022232996, -0.056401372, -0.12245569, 0.0069209016, -0.08608767, 0.0040517817
-0.08488731, -0.05472202, 0.0988634, 0.0894744, 0.14056793, 0.07933946, 0.10626612, -0.078198366, 0.08476866, 0.1431794, 0.07490485, 0.0879719, -0.12044752, -0.026322864, -0.041727137, 0.04909907, 0.054579478, -0.064074285, 0.01864133, -0.011552808, -0.06649154, 0.11541358, 0.08074512, 0.017398119, 0.14838384, -0.11932084, -0.13227575, 0.06591799, -0.1412506, 0.089804776, -0.12162622, -0.03631658, -0.1009722, -0.06624218, 0.11585007, 0.07126432, 0.08194106, 0.070569046, 0.07419241, 0.030508911, -0.019958518, -0.1241364, 0.044488735, -0.10996161, 0.11823233, 0.08737947, -0.055720493, 0.0918441, -0.032579813, 0.039040677, 0.13992946, 0.11427271, 0.04901063, -0.09499089, -0.053175677, -0.037571713, -0.137261, -0.1247295, -0.095520474, 0.06661039, -0.056682657, -0.1013494, -0.112639785, 0.013461484
0.123372294, -0.064588815, 0.020765044, 0.12395774, 0.10685556, -0.038671482, 0.12868309, 0.016471498, 0.12270877, -0.0025988696, 0.045705017, 0.07704763, 0.005789732, 0.06268092, -0.015315701, -0.01307184, -0.008884722, -0.011448433, 0.06531804, 0.03129859, -0.055213828, -0.056121908, -0.032679964, 0.033533465, 0.013755377, 0.001242019, 0.089884646, 0.09571172, 0.010111007, 0.10190752, -0.03989119, 0.018952664, 0.027707625, -0.030975325, -0.0021436324, 0.040144183, -0.019479321, 0.0095791, -0.07321064, -0.070331015, -0.06580923, 0.11592875, -0.0060394974, 0.0049645854, -0.068684064, 0.03416617, 0.03195051, 0.09400899, -0.06804725, 0.027783059, -0.045155548, 0.04942154, 0.039162826, 0.063962735, 0.06730532, -0.015578092, -0.037684884, -0.026483081, 0.08133745, -0.09826158, 0.08736944, 0.060404785, 0.0118440045, 0.06926913
0.11787735, -0.0057506356, 0.07804167, -0.11676419, -0.002230073, 0.021957817, -0.026617086, 0.11020525, 0.08317166, 0.041206308, -0.028484538, -0.0358291, -0.053644963, 0.06237999, -0.0023353866, 0.059105493, -0.028265996, 0.039056025, 0.04846251, 0.0673872, -0.04506214, 0.08409118, 0.050731767, 0.12620948, -0.005956221, -0.064068265, 0.09323936, -0.048205584, 0.08144326, 0.114074446, 0.078209616, -0.12316751, 0.06400728, 0.07548597, 0.08025574, 0.05506732, 0.03717737, -0.021919055, 0.063606285, 0.10133152, 0.072824195, 0.03245187, 0.13049598, 0.0004418351, 0.03372123, -0.10056343, 0.009430014, -0.03537583, 0.032919183, 0.070117265, -0.066951826, 0.03671474, 0.099625945, 0.010294089, 0.0979251, 0.042684752, -0.025236173, 0.13178368, 0.097644255, -0.02212574, -0.03696177, -0.06750951, 0.117791876, 0.12615427
0.109760545, -0.14044808, 0.09189857, 0.073670745, 0.050473653, 0.1060253, 0.11799833, 0.08351337, 0.087060265, 0.13254836, 0.13314208, 0.10251887, 0.070112996, 0.035642065, -0.10390031, 0.015899431, 0.0823828, -0.050247032, 0.02576117, 0.079532, -0.16430698, -0.019449271, 0.12075844, 0.015793031, 0.06797219, 0.10453404, 0.08223621, 0.083837345, 0.11487146, 0.085992396, -0.13795805, 0.07218054, -0.12539347, -0.13032545, 0.014810392, -0.016454045, 0.061553624, -0.01884935, -0.11326082, -0.049833268, -0.05540173, 0.028027691, 0.050432123, 0.10626003, -0.07777893, 0.07707291, 0.037559453, 0.045322154, -0.113629095, 0.07775353, 0.050370526, 0.0409364, -0.0006400661, 0.03111143, 0.059507187, -0.03402443, -0.05354382, -0.11927247, -0.028955607, -0.044878356, 0.054097217, 0.031438343, 0.034446344, 0.0581811
-0.050570402, -0.061660927, 0.11929976, 0.022394327, 0.04847966, 0.053681783, 0.030199101, -0.12206087, 0.08125892, 0.022723157, 0.019302731, 0.0327349, -0.030662881, -0.08938402, 0.007956574, 0.07723181, 0.089713424, -0.020563703, 0.10888862, 0.007290532, -0.025944775, 0.105221614, 0.14308603, 0.12113371, 0.10492021, -0.010934805, -0.10801069, 0.114833914, -0.10087922, 0.050631184, -0.051739004, -0.03278654, -0.022576645, -0.08667139, 0.0948616, 0.054158226, 0.06678809, 0.12357158, 0.11537537, 0.028717952, -0.10611616, -0.046784766, 0.018604154, -0.026136255, 0.13016987, 0.049277764, 0.005966808, 0.13703153, -0.097434595, 0.033566337, 0.14334232, 0.100400254, 0.12116001, -0.038571883, -0.1167872, -0.009803927, -0.03655321, -0.045721408, -0.105819106, -0.0048526293, -0.04372859, -0.07789187, -0.04174918, 0.03745213
0.067257926, 0.088794395, 0.08490114, 0.05398962, 0.01013764, -0.118479356, -0.013187187, 0.012187221, -0.08347787, -0.06678346, 0.053534593, 0.09496802, 0.04863155, 0.020904837, 0.009532213, -0.07038493, -0.06433461, 0.08173411, -0.089207456, -0.004672698, 0.09810126, 0.018732356, 0.016438862, -0.072316974, 0.020600658, 0.04213469, -0.011106548, 0.11026117, -0.026696367, -0.10276974, 0.060436416, 0.11299942, -0.053867556, 0.11146723, -0.009839987, -0.08455504, -0.03545913, 0.07745745, -0.1167698, -0.1132626, 0.052613795, 0.032125507, -0.11269999, 0.03716209, 0.014278582, 0.0063583357, -0.045143962, 0.119796984, 0.07310503, 0.0009558583, -0.09368919, 0.09693258, -0.071268514, 0.074730575, -0.0032015198, -0.09901343, 0.0702037, -0.032173093, 0.023292141, -0.04421303, 0.036974933, 0.0041089803, 0.1054954, -0.0007442485
0.09788776, -0.104237564, 0.0018422788, 0.036051866, 0.10835623, 0.06427388, 0.058180124, 0.028591724, 0.13896179, 0.10497495, 0.11622609, 0.10827126, 0.07672428, -0.0022715812, -0.094990395, 0.05752906, 0.06993738, 0.0089309225, 0.06473917, 0.0212621, 0.032295972, -0.037373055, 0.035821438, -0.044607606, 0.09168713, 0.08141525, -0.022110581, 0.12719442, -0.08504666, 0.12732744, -0.091819756, 0.027808866, -0.013424508, -0.11418593, 0.047650464, -0.023988202, 0.006003975, -0.03807762, -0.04069745, -0.0124830855, -0.116184466, -0.034987323, 0.027325375, -0.055817112, -0.021837909, 0.050257362, 0.07767217, 0.09880622, -0.12988408, 0.04833075, 0.06018573, 0.046696518, 0.006066435, -0.052217256, 0.045843516, -0.04673573, -0.09661029, -0.05868793, -0.0610269, 0.003637939, 0.077334575, 0.07911069, -0.028599782, 0.015794199
0.002279531, -0.022041816, -0.030508036, -0.112339765, -0.07535802, -0.088500515, -0.03913698, 0.13833779, -0.08225981, -0.091791004, -0.05939422, -0.07465232, -0.09963031, 0.08815779, -0.021370921, 0.05722481, -0.055988993, -0.07922203, -0.020084037, 0.14381248, -0.09331655, 0.02186073, -0.069824584, 0.009215087, 0.008491956, -0.10188837, 0.11093509, -0.09803259, 0.008141022, 0.13047181, 0.03863216, -0.03126711, -0.12380582, -0.044571847, 0.08382028, 0.07607264, 0.0033426452, -0.08202711, 0.09718727, 0.10372268, 0.10535686, -0.058725774, 0.03959345, -0.15247773, -0.054719083, -0.09230738, -0.07210641, -0.037226938, -0.07353643, 0.11788936, -0.087250926, -0.00748862, 0.0632024, 0.07299427, -0.100255094, -0.110918134, 0.11033675, 0.06162102, 0.1462927, -0.07046403, -0.04032871, -0.011164081, 0.071056955, -0.0836177
-0.030969681, 0.105549455, -0.073541485, 0.051513806, -0.08007, 0.019559117, 0.019372035, 0.10369811, -0.05633748, 0.039291523, 0.051756714, 0.06100859, 0.14009386, 0.08839535, 0.06500453, -0.030985823, 0.102381475, 0.09938739, -0.003250517, 0.025268923, 0.05524146, 0.061922602, -0.102161266, -0.13751152, 0.06749236, 0.13161926, 0.10590261, -0.06561592, -0.057054706, 0.024165068, -0.06940216, 0.13881718, 0.10284591, -0.074599326, -0.0776888, -0.13390072, 0.00820256, 0.115708046, 0.10264545, 0.061273593, -0.04413977, -0.043502927, -0.1315423, -0.095926754, -0.013423969, -0.0887868, 0.108761005, 0.0104555935, -0.058188833, 0.10112059, 0.1113887, -0.054829367, -0.022114316, -0.04504197, 0.081436425, -0.03730887, 0.0846711, 0.063004605, -0.077183485, 0.12400968, 0.069532976, 0.11212987, -0.09397131, -0.06522529
0.08999793, -0.10450908, -0.061473794, 0.09459105, -0.059506033, 0.07469187, 0.025096513, 0.12570618, 0.06492942, 0.07138311, 0.036272373, 0.12313115, 0.13206947, 0.031668574, -0.076253295, -0.021013157, 0.13956718, 0.019304382, 0.038852245, 0.11293662, -0.08765388, 0.024509901, 0.035744898, -0.11994306, 0.0008173273, 0.11986558, 0.06160963, 0.12262574, 0.104681194, 0.043735035, -0.031136911, 0.12351943, 0.050634746, -0.07614781, 0.0055174287, -0.06071699, -0.020058744, -0.043400884, 0.08570374, 0.10910142, -0.08866399, 0.04402141, -0.06268134, 0.030049078, -0.035228096, 0.11351992, 0.12962238, 0.048962846, -0.11419697, 0.028563693, 0.06887882, -0.04255168, 0.014126331, 0.104415484, 0.14852813, -0.05444785, 0.11530415, 0.019766444, -0.06917249, -0.0242123, 0.13125318, 0.103422314, -0.05984298, -0.029406944
-0.03885535, -0.0071030552, -0.034548916, -0.055243034, -0.01676374, 0.031773306, 0.06423848, -0.1055903, -0.055931047, 0.08457305, 0.030066693, -0.043999013, -0.045952026, -0.029106751, 0.06693277, -0.026213327, 0.012268839, 0.0036374738, -0.05104088, 0.0594121, 0.022108104, 0.117392465, -0.0050930157, -0.08594715, 0.050975457, 0.08191966, -0.017238285, -0.04281732, -0.07790231, 0.1186408, -0.077386305, -0.00087729533, 0.07568262, 0.007589276, -0.026216427, -0.017830318, 0.051626347, 0.019214356, 0.06364204, 0.08753876, -0.053170394, -0.056311283, -0.06487268, -0.1166972, -0.03672805, -0.01034227, 0.008450554, -0.0801294, 0.001875737, 0.06334486, 0.09740622, -0.032203246, 0.011423418, -0.09164534, 0.061312795, -0.039092086, 0.031089306, 0.09458264, -0.09726314, 0.08517404, -0.102152735, 0.10125941, -0.03561397, -0.11765564
0.111594744, -0.07654214, 0.08409765, 0.15719236, 0.12438292, 0.086133465, 0.10203496, 0.040220376, 0.06619946, 0.14256798, 0.080136746, 0.14109506, 0.05782793, 0.088665076, -0.046557747, 0.055108476, 0.1497154, -0.13925755, 0.047416717, -0.02773601, -0.07555693, -0.0023465795, 0.0271392, -0.024846546, 0.108105145, 0.102076374, -0.045047205, 0.11117775, -0.03930852, 0.13708189, -0.07183002, -0.060506552, -0.048589457, -0.1427795, 0.11820269, 0.07606534, 0.12540199, 0.078809485, 0.07862593, 0.108433284, -0.06818667, 0.03945422, 0.004387135, -0.0591894, 0.016108025, 0.044904657, -0.07314711, 0.10098714, -0.1307443, -0.03584419, 0.13789564, 0.06974018, 0.11798524, 0.05215734, -0.13769862, -0.064544946, -0.037257113, -0.111330755, -0.109207965, 0.018085778, 0.041738432, -0.008803204, 0.07397126, 0.124717616
0.011128244, 0.030063864, 0.060751483, -0.021462478, -0.05834431, 0.1124719, -0.017647732, 0.03867016, -0.016954653, 0.038438927, -0.03066335, -0.044986878, 0.0774832, -0.026116319, -0.068372875, -0.061092798, -0.07300535, 0.1260961, 0.027899908, -0.078048296, -0.03189339, 0.007607439, 0.07799116, 0.026496626, -0.065650694, 0.10131069, 0.058371615, -0.109904364, 0.03038927, -0.124636814, 0.05080389, -0.06706723, 0.14069599, 0.11564858, -0.049626242, 0.01101975, 0.13642284, -0.043064598, 0.0060973098, -0.05720536, 0.086670205, 0.08020198, 0.13303757, 0.02916565, 0.057634648, -0.12908761, 0.0650453, -0.09172575, 0.10501271, -0.05058555, -0.04164486, -0.015397723, -0.018362012, -0.09998748, 0.0042280834, 0.09908737, -0.08038648, 0.036756977, -0.050061654, 0.041754596, 0.10176018, -0.10121877, -0.040232033, 0.09161746
-0.006426422, 0.11199273, -0.077525586, -0.05693185, -0.016083887, 0.041576296, 0.021982688, -0.109926485, 0.04182683, 0.028306386, 0.06838741, 0.10753204, -0.040716156, 0.12889907, 0.065573595, -0.08356604, 0.06361167, 0.14334038, -0.01561572, 0.081473045, 0.040247303, 0.076728635, 0.090107016, -0.08948437, 0.1089207, 0.032368876, 0.13145408, -0.09607163, -0.049845736, 0.04134384, -0.07031242, 0.039844085, 0.11350517, -0.094860785, -0.06034293, 0.036400303, 0.1178332, -0.11426097, 0.13272226, 0.057307813, -0.04416241, 0.019609544, -0.029490408, -0.015678782, -0.11419678, 0.12453457, 0.04084962, -0.10991284, 0.018308152, 0.069641635, 0.045167025, -0.0358283, -0.11431694, -0.08524872, 0.1122776, 0.040192664, 0.09161661, 0.09424618, -0.066225335, 0.13885367, -0.09797138, 0.05376731, -0.10984705, -0.10390756
0.077110425, 0.14169224, 0.03972149, 0.10318402, 0.06446296, -0.04176611, -0.05933578, -0.12562136, -0.1080496, -0.11314719, -0.049806047, 0.06715023, -0.021291621, -0.040124755, 0.10066691, -0.10731438, -0.002256811, 0.120447166, -0.021556383, -0.13980569, 0.06807216, 0.069997646, 0.027381215, 0.08283134, 0.08331949, -0.027145982, -0.10254807, 0.094888344, 0.06968455, -0.12506105, 0.05977863, 0.13747089, -0.02713236, 0.12558633, -0.037068546, 0.11983535, -0.04973561, 0.10345243, -0.047265254, -0.1149957, 0.07394024, 0.090764806, 0.05354288, 0.12829867, 0.04926185, 0.0721794, 0.044069204, -0.04198922, 0.14967038, -0.032619655, -0.12857156, 0.04545651, 0.014806566, -0.037293933, 0.08065837, 0.08132358, 0.047512654, -0.09263543, 0.06231169, -0.06347592, -0.042862512, -0.036113143, 0.01738223, 0.08207993
0.07524449, 0.06327846, 0.10375932, 0.04210877, 0.0006679053, 0.01977121, -0.0070082285, 0.08512431, 0.023442512, 0.034893796, 0.08181758, 0.07460012, 0.1495816, -0.032352913, 0.09195392, -0.12587641, -0.049316067, 0.13532351, 0.031076984, 0.019771108, 0.06961563, -0.021535786, 0.051855605, -0.019452011, -0.060071204, 0.13435197, 0.11267493, -0.031567182, 0.09075923, -0.10731133, 0.109279, 0.10142592, 0.10417027, 0.06814796, -0.11550097, 0.1021375, 0.0066377865, 0.08022389, -0.09318942, -0.065891765, 0.03165301, 0.104689166, -0.012167343, 0.10071345, 0.0069705253, -0.020204365, 0.11278653, -0.11475212, 0.11520297, -0.012000444, -0.0061597866, 0.07707637, -0.047466632, 0.07166374, 0.039366364, 0.10805991, 0.009031647, 0.10568988, 0.05621992, 0.022464387, 0.09603327, 0.057194173, 0.114291124, 0.065198235
0.07392782, 0.13657065, 0.02582187, 0.0914749, 0.06341251, -0.046487574, -0.07306166, 0.08411306, 0.059952896, -0.0017538926, 0.07435109, 0.05331989, 0.025339631, -0.0041710907, 0.053299185, -0.09248769, -0.13241374, 0.09634524, -0.024167106, 0.10181776, 0.031890802, 0.059546236, 0.11849786, 0.015176107, 0.14201264, 0.023673352, 0.018640457, -0.05831316, 0.05377911, 0.11961338, -0.03310624, 0.14815092, 0.012154032, 0.120020054, -0.026673649, 0.07218381, -0.026876772, -0.02731729, -0.08840056, 0.004468199, 0.06835705, 0.008058573, -0.04179126, 0.053406622, -0.0298813, 0.09404645, 0.018940166, 0.01351687, 0.04797721, 0.052683868, -0.021941043, 0.093976974, 0.03349963, 0.08036393, 0.10199088, -0.042033102, 0.15910362, 0.0972499, 0.11585875, 0.033211768, 0.004276988, 0.06326405, 0.04792738, -0.053483523
-0.007587452, 0.14437318, -0.061973922, -0.08250841, -0.07437865, 0.013971149, -0.070651144, -0.054714687, -0.0527978, 0.08982899, -0.07284241, -0.114388034, -0.060795784, 0.106117025, -0.02895267, -0.008749871, 0.0106872935, 0.08202636, -0.09170829, 0.14019953, 0.012244618, 0.13605985, 0.09695326, 0.11985816, 0.14003702, -0.1129199, 0.119081125, -0.16182508, -0.027547007, 0.07243462, 0.095474176, 0.019850751, -0.024456376, -0.037297495, -0.009858985, 0.062493302, 0.06816457, -0.12773658, 0.059876762, 0.08330254, 0.048957117, -0.056886937, 0.094926886, -0.09812944, -0.06695112, 0.13452207, 0.03104966, -0.07937524, 0.057565946, 0.13585588, -0.016643861, 0.0736677, 0.055140756, -0.15326114, 0.05242085, 0.06641595, 0.039050844, 0.12143588, 0.06863825, 0.041563086, -0.06769828, -0.06847929, -0.14195004, -0.057397965
0.123602726, -0.10783079, 0.11937703, 0.14127123, 0.06557015, 0.101631835, 0.121678896, -0.064077795, 0.08897968, 0.11929313, -0.08672684, 0.050320532, -0.067604385, -0.06822368, -0.09854724, 0.14245911, -0.053216856, -0.054381784, 0.04322409, -0.0938927, -0.015880665, 0.13170089, 0.058450025, 0.13107808, 0.09532339, -0.13073352, -0.08764272, 0.12572618, -0.004223718, 0.054252554, -0.07349266, -0.09457413, -0.03636956, 0.08513429, 0.13508575, 0.128105, 0.1350455, 0.0064442917, 0.063169606, 0.12653801, -0.114968635, -0.13051066, 0.10353565, -0.13946593, 0.11575433, 0.06488746, -0.08694875, 0.024985237, 0.04572864, -0.04135558, -0.045175012, 0.104763806, 0.11753182, -0.11140552, 0.0102062, 0.04634523, -0.08532166, -0.05389673, -0.14150542, -0.025531713, -0.08558936, -0.11914418, -0.15411262, 0.13373277
-0.11733179, 0.09312979, 0.111277826, 0.06080798, 0.052483927, -0.14901467, -0.06781206, -0.12774706, -0.02132835, -0.017984305, -0.08438393, 0.13624826, -0.13046671, -0.0746464, 0.020486725, -0.1397142, -0.13845772, 0.132513, -0.015730327, -0.113970086, 0.0992376, 0.10721285, 0.041732494, 0.08283304, 0.15096895, -0.1028233, -0.040803026, 0.026114088, -0.14631253, -0.041959487, 0.05555821, 0.12787202, -0.084681235, 0.03387075, -0.10367815, -0.0903051, -0.059957307, 0.08697639, -0.05491223, -0.07643241, 0.065644264, -0.16400354, -0.07280747, 0.048730586, 0.028332267, 0.14406449, -0.058407724, 0.072654836, 0.09255921, -0.10291854, -0.09184698, 0.1415041, -0.0726203, 0.04829866, 0.09708548, -0.060793392, 0.039331246, -0.05873744, 0.12470802, 0.0819522, -0.15246072, 0.05011571, 0.03451913, 0.05897772
-0.11888659, 0.13016188, -0.04350893, -0.13473505, -0.06476141, 0.061575186, 0.10125613, 0.07072679, -0.10780833, -0.05427677, -0.10765514, -0.055857234, 0.11871083, 0.10765461, 0.00234987, 0.010044739, 0.09113389, -0.052195363, 0.082090594, -0.024849659, 0.067326196, -0.053831205, -0.10238325, -0.114143476, -0.022296803, 0.074140884, -0.100428045, 0.000944739, -0.04208234, -0.0112982625, 0.006145037, -0.06917576, 0.04744663, -0.014715806, 0.0065118903, -0.04182708, 0.06808375, 0.0922899, 0.120601565, -0.046442773, 0.0845214, 0.0550354, 0.052670214, -0.117340185, 0.056132037, -0.055709224, -0.06156417, -0.08938954, -0.0620151, -0.059050035, 0.03899593, -0.0375171, -0.014589576, 0.049578436, -0.0337323, 0.046312492, -0.0058458066, 0.033216253, -0.14392532, 0.08321458, 0.065326, 0.017878687, 0.11651841, 0.1318312
0.028140008, 0.117294215, 0.073460296, 0.007227084, 0.13977863, -0.021210788, -0.13515307, -0.10108882, 0.081052676, -0.04406643, -0.09249329, 0.034834582, -0.027454244, -0.06814073, -0.0040018638, -0.10873518, -0.06126235, 0.1305405, 0.020266395, -0.08701351, 0.015316293, 0.022835692, 0.068479925, 0.07804352, 0.02486229, -0.056293648, -0.03333001, -0.008930523, 0.025394505, -0.07510274, 0.028722998, 0.027652757, 0.033610996, 0.09745224, -0.1364851, 0.08167285, 0.060484346, 0.020664085, -0.119324766, -0.02409012, 0.064607665, 0.11030065, 0.075370036, 0.1027737, 0.12464998, 0.032988306, 0.054551024, 0.042115994, 0.10761197, -0.08229617, -0.083166726, 0.083292276, 0.05714654, -0.036295228, 0.14982513, 0.019712072, 0.083767995, 0.09433852, 0.09271121, 0.018550608, -0.10788775, -0.023913424, -0.10854383, 0.03678036
0.030199073, 0.019912133, 0.008327335, 0.07583482, -0.027380185, 0.044576474, 0.10685762, 0.04007954, 0.0106221335, 0.017147478, 0.1011364, 0.060065784, 0.001255011, 0.07201255, -0.042489037, -0.029737782, -0.09790713, -0.059763726, 0.053210784, -0.013371603, 0.017618462, -0.08958513, 0.052213833, 0.060635876, -0.04182416, 0.0061580273, 0.040882066, 0.025314834, 0.025011873, 0.07076424, -0.03316489, 0.004948852, -0.023328947, 0.004595619, -0.044844974, 0.08775509, 0.023602383, -0.09671815, -0.10775526, -0.066650696, -0.047962766, 0.111318775, -0.06373789, 0.07772448, -0.00790457, -0.006143363, 0.06330843, 0.007482341, -0.07814317, 0.010076068, -0.06461835, 0.077213995, -0.03311137, 0.074117444, 0.0319698, 0.018457647, -0.053294234, 0.026467862, -0.03464382, -0.09408178, -0.02534187, -0.005889956, 0.0137538, 0.008814323
-0.030695431, 0.073926, 0.07883147, 0.089795254, 0.0056071775, -0.007035509, 0.051646337, -0.014301827, -0.0013595157, -0.0019990674, 0.09951023, 0.04298034, 0.0014316447, 0.10860496, 0.04439216, -0.081324175, -0.078254044, -0.01707469, -0.07187596, 0.10717146, 0.0023328154, 0.027906364, 0.07602009, 0.04837592, -0.0065039922, 0.06608241, 0.105376475, 0.04571165, -0.020571822, -0.035006307, -0.031555694, 0.061432086, -0.0075713927, 0.011924279, -0.0453769, -0.101473205, -0.09205045, 0.07472228, -0.093863696, -0.0543211, -0.10341893, 0.045277253, -0.009469995, 0.087338865, 0.013529096, 0.06030516, 0.011265853, 0.0614933, 0.05744209, 0.060001727, -0.0124036735, -0.054870985, -0.023488324, 0.11051031, 0.031429756, -0.07999241, 0.10548171, -0.10020893, 0.033938713, -0.08566837, 0.07813375, 0.066836454, -0.061790276, -0.044746228
0.028705629, -0.07790229, -0.03203712, 0.011481968, 0.0048824097, -0.001588762, 0.08042685, 0.1232046, 0.053093743, -0.06705502, -0.09750337, -0.0064163543, 0.042162728, 0.052388635, -0.0004661965, 0.107803285, -0.007548446, -0.065227434, 0.040606227, 0.063833795, 0.066382065, -0.016045058, -0.07072829, -0.022816082, 0.0631768, 0.092078425, 0.112538375, 0.05113456, 0.022560297, 0.022074869, 0.032692708, -0.02587565, -0.0780851, -0.05876351, 0.12960869, 0.0043072547, -0.018267598, 0.06645878, 0.05136145, 0.03604745, 0.06320895, 0.010593792, 0.07678637, 0.005555268, -0.015967041, 0.023495704, -0.057736374, 0.1375573, -0.031363595, 0.030563118, 0.112881586, -0.056515936, 0.09218083, 0.12179526, -0.10582809, 0.00020579319, 0.024734674, -0.040657796, 0.039951492, -0.0611294, 0.03802435, -0.053190872, 0.045236904, -0.05195264
0.10168128, -0.04946166, -0.028504552, 0.015645765, 0.041339293, -0.038174346, 0.08937633, 0.019224742, 0.0030924242, -0.034760084, 0.06639482, -0.021945069, 0.00080162095, 0.04069397, 0.11166468, 0.0464084, -0.0004493812, -0.10492675, 0.10153338, 0.028974619, 0.041872863, -0.0039955983, -0.11480806, 0.037352096, 0.009978782, 0.012508534, 0.049468733, 0.0837318, 0.040481675, 0.020024363, -0.035577774, -0.039872564, -0.024587667, -0.017215542, 0.05089758, -0.07285837, 0.047561485, 0.087992, 0.009903939, 0.042385835, 0.087906614, 0.10054497, 0.012434253, 0.0716, -0.0018659248, -0.040334884, 0.053169634, 0.124992475, -0.12042409, 0.07672675, -0.014094789, 0.040724955, 0.03884709, 0.0035853665, -0.027539356, -0.057182897, 0.0006281707, -0.039311197, 0.0076927543, -0.027561087, -0.000562705, 0.120625995, 0.024102295, -0.0029647525
-0.011978424, -0.0007006554, -0.017034983, -0.012531244, -0.06677176, 0.076552324, 0.12445901, -0.041374348, 0.015457615, 0.072752506, 0.035374712, -0.04308813, -0.028185815, 0.032659955, -0.019123478, -0.119849294, 0.07157288, 0.054173034, 0.13065596, 0.11715279, -0.008503578, 0.10850074, 0.038159687, 0.10414358, 0.09654634, -0.0010704696, 0.016707493, -0.010187147, -0.006408144, 0.09161324, -0.08042549, -0.042334024, 0.07152569, -0.06012845, -0.056367673, 0.02107902, 0.051901042, -0.08657533, 0.07600161, 0.020673892, -0.016280543, 0.011064352, 0.018599426, -0.037580837, -0.016824877, 0.07168068, 0.028096551, -0.010419837, 0.10015937, 0.0148504805, 0.06222448, -0.04032515, 0.037402563, -0.024238825, 0.070632495, 0.120590046, 0.11811164, 0.0072125476, -0.113893256, 0.055376213, -0.07684304, 0.04048571, -0.016393377, 0.06321359
0.045173403, -0.026726661, 0.00806188, -0.04110558, 0.050771836, 0.03726741, 0.028010517, -0.039746135, 0.026562616, 0.021034718, -0.029843142, 0.032448042, -0.01947971, -0.04393989, -0.030577373, 0.07199847, -0.07487288, 0.034183245, 0.041989516, -0.11100951, -0.11346139, 0.09739291, 0.1309079, 0.11236353, -0.011823026, -0.015168965, 0.03591958, -0.026647104, 0.07807608, 0.08687474, 0.05652189, -0.02900196, 0.045415606, 0.12461566, -0.02073284, 0.034206122, 0.09395101, -0.120143525, 0.0012054609, 0.09849578, 0.0060024457, 0.030598886, 0.11680011, 0.12917471, 0.02698035, -0.023595843, -0.029095994, -0.080529936, 0.09168885, 0.04644186, -0.050399262, 0.05295096, 0.07345339, -0.012196174, 0.035752207, 0.03627202, -0.10213996, 0.023799317, 0.010938185, -0.073666245, -0.105703756, -0.11813021, -0.066201754, 0.049231604
-0.03450266, -0.038928434, 0.00494165, 0.09115704, 0.09558528, -0.023416983, 0.0288106, 0.007602322, -0.09261431, -0.015554715, -0.017962439, 0.08665715, -0.06326275, 0.094090655, 0.02946931, 0.13739, 0.022621078, -0.036140557, -0.06986913, 0.03465634, -0.0036633848, 0.011864747, 0.08009293, 0.063298374, 0.088506885, 0.006288448, -0.058927827, 0.07329476, -0.09574929, 0.11052598, -0.0030048077, -0.044849, -0.032007992, -0.0260628, 0.022892626, 0.118275434, 0.06885293, 0.13501804, 0.14514452, 0.1360156, 0.031883325, -0.036451284, 0.056745302, -0.06617193, -0.02667692, 0.08680336, -0.006884887, 0.05710817, -0.012989423, 0.0616765, 0.044449393, 0.10502207, 0.06238461, -0.014086552, -0.05456914, -0.14618002, 0.0005782844, -0.045870703, -0.047314256, 0.045576684, -0.07034637, -0.021678135, 0.129621, 0.06769533
-0.025647439, 0.095389545, 0.013864984, -0.027568562, -0.017389625, 0.11332008, 0.13167612, -0.04765726, 0.08927139, 0.10700429, 0.088562496, -0.011030326, 0.04152653, 0.12117929, 0.095755294, 0.034062445, 0.038671967, 0.0935833, -0.010530088, 0.041554533, 0.030625453, 0.12177505, 0.08949329, 0.07600425, 0.03432984, 0.013925672, 0.038625434, 0.078701355, -0.075373664, 0.078097224, 0.122337446, -0.007847622, 0.060535245, -0.05345162, 0.10241236, 0.055219445, 0.08673497, 0.13716188, 0.055072106, 0.09602565, 0.0061039845, -0.022781696, 0.06417061, -0.028923428, 0.017248744, 0.012463671, 0.034248974, 0.010775256, -0.00017711136, 0.12374058, 0.08357895, -0.023139428, 0.024436567, -0.025264202, 0.05968789, 0.06088599, 0.034024455, 0.06388764, -0.12012642, 0.032114852, 0.07638983, 0.071554914, -0.0067055933, -0.01864171
0.112081505, 0.051661324, 0.083057836, -0.1452251, -0.1333128, 0.11302932, -0.053961292, -0.13495967, 0.070602566, 0.070438415, -0.013572202, -0.13987978, -0.06199996, -0.10178894, -0.13043745, -0.06690375, -0.024102813, 0.06600088, 0.12622727, -0.10684447, -0.07807913, 0.05677378, 0.0983616, 0.07275844, -0.018728044, -0.04613701, 0.09304015, -0.09709297, 0.07399885, 0.053185076, 0.069042005, -0.14844593, 0.01916755, 0.10882655, -0.02858981, 0.105632745, 0.10267973, -0.09336398, -0.04405146, -0.1324933, -0.026517529, 0.0768142, 0.11422966, 0.027879383, 0.09992209, -0.15020418, 0.058995552, -0.039782453, 0.08263733, -0.09396401, -0.07785464, 0.07799945, 0.14210147, -0.10011734, 0.058806527, 0.04139033, -0.1274318, 0.06881475, 0.029231204, -0.11051894, -0.1278076, -0.054486472, -0.13658899, 0.08707008
0.10935704, 0.13571674, 0.01659891, -0.011600025, 0.009803448, 0.12174575, 0.10917648, -0.1642401, 0.109446935, 0.04595874, 0.016389145, 0.06408594, -0.032270584, 0.10815776, -0.025432168, 0.024568787, -0.010408614, 0.043503452, 0.08186045, 0.040360786, 0.03843077, 0.01850632, 0.10884102, 0.045430668, 0.022572685, 0.070946924, 0.025180334, -0.0025067378, 0.09337221, 0.06406745, 0.07404995, 0.06223208, 0.040978752, 0.049662158, -0.0057259663, 0.07399088, 0.11514719, 0.08335212, 0.035364747, 0.13347135, -0.062182862, 0.0019611106, 0.036539324, 0.0838697, 0.016569292, 0.13001794, 0.06407366, -0.041500803, 0.043022133, 0.123205245, 0.12132539, 0.045002416, 0.083559364, -0.06567615, 0.13548677, 0.00519949, 0.08383921, 0.016419718, -0.009135938, 0.09165352, -0.05857158, 0.050979797, -0.102354564, 0.010209504
0.03245432, -0.051668614, -0.11556383, 0.14206108, -0.026951147, -0.1357947, -0.083442055, 0.06937663, -0.013457512, -0.0008883451, 0.07701375, 0.08338375, 0.019050647, 0.09043165, -0.023746336, 0.08283044, 0.04011763, 0.022800477, -0.026224913, 0.07546353, -0.008197028, 0.06312857, -0.082596004, 0.030089647, 0.11999314, 0.004138609, 0.07546035, 0.03200619, -0.0056055184, 0.0867376, -0.027904762, 0.12515081, -0.0005307464, -0.03884444, 0.07401949, -0.0070952936, -0.1328298, 0.019955399, 0.09252248, 0.12615632, 0.024923492, -0.07965024, 0.0016294523, 0.01772582, 0.018568076, 0.019536458, 0.007620074, 0.1398747, 0.004950097, 0.09348101, 0.0550695, -0.027755504, 0.019610187, 0.033289865, 0.028487027, -0.056176655, 0.09675922, 0.036243442, 0.10472018, 0.0726665, 0.118860774, 0.061178263, 0.1111778, -0.012700835
0.043564957, 0.02026396, -0.02296935, 0.07204557, -0.04885447, 0.03570234, 0.059199926, 0.09421849, 0.089553826, 0.061936542, 0.064355776, 0.11177665, 0.016298989, 0.12926139, -0.0075791674, -0.01643223, 0.10275152, 0.013025312, 0.028394021, 0.1446974, 0.05144625, -0.0803082, -0.09729658, -0.027228037, -0.044750605, 0.08590248, 0.067497775, 0.020620469, 0.03544704, 0.020153038, -0.095599085, 0.018080818, 0.0047138156, -0.120641835, -0.013525723, -0.033069227, -0.025243793, -0.12016924, 0.02160291, 0.049069528, -0.12622799, 0.10017036, -0.06401417, 0.08040365, -0.011919509, -0.0053058323, 0.022304233, 0.031424187, -0.08704914, 0.111360185, 0.01710996, -0.12198694, -0.01653098, 0.08516591, 0.09839456, -0.11151683, 0.10777845, 0.0881741, 0.03327723, 0.03648466, 0.13083382, 0.08684678, 0.023594152, -0.1451451
-0.079541594, 0.037293494, -0.09071001, -0.1318293, -0.122177586, 0.10623626, 0.009637407, 0.13564272, -0.064565025, -0.002172342, -0.016483631, -0.054296393, -0.058375508, 0.14665528, 0.11933157, 0.14698666, 0.13004798, 0.092507996, 0.0061051906, 0.14438011, 0.07906891, 0.092859335, -0.05157869, -0.051249824, 0.15275998, 0.076667964, 0.04235939, -0.015189232, 0.04936731, 0.101908125, 0.021969805, -0.10294973, 0.108182944, -0.034488052, 0.07216212, 0.09898317, 0.072373696, 0.048251223, 0.08875152, 0.12283217, 0.10079064, -0.081341736, 0.054800138, -0.072598845, -0.0689351, -0.06658641, 0.039558247, -0.11413185, -0.14155713, 0.05234995, 0.079158686, 0.00807607, 0.13153107, -0.07576822, -0.0702867, -0.014522079, 0.07059074, 0.049821977, -0.042802606, 0.10919654, -0.10291393, 0.019713499, 0.09455267, -0.09180771
0.0083116945, 0.03767722, 0.04513778, 0.02443113, 0.0302262, -0.05911953, -0.08571376, -0.043464843, -0.026385007, -0.060061183, 0.010040861, 0.0532378, -0.0057887095, 0.010919888, 0.10084914, -0.016990682, 0.010705852, 0.10741558, -0.084568836, 0.088571385, 0.17233165, 0.05990197, 0.10398322, 0.084869795, 0.108524576, -0.033319995, 0.12810381, -0.0143238995, 0.08246543, 0.05802493, 0.07857028, -0.0224377, 0.00048339, -0.011903559, -0.0048566647, 0.0033214693, 0.05764379, -0.0010545021, 0.060043868, 0.074849844, 0.019603238, -0.058091883, 0.010039447, 0.075570844, 0.073451936, 0.1002854, 0.04503008, 0.062057175, 0.034396254, 0.04428204, 0.028703574, 0.063890435, 0.049861323, -0.030655632, 0.09485217, 0.08059671, 0.10843076, 0.040963557, 0.12828729, 0.02424079, -0.0060503115, 0.081671596, 0.051345974, -0.0088678375
0.10067945, 0.038872574, 0.076057315, 0.08060365, 0.014919288, -0.021399455, -0.03926178, -0.062681325, 0.01344311, -0.05501716, -0.040812325, 0.047875047, -0.029196925, -0.124112986, 0.019949526, -0.017885, -0.12244653, 0.05229464, -0.02263008, -0.0064160298, 0.025567597, 0.10597274, 0.061206806, 0.13778304, 0.040025037, -0.16705422, -0.05506502, -0.0780364, 0.060423046, -0.03203866, 0.08634542, 0.10614783, -0.07401164, 0.072956614, -0.027505841, 0.061895616, -0.09452351, 0.044042576, -0.023649778, -0.05705097, 0.06992361, 0.10805654, -0.0053332117, 0.07242982, 0.10708569, 0.0631495, -0.02487561, 0.00099521, 0.09949712, -0.061412018, -0.06257561, 0.026768342, 0.026416998, 0.04839753, 0.08136171, 0.11163216, 0.033470053, -0.021479907, 0.09798871, -0.058546923, -0.084750615, -0.09606986, 0.026453538, 0.050816245
-0.041536197, 0.06841867, -0.045681693, -0.071443416, 0.053957026, -0.00057843473, 0.021992449, 0.027572222, -0.09528723, -0.03373666, -0.07181447, 0.01085483, 0.09769611, 0.08802008, 0.03180531, 0.13323776, 0.12537195, -0.1202133, 0.103791244, -0.12278214, 0.07574378, -0.08072768, -0.14522186, -0.10228403, -0.036947425, 0.109870225, -0.087556034, 0.09768919, -0.08794338, -0.13498408, 0.022370107, 0.026021078, 0.087619975, -0.019776434, 0.06666329, -0.054153297, 0.0653164, 0.102470785, 0.01862401, 0.009272724, 0.13691013, -0.029396718, 0.07875995, -0.09655751, 0.06999484, 0.01942576, -0.15049149, -0.09940393, -0.04158305, -0.08882093, 0.13772863, -0.07334643, -0.0818403, 0.13761248, -0.042749435, -0.08899081, 0.005277614, -0.098414965, -0.07020807, 0.14536986, 0.11020496, 0.0487592, 0.08062217, 0.04421894
0.10005592, -0.03597603, 0.12365404, 0.053802367, -0.022380536, 0.12497318, 0.033592813, -0.04853503, 0.069764525, 0.13561524, 0.029440679, 0.1332073, 0.040077973, 0.0014910012, -0.08520036, -0.02402885, 0.043856826, 0.061262906, 0.13738202, 0.013342562, -0.1340661, 0.018342609, 0.047645476, 0.106806874, 0.05984306, -0.09093937, 0.05650208, -0.03955721, 0.07993773, 0.079129316, -0.034459677, -0.04712503, 0.046673436, -0.06595438, 0.024300128, 0.14693445, 0.12560275, -0.027898775, 0.005052355, 0.03664478, -0.054699488, 0.07699571, 0.045323357, 0.10213194, -0.047514386, 0.069126144, 0.06546065, 0.0412447, 0.077094115, 0.028605673, 0.10397585, 0.07354158, 0.068812564, -0.0796728, 0.07660093, 0.11267349, -0.028971098, 0.101130135, -0.029741138, -0.06174069, -0.103536546, -0.0012332151, -0.1213396, 0.016889464
-0.07448512, -0.026402509, -0.045169946, -0.05827142, -0.037600473, -0.077479504, 0.04149405, 0.07948508, -0.025007242, -0.042541936, -0.03501036, -0.023381175, 0.0639589, 0.056752857, 0.109723076, 0.087009676, -0.0044264635, -0.042816896, 0.014159615, 0.109114654, 0.12356522, -0.069430366, -0.10271656, -0.045325063, -0.08561003, 0.05366667, 0.014561336, 0.013550262, -0.024085233, -0.0938733, 0.12549803, -0.08172821, 0.06759222, -0.11950998, 0.13845655, -0.09227095, -0.03639569, -0.0013520387, 0.0921284, 0.0695038, 0.11831397, -0.07638427, 0.008003369, -0.060616516, -0.003571195, -0.15183818, -0.010314117, 0.03452168, -0.04151848, -0.016308509, 0.06720839, -0.12748879, -0.021035505, 0.14142923, -0.043083698, -0.10393656, -0.02931154, 0.12813526, 0.07580882, 0.005326392, 0.031117951, 0.09849413, 0.059940632, -0.114551
-0.044057842, 0.030273013, 0.03920375, 0.02610755, -0.029377475, 0.11821897, 0.035203412, 0.04388539, 0.00811969, -0.07618253, -0.122153014, -0.008902794, 0.07060599, 0.016698902, 0.10412723, 0.07795107, 0.11747867, -0.0058557237, 0.12005594, -0.09795081, 0.031392854, -0.13028747, 0.019633442, -0.058476504, -0.08692832, 0.094263546, -0.08171397, 0.1104068, -0.059259225, -0.12359242, 0.023644673, 0.010043778, 0.05040576, 0.1093297, 0.0966626, 0.008808543, 0.03812993, 0.06935932, 0.020295441, -0.12920709, 0.009166527, 0.02661728, 0.086639404, 0.007347408, 0.044792686, -0.09882256, 0.01223418, -0.07361371, 0.059059132, -0.045009017, 0.065730505, -0.0154917305, -0.09887941, 0.07201515, -0.028852256, 0.03043488, -0.10844694, 0.09180062, 0.003572903, 0.07511559, 0.13655178, 0.049445778, 0.093727775, 0.080191515
-0.13178416, 0.10537703, -0.061736725, -0.13339917, 0.0016197897, 0.031770617, 0.052558336, -0.089583285, -0.052499786, 0.023783993, 0.08316651, 0.0022136052, -0.082801454, 0.1350266, 0.12889639, -0.08042021, 0.07846687, 0.060250305, -0.05212074, 0.112033255, 0.04321883, 0.12009496, 0.054376677, -0.019733772, 0.09395974, 0.06420165, 0.10607278, -0.063503094, -0.09065206, 0.06158108, -0.14115731, 0.10841184, 0.027346123, -0.0871223, -0.044834305, -0.04625741, 0.02225363, -0.0221655, 0.0508993, 0.12243563, -0.033497214, -0.049358983, -0.029599909, -0.04323615, -0.16210951, 0.11404715, 0.06408634, -0.02382046, 0.06387153, 0.03536573, 0.113285385, -0.1312007, -0.103214, -0.029450044, 0.14231056, -0.0705019, 0.030337775, 0.1010226, -0.03312179, 0.08082344, -0.04608358, 0.10105482, -0.10161011, -0.121075146
0.07211345, -0.093449906, 0.10801428, 0.13365406, 0.020186571, 0.011313373, 0.09823794, 0.048900712, 0.16277197, 0.07667159, 0.10945476, 0.087119676, 0.05820635, 0.07124513, 0.00019744059, -0.044005368, 0.07505694, 0.09787678, 0.084859684, 0.07655548, 0.0129766455, -0.10560751, -0.100561365, -0.114074536, -0.068090364, 0.12813076, 0.054664496, 0.05063346, 0.098018005, 0.06613744, -0.07581797, 0.057632934, 0.13437563, -0.03486126, -0.020853762, -0.07527468, -0.015582034, 0.022023713, -0.076720975, -0.11031675, -0.096475974, 0.08465912, -0.07781394, 0.14460748, -0.0685446, 0.05690598, 0.1343375, 0.075272255, -0.12550923, 0.10398679, 0.07741156, -0.021919783, -0.08532526, 0.13136433, 0.09801522, 0.026768696, -0.03907118, -0.018622845, 0.04669024, -0.06864258, 0.08659743, 0.07172141, 0.078936286, 0.028020062
0.030678898, -0.096524835, -0.051455397, -0.06832476, -0.08022654, -0.12548493, -0.0739992, 0.08594735, -0.12757629, -0.112357914, 0.0069163702, -0.0012871432, -0.080209754, 0.12450595, -0.013457018, 0.118999794, -0.118905656, 0.003664247, -0.1355684, 0.13278475, -0.0036095504, 0.00743355, -0.048160497, -0.10516675, 0.112640634, 0.017547367, 0.11682553, -0.07880554, 0.06971323, 0.0338752, 0.01593245, -0.04905295, -0.035247277, 0.0014971119, 0.13815814, 0.021700257, -0.044506658, -0.07893568, 0.096678846, 0.05519091, 0.15101396, -0.07565752, 0.10913814, 0.00861604, -0.1381204, -0.1113652, -0.073838495, 0.120990716, 0.035000756, 0.08102396, -0.029905984, 0.02068212, 0.11334013, 0.054391664, -0.06474526, -0.011430154, 0.0798643, 0.15376708, 0.12069345, 0.003752024, -0.10568512, 0.00052417495, 0.073997945, -0.01316584
-0.013144682, 0.08985686, -0.0858976, -0.1457021, -0.15117548, 0.04539753, 0.03369395, 0.12784563, -0.030315943, -0.018482845, -0.07296013, -0.0418819, 0.117588244, 0.000100958016, 0.07714655, 0.081031226, 0.122304656, -0.00818249, 0.029630026, -0.06736691, 0.08058621, -0.066937394, -0.040405057, 0.071246885, -0.085088186, 0.07525233, 0.1000809, -0.07530151, 0.09504862, 0.038040653, 0.12994656, -0.104156055, 0.023322351, 0.063542284, 0.15842308, 0.016824996, 0.121845886, 0.14621906, 0.1040501, 0.110556915, 0.039834585, 0.10618598, 0.07117503, -0.057568714, 0.06786309, -0.050459556, -0.024163937, -0.12166493, 0.047629494, 0.014303433, -0.004751827, -0.07284964, 0.053848125, -0.0050048446, -0.025104366, 0.054237127, -0.0002491946, 0.07821916, -0.1182508, 0.10465585, 0.15312102, 0.04311144, 0.13272406, 0.0866682
0.0069875526, 0.117808476, -0.015807737, -0.033471182, -0.070380226, -0.0075132046, -0.05994645, 0.01953572, -0.02194699, -0.016592896, -0.010142431, -0.042588912, -0.042033494, 0.07284407, 0.05207773, 0.053331062, -0.013980565, -0.0007583308, 0.031024797, 0.049279667, -0.009768619, 0.115871504, 0.050918344, 0.016994696, 0.07286716, 0.042023227, 0.038992956, -0.027828222, 0.03403611, 0.094056286, 0.11293161, -0.06718043, 0.00891399, 0.057577007, 0.05924594, 0.0317717, 0.05141194, -0.015277728, 0.114629336, 0.040151436, 0.11178894, -0.04565116, 0.12183123, -0.059879757, 0.08179416, -0.08922865, -0.022432107, -0.038627513, 0.12656415, 0.08027067, 0.02475931, 0.07648406, 0.059145957, 0.02305194, 0.062331524, 0.078103215, 0.10581365, 0.07807696, 0.091686815, 0.018453084, 0.047448535, -0.02562712, 0.056701023, 0.027624121
0.0061548445, 0.14385213, 0.060519923, 0.13682197, 0.10759047, -0.066808134, -0.037199035, -0.0019866407, -0.12248276, -0.1498686, 0.029968087, 0.12790503, 0.04429426, -0.06366781, 0.11371617, -0.04619165, -0.03419908, 0.14808391, -0.03042686, -0.010906992, 0.124589846, 0.10628539, -0.027665533, -0.058641467, 0.060636993, 0.050481305, -0.0800118, 0.024598006, 0.06350054, -0.04575937, 0.11567853, 0.073444836, -0.055658236, 0.06755977, -0.060515292, -0.055488095, -0.074081585, 0.06289596, -0.06074459, -0.029400501, 0.06449763, -0.009436589, -0.07037928, 0.0771935, 0.067579895, 0.11416344, -0.047725957, 0.062192075, 0.14270477, -0.057251856, -0.074286416, 0.034914214, -0.12298562, 0.13236634, 0.14766777, -0.14309005, 0.019854125, -0.097700715, 0.06144576, 0.035550967, -0.0007030432, 0.105399705, 0.03518294, -0.075698666
-0.09039516, 0.017539635, 0.012770706, 0.07946167, 0.058036912, 0.01841067, -0.000287013, 0.035536785, -0.098434635, -0.08829664, 0.0049562603, 0.10181916, -0.09347406, 0.024879856, 0.034979776, 0.058794882, 0.005261275, 0.03976807, -0.018705653, 0.043059126, 0.016939204, 0.020317962, 0.0034785904, 0.0813808, 0.1150277, -0.022199685, 0.07138585, 0.020552736, -0.10418737, -0.0063581355, 0.09026766, -0.012638363, -0.12991412, 0.07712776, 0.019345567, -0.019680481, 0.008998606, 0.060425512, 0.042623322, 0.09840137, 0.06763282, -0.06240973, 0.07229481, -0.008873219, -0.00953667, 0.08921671, -0.11393468, 0.053135414, 0.0025030405, -0.024412127, 0.03454814, 0.0789714, 0.027725495, 0.0700723, -0.056121517, -0.06450424, 0.09251185, -0.027598234, 0.07535928, -0.0013334518, 0.08777831, -0.009147184, 0.043125138, 0.052715823
-0.05825517, 0.116824865, -0.087753505, -0.088702366, -0.08485566, 0.09537597, 0.12295701, 0.0024710263, 0.005806917, 0.1024947, 0.023537217, 0.13192554, 0.087375455, 0.077014446, 0.016538046, -0.024441713, 0.1157861, 0.04720114, 0.08412958, 0.016165236, 0.14191018, 0.023558449, 0.020209875, -0.04354388, 0.117350616, 0.08192864, 0.1158775, -0.026288792, 0.022283835, 0.038294584, -0.031961948, 0.053343352, 0.10155087, -0.048080057, -0.04106186, -0.036698733, 0.106449, 0.023234013, 0.036968157, 0.03639381, -0.05706416, 0.017685594, -0.073545516, -0.025819113, -0.05324952, 0.11202895, 0.119779326, -0.05652805, 0.07902593, 0.13535516, 0.026579289, -0.021334171, -0.07739239, -0.042041294, 0.050981842, -0.085502736, 0.09697345, 0.05750009, -0.06110771, 0.11482757, -0.072137564, 0.11294436, -0.09101835, -0.031985737
0.039154213, 0.032942303, 0.069512084, -0.01648648, 0.11208754, 0.11276226, -0.028526306, 0.017576002, 0.06018251, 0.06004355, -0.03961908, -0.068179056, -0.104734346, -0.013010949, -0.10893197, 0.011302195, -0.022526408, -0.049070742, 0.022345182, 0.026504373, -0.05894103, 0.071611136, 0.08018563, 0.032810684, 0.037934426, -0.011486955, 0.088289835, -0.062057838, 0.034589708, 0.124151535, 0.13359186, -0.037267752, -0.03986573, 0.096215956, 0.052932087, 0.032787878, 0.04959828, -0.014667827, 0.021649202, 0.10954045, 0.071685284, 0.029003462, 0.05186001, 0.050350398, 0.034254882, -0.0007464135, -0.046718974, 0.02116796, -0.0006400725, 0.10422339, 0.023808626, 0.106282026, 0.015978623, -0.07057532, 0.10705684, 0.0952514, 0.03676993, 0.049602892, 0.04268027, -0.0957081, -0.10673662, -0.1170292, 0.013260661, 0.10067284
0.0388205, 0.08803629, -0.00020561334, -0.10953559, -0.09327344, 0.0052761286, -0.15223502, -0.06263601, 0.06170343, 0.09908001, -0.033980522, -0.026306054, -0.04798308, -0.03951065, -0.07772687, -0.0982776, -0.08718366, 0.11812112, 0.069637656, -0.03399337, -0.114017084, 0.055818036, 0.11605977, 0.0968416, -0.050537866, -0.018785298, 0.10559724, -0.09361495, 0.057134707, 0.1088732, 0.0278661, -0.05856831, 0.04483849, 0.012302154, -0.043672644, 0.12759699, 0.114546694, -0.10674099, -0.0655437, -0.10910032, -0.040783953, 0.11658874, 0.045256253, 0.13777114, 0.09631219, -0.048588656, 0.109490916, -0.05003082, 0.12531792, -0.04471699, -0.039218504, 0.07642116, 0.037644066, -0.05513515, 0.08187622, 0.13369796, -0.042785563, 0.1081791, 0.0809169, -0.07609164, -0.086352155, -0.022451308, -0.02411458, 0.020819405
0.099066466, 0.06276856, -0.0856531, -0.07809103, -0.05537196, 0.010874144, 0.082835265, 0.022071606, 0.1085635, 0.049575645, 0.09310101, -0.015862504, -0.112975106, 0.0983711, 0.019358778, 0.0667154, -0.011819457, 0.105980895, 0.030406173, 0.11425935, 0.06882547, 0.16474912, 0.058053806, 0.035463277, 0.04695468, 0.014748266, 0.03646972, -0.0012713602, 0.08872536, 0.045333873, 0.05864846, -0.0469059, 0.08055876, 0.11328232, 0.041945398, 0.045722954, 0.06976016, -0.09345206, 0.043826547, 0.072249554, 0.09109452, 0.0030906727, 0.028530106, 0.08112364, -0.020380413, 0.061521508, 0.10680195, -0.03786682, 0.04047045, 0.12853615, 0.063681334, 0.092970386, 0.0782866, -0.045368176, 0.0461985, 0.06002517, 0.06418677, 0.11475794, 0.10733757, 0.060402397, -0.01471515, 0.06959161, -0.0022832712, -0.025225995
0.083104216, -0.07327226, -0.04400993, 0.06015908, -0.07477114, -0.06801533, 0.10063695, 0.042809036, 0.010018289, 0.05132933, 0.06969092, 0.12998465, 0.04584736, 0.044986222, -0.09021748, -0.08447538, 0.014251052, 0.022104574, -0.014622694, 0.079288, 0.060505252, 0.03171213, 0.011481498, -0.11126675, 0.012108818, 0.101519585, 0.022975478, -0.043343067, 0.07622166, 0.062668696, -0.07537552, 0.02017712, 0.015880015, -0.12294265, -0.07763547, -0.03594778, -0.11538623, -0.06748208, 0.050201125, 0.042614624, -0.12458578, 0.012738435, -0.011005347, 0.05048998, -0.030895237, -0.00034409954, 0.0547249, -0.038278047, -0.08202245, 0.12418094, 0.092783116, -0.04195289, -0.11487614, 0.031157933, 0.12184948, -0.024521092, 0.0049719973, -0.006573853, -0.008888216, -0.04317939, 0.035936594, 0.008741588, -0.05542898, -0.039925363
-0.004894919, 0.13410115, -0.09373237, 0.07052537, 0.051244207, -0.022240892, -0.13469025, 0.05881473, -0.10090942, -0.057490565, -0.12727381, -0.0027879414, 0.004786402, -6.1381674e-05, 0.079761505, 0.06575078, -0.0785543, -0.032041814, -0.029098272, -0.03069318, 0.10724502, 0.041154224, -0.0718212, 0.07593106, 0.008409541, -0.005770458, -0.03586398, -0.009389449, 0.048407767, -0.022043405, 0.030537898, 0.10453422, -0.07591371, 0.05751516, 0.10369713, -0.07996447, -0.039977, 0.01654011, -0.06012864, 0.064633824, 0.076012745, -0.07268683, 0.07786531, 0.0054531596, 0.05156402, 0.07741592, -0.02328176, 0.08539074, 0.071705036, -0.028500438, -0.10876554, 0.03766821, 0.020546066, 0.11762906, -0.0060093245, -0.027209261, 0.0041646855, -0.04748234, 0.08736852, 0.031276353, 0.07508621, 0.02893979, 0.06325874, -0.06677554
0.059979554, 0.07706254, 0.08374054, 0.08072852, 0.024056789, 0.100247584, 0.092138916, -0.0077011655, 0.035544693, 0.09506664, 0.09353784, 0.020014971, 0.09997263, -0.0020709967, -0.056599643, -0.10287213, 0.01899541, 0.025141213, 0.07813457, 0.007907665, 0.004626338, 0.105861425, 0.039127383, 0.019266238, -0.11826694, -0.003912131, 0.07057579, -0.11641913, 0.07411038, 0.04578737, -0.046361256, 0.115058765, 0.13342996, 0.08842737, -0.057756297, 0.075665966, 0.065528825, -0.07770839, -0.08722282, -0.026913665, -0.020793302, 0.07692213, 0.0011657046, 0.11162223, 0.0032327485, 0.0062117283, 0.109457724, -0.059758835, 0.0877581, 0.05853506, -0.0045377878, 0.05170549, -0.04462211, -0.015538555, 0.08853338, 0.039000195, 0.028170614, 0.107470706, 0.022108888, 0.04354389, -0.03510064, -0.0065654265, -0.06164729, 0.073468536
0.11879392, -0.1210624, -0.0056461836, 0.06245364, 0.080477595, 0.053297427, 0.030999575, 0.16070305, 0.05553759, 0.14150077, 0.043109845, 0.09309757, 0.07132138, 0.13127908, -0.007162775, 0.06948849, 0.049090035, -0.060199354, 0.06365101, 0.040071897, -0.0048008203, -0.009638738, -0.015360415, -0.067460164, 0.10303021, 0.091702536, 0.07959909, 0.020840907, 0.13000856, 0.032392614, -0.038095545, -0.047742404, 0.0030033141, -0.08509281, 0.034985837, 0.028082425, -0.0077983714, -0.0011106887, 0.108372785, 0.071031734, 0.01485905, 0.04992161, 0.059337348, 0.07203993, 0.048477937, 0.059328627, 0.010009593, 0.09699176, -0.09388466, 0.024426809, 0.069154784, -0.020074606, 0.014129944, 0.05508477, 0.015061006, -0.13281216, 0.057702467, -0.0038340606, 0.07097906, -0.023795329, 0.10858529, 0.11935535, 0.12527952, -0.06973626
0.02520905, 0.075294, 0.09282414, 0.0022343514, 0.044407487, 0.06663088, 0.13992836, 0.030186322, 0.069499925, 0.00023760693, -0.07783637, -0.04575523, 0.10634653, -0.06583521, 0.05451154, 0.059474874, 0.0986632, -0.01010522, 0.027452985, -0.07053788, 0.031711925, -0.0060112784, 0.0033367157, 0.07103081, -0.0062753228, 0.015677622, -0.041359726, 0.13460137, -0.017149348, -0.02970072, 0.10583881, -0.13022098, 0.072596855, -0.015193197, 0.14890207, 0.08052511, 0.10811437, 0.14200039, 0.09106279, 0.098282665, 0.11751487, 0.009625077, 0.03152822, -0.07469995, 0.04267967, -0.08528716, -0.13219105, -0.00043726747, -0.092018194, -0.10181352, 0.06526179, -0.023418184, 0.041078776, -0.08502422, -0.01516937, 0.111358605, -0.122851044, -0.13579473, -0.0793805, 0.12407274, 0.1003915, 0.012094154, 0.049588695, 0.077360645
0.008683317, 0.06957871, 0.050573893, 0.0999806, 0.003786567, 0.08635676, 0.1325299, 0.1222113, 0.0061297556, -0.018965982, -0.03245476, 0.023741588, 0.048045207, 0.024203738, 0.11268179, 0.071281314, 0.03725201, 0.017163374, 0.045904167, -0.040021047, 0.10157656, -0.0062164958, 0.09240014, 0.023605742, -0.011788821, 0.09645668, 0.02104948, -0.023162415, 0.09725359, 0.044836875, 0.16455372, -0.0052393093, 0.034111656, 0.13887721, 0.008442243, 0.065082364, 0.1394929, 0.11037028, 0.025031986, -0.08764343, 0.1376727, 0.13886914, 0.09917551, 0.041400056, -0.012935371, -0.052132387, 0.060737755, -0.0050744824, 0.052424535, -0.04090958, 0.080686785, 0.026780985, 0.059802935, 0.11129268, 0.04691514, 0.1061712, -0.03558419, 0.08380843, -0.124925844, 0.0076781865, 0.15056261, 0.0039639873, 0.116015114, 0.10705826
0.016988484, -0.0077319327, 0.09961278, 0.10705074, 0.018105239, -0.049232475, 0.06187001, 0.109940186, 0.08845428, 0.10948027, 0.10157632, 0.0758747, 0.047028724, 0.011209602, -0.050514616, -0.026819788, -0.004061946, -0.042693622, 0.014004376, 0.08658675, -0.07813672, -0.024324404, -0.106891334, -0.009931362, 0.003642974, 0.007397244, 0.10427637, 0.07160546, 0.07985568, -0.11728241, -0.070679784, 0.03631227, 0.028547551, -0.07596231, -0.0136822695, -0.030188682, -0.004336829, -0.115650795, -0.026535233, -0.037633967, 0.010990042, 0.07263759, -0.030157557, 0.07824964, -0.05052003, -0.0951483, 0.016658323, 0.037279934, -0.019783603, 0.025429873, -0.051869743, -0.068965726, -0.034523614, 0.03998197, 0.040049437, -0.09383729, -0.021991326, -0.061900765, 0.0954432, 0.00053637393, 0.110911764, 0.057951007, 0.12206293, -0.063171014
-0.13836408, 0.031162081, -0.08337633, -0.054225408, 0.021136496, 0.08562627, 0.0030124888, -0.04888289, -0.107270844, 0.06441078, 0.10497551, -0.0032168876, -0.10995177, -0.016854456, 0.0015948021, 0.054350637, 0.107304275, 0.057587963, -0.040633466, 0.10024799, 0.053280782, 0.039908353, 0.07921472, 0.0033460646, 0.05292755, 0.04102999, 0.11044112, -0.0076401145, -0.06963631, 0.024213951, -0.06848549, 0.051635236, 0.037365317, -0.01901011, 0.0096105775, 0.005800645, 0.07900009, -0.01997282, 0.053109482, 0.04584402, -0.07676194, -0.03267039, -0.088306464, -0.06487488, 0.028951403, 0.015468077, 0.07634921, -0.047713257, 0.06286584, 0.025274508, 0.064278446, 0.02071733, 0.018396454, -0.08226336, 0.11480124, -0.07365847, 0.019118521, -0.0055003944, 0.0072375676, 0.083034255, -0.068809785, -0.004314066, -0.073354855, -0.10116251
-0.13607487, 0.06523282, 0.034487095, -0.032636296, -0.058704093, 0.10518378, 0.032238282, 0.108126275, -0.10451129, -0.09782047, -0.05691164, -0.09420551, 0.012545226, -0.066332094, 0.11794644, 0.095185064, 0.039887868, 0.09244701, 0.10914464, -0.07199241, 0.07557668, -0.05543382, -0.027113296, 0.017396148, -0.06590516, 0.13783403, -0.06169376, 0.10842176, -0.063082084, -0.01006575, 0.09052046, -0.020922303, 0.10952908, 0.12321316, 0.047215447, 0.0049407436, 0.08601949, 0.032343473, 0.06223247, -0.12454629, 0.07750006, 0.024554586, 0.04756339, -0.07041132, 0.06301896, -0.08424097, -0.07879102, -0.1431101, 0.022643637, -0.06592222, 0.08268282, -0.06154374, -0.0027676208, -0.019494645, -0.06779644, 0.069715194, -0.050693735, 0.022136528, -0.08090443, 0.14659066, 0.08262769, 0.073265664, 0.0155974105, 0.09375086
0.026014376, 0.083168745, 0.013196933, -0.010269187, 0.05190138, -0.060960706, -0.10746855, -0.043934643, -0.09212048, -0.057959944, -0.0341205, 0.01635606, 0.019043729, -0.037912272, 0.020935327, 0.0070784222, -0.021763256, 0.06880859, -0.025737127, -0.09575402, 0.016302451, -0.0035802366, -0.01614901, 0.025437165, -0.007342283, 0.03858326, -0.034248397, -0.06581675, 0.0747781, 0.0014022313, 0.13023661, 0.041069336, -0.011634397, 0.09896371, -0.0054060994, 0.015851388, -0.051191755, 0.029003305, -0.021174427, -0.08975161, 0.13030902, 0.036494847, -0.019638425, 0.02203189, 0.08664865, -0.0013705943, -0.0077202474, -0.0016168329, 0.05614614, -0.020909548, -0.02200745, 0.09856712, -0.020350097, 0.06410371, 0.02965951, 0.042307626, 0.08163566, -0.06304765, 0.018617837, 0.04344538, 0.055001635, 0.051372007, 0.010816144, 0.09474362
-0.020380665, -0.0061342195, 0.010595555, 0.10182564, -0.016329553, 0.06148219, 0.05443145, 0.05507137, 0.02654689, 0.0074290955, 0.086574845, 0.074535646, 0.04179448, 0.05506017, -0.018281944, -0.034886885, 0.0093544535, 0.04192633, -0.0037810628, 0.012347908, 0.034590844, 0.0019745834, 0.012537088, -0.026357833, 0.039584167, 0.024149455, 0.055453967, -0.04121534, 0.016957963, 0.0076014614, -0.11564126, 0.010095338, -0.0130939325, -0.11110564, -0.013593284, -0.011447123, -0.034628253, -0.101351306, 0.0052278647, 0.04147523, -0.087981895, 0.028908249, -0.0055530164, -0.032606844, 0.008232586, 0.0723375, 0.021280069, 0.05400272, -0.066176005, 0.042430878, 0.021217166, 0.0072738454, -0.09739085, -0.01935639, -0.006275014, -0.08600755, 0.08016816, -0.020828422, -0.024211414, -0.019590724, -0.012634833, 0.0819637, -0.091765985, -0.0225047
0.106254555, -0.13243891, 0.07885144, 0.082571134, -0.05980238, -0.110191755, 0.13241449, 0.09922195, 0.056147438, 0.09894531, 0.04783721, 0.07767165, 0.12646928, 0.076379344, -0.026118018, -0.07055139, -0.08165354, -0.011193216, 0.08559388, 0.07762949, -0.057015788, -0.059481032, -0.112426385, -0.0678318, -0.046619684, 0.03673388, 0.088647395, 0.07732038, 0.10600582, -0.005856291, -0.056542523, 0.10245161, 0.112697095, -0.12544821, -0.1132467, -0.052140262, -0.10860879, -0.09146668, -0.023788407, -0.049429875, -0.1030307, 0.073056385, -0.023158075, 0.12429064, -0.02180674, -0.09315504, 0.017717099, 0.019502409, -0.065987766, 0.04270381, -0.040168054, -0.016212275, -0.0023130432, 0.032600902, 0.09827917, -0.057207577, -0.012723329, -0.08368353, 0.018104946, -0.028989475, 0.03731925, 0.088167675, 0.00947793, -0.01047794
-0.08591392, 0.08690999, -0.040528942, -0.043368854, -0.042225502, 0.116511576, 0.10223786, 0.06141381, -0.1472153, -0.04461501, -0.0188114, -0.11142807, 0.11407344, 0.07182624, 0.10779207, 0.10915054, 0.14436285, 0.059938826, 0.060503647, 0.009778194, 0.07951384, -0.16019444, -0.101570085, -0.031140491, -0.09174069, 0.14346841, 0.08162857, 0.059138183, -0.037314203, -0.037640363, 0.13838133, -0.12578245, 0.10974694, -0.05357828, 0.08423368, -0.12422128, 0.081204, 0.11907624, 0.055826027, 0.027220875, 0.11529277, 0.0041265655, 0.06493873, -0.11452109, 0.07511975, -0.07093366, 0.00288711, -0.07012992, -0.111493334, -0.059228744, 0.11280325, -0.16942695, -0.13571647, -0.007838346, -0.101051606, 0.1382787, -0.03647462, 0.11387258, -0.13829768, 0.14276482, 0.025864437, 0.05095301, 0.08027383, -0.019978689
0.0946187, -0.055472262, 0.11725492, 0.11938544, 0.0047837743, -0.05895706, 0.011011936, 0.020528473, 0.024614165, 0.108728655, 0.014768858, 0.13836607, 0.015026749, 0.054704558, -0.024450647, -0.113728486, -0.08818363, -0.072916985, 0.022585629, 0.085534394, -0.04282937, -0.08669467, -0.06402393, -0.05718534, -0.07309476, 0.031003892, 0.043078803, 0.09793728, 0.014606626, -0.09614211, -0.12936877, 0.12484303, 0.07755307, -0.0029871922, -0.060995128, -0.105314165, -0.065090686, -0.03985679, -0.06901211, -0.09633505, -0.11463935, 0.114374414, -0.091120444, 0.088344105, -0.08897092, -0.080204144, 0.08400645, 0.07053329, -0.112490006, 0.03303233, -0.12986828, -0.018193223, -0.035712965, 0.062966, 0.09574061, -0.007953275, -0.06868038, -0.06027691, 0.047151536, -0.07630918, 0.02587239, 0.03178309, 0.10690949, -0.0347238
-0.066033304, 0.101057224, -0.014052932, -0.058704413, -0.05092814, 0.08578361, -0.015025476, 0.063306876, -0.028001962, -0.029634718, -0.021241419, -0.063703656, 0.051761545, 0.051070143, 0.037920184, 0.050979596, 0.074290894, -0.03155716, 0.047422796, 0.0005998388, 0.06420909, -0.02712258, -0.0910657, -0.048701163, -0.06355114, -0.008160601, 0.024474759, 0.024236642, 0.01468664, 0.0053509753, 0.004139406, -0.020833895, 0.07732079, -0.07344635, 0.07650258, -0.036763202, 0.09296545, 0.029737404, -0.00842453, -0.027248122, 0.06272822, 0.060494754, 0.059004914, -0.105213635, 0.058547467, -0.05824882, 0.029524155, -0.04373562, 0.015942216, -0.03785213, -0.009704304, -0.05184637, 0.021608409, -0.025877533, 0.0002072473, 0.0010131474, -0.058825806, -0.006536017, 0.023847293, 0.040709674, 0.07874806, 0.011317688, -0.015614896, 0.09662836
0.029636825, -0.033459485, 0.086344756, 0.065151766, -0.041512977, -0.1125076, 0.05885306, 0.1021618, 0.07252385, 0.105928585, 0.025894118, 0.1418296, 0.05399186, 0.08645514, 0.097820915, -0.053217933, 0.038150296, 0.09854334, -0.00078559224, 0.06470054, 0.061842784, -0.028885733, -0.05189084, -0.11478589, -0.017150456, 0.1379735, 0.047831155, 0.111384146, 0.13113934, -0.040922478, -0.14516895, 0.12700339, 0.045968972, -0.044905446, -0.052154813, -0.07352147, -0.026719673, -0.0016179755, -0.11284807, -0.11487327, -0.10078465, 0.035162244, -0.11436701, 0.14923225, -0.081251636, 0.11008839, 0.046730693, 0.05266358, -0.03745357, 0.08434813, 0.051774785, -0.14088245, -0.121660806, 0.05342418, 0.03878686, -0.11698672, 0.09102129, -0.0888823, 0.13167693, 0.050622594, 0.07245976, 0.11073244, 0.032810528, -0.025835793
0.025876557, 0.027587423, 0.08429615, -0.14027311, -0.017037963, 0.1149034, 0.056755796, -0.008177349, 0.05859214, 0.03529358, 0.012121603, -0.03664019, 0.015043214, -0.14807929, 0.09944113, 0.1117583, 0.0992807, 0.11684772, 0.033132013, -0.07573311, 0.03736993, 0.037158262, 0.05920645, 0.053246927, -0.02198758, 0.15583521, -0.05130318, 0.061829705, -0.019721754, 0.0738688, 0.122399405, -0.11879828, 0.11691109, 0.11003012, 0.10435261, 0.018373057, 0.07670986, 0.10008135, 0.0604383, 0.06732063, 0.066560134, 0.12495516, 0.0825302, -0.08423294, 0.06307916, -0.11540811, 0.11692446, -0.1323488, 0.072211646, -0.124136016, 0.05538771, -0.011696753, 0.06316768, -0.05156563, 0.07214236, 0.09183104, -0.06629564, 0.052762274, -0.1596089, 0.061499786, 0.043623082, 0.04208628, -0.1276846, 0.081864245
-0.05786767, 0.0117866015, 0.04453465, 0.0038631621, 0.05781062, -0.03503719, -0.05012961, -0.013090526, -0.051235802, 0.0062047136, 0.036733527, 0.023275523, -0.057775423, -0.07970386, 0.08416638, -0.037861142, -0.10041291, 0.0930734, -0.0378801, 0.039915435, 0.036312215, 0.028319323, 0.027825182, 0.13053286, 0.05286531, -0.090488195, 0.013702017, 0.010542026, 0.053150162, 0.053322654, 0.08555489, 0.012907229, -0.101665266, 0.014898495, -0.11462393, -0.06389968, -0.03622991, 0.10099935, -0.079642676, -0.024267137, 0.012169048, -0.08822482, -0.04204662, 0.07015671, 0.06877396, 0.109245494, -0.048085466, 0.021922683, 0.046231404, -0.042484067, -0.12557472, 0.020249536, 0.028977988, -0.0121883685, 0.09012264, -0.042064767, 0.12712894, 0.044508852, 0.0087252045, 0.024963392, -0.06781072, -0.0074887737, 0.11149615, -0.044482667
0.1114213, -0.15533942, -0.000578665, 0.0899003, 0.09082467, -0.06636077, 0.11249247, 0.12689917, 0.14334705, 0.09855475, 0.13637926, 0.114763275, 0.07546836, 0.17305988, -0.032246746, -0.05172127, -0.025517588, 0.08045318, 0.11323426, 0.0823532, 0.057571057, 0.000544869, -0.045016497, -0.055183563, 0.056449965, 0.14261298, 0.104954444, 0.055196077, 0.13684987, 0.06643319, -0.047281027, 0.046555515, 0.06527672, -0.07425085, -0.080043785, -0.11517168, -0.041116875, -0.040489662, -0.05781552, -0.07062007, -0.07907624, 0.043987982, -0.020990845, 0.065517955, -0.120292775, -0.0040365374, 0.05547114, 0.116239496, -0.11487728, 0.14331879, 0.00082907436, -0.11474578, -0.059847616, 0.15800183, 0.15620409, -0.14119701, 0.06938136, 0.05307328, 0.05174796, -0.05316313, 0.10123169, 0.042461164, 0.018640243, -0.11433085
0.09633099, 0.042239368, 0.10400136, -0.02591111, 0.0029217561, 0.12139539, 0.04012593, 0.11585033, 0.09774541, 0.03639589, 0.048775304, 0.08795106, 0.025684591, 0.046722747, -0.003408427, 0.12531994, 0.008218575, -0.049963377, 0.07347276, -0.14049727, -0.053160876, -0.12297028, 0.10418082, 0.055214763, -0.1110042, 0.0034886433, -0.056016155, 0.08198434, 0.02966421, -0.059643462, 0.037820954, -0.09896947, 0.035520855, 0.092968985, 0.07649804, 0.14171366, 0.04357399, 0.024114978, -0.030157685, -0.11267366, 0.036412906, 0.058058906, 0.08672467, 0.0071880487, 0.07373394, -0.04915499, 0.04204806, -0.026604053, 0.061552044, -0.07808751, 0.06459628, 0.013389091, 0.09675652, 0.042839296, -0.025480304, 0.13362372, -0.14032531, 0.059519224, -0.120668225, -0.007054132, 0.033747826, -0.034084447, 0.056276113, 0.1268404
0.00048366038, 0.01648451, 0.011845566, -0.094442755, 0.06665515, 0.052248675, 0.1104811, 0.0985135, -0.0003579305, 0.053957213, -0.08568059, -0.00279048, 0.061790127, -0.08479388, 0.11916424, 0.09954318, 0.060093954, 0.043687668, 0.094361134, -0.11797653, 0.0027045154, -0.0566677, 0.036414623, 0.05420997, -0.083006255, 0.07670574, -0.048715156, 0.02011098, 0.05898381, -0.043487247, 0.021071795, -0.018062547, 0.041380662, 0.092434295, 0.017449316, 0.10605021, 0.07786356, 0.14326744, 0.03050916, -0.060251877, 0.033966567, 0.0712718, 0.022371728, 0.0071683754, 0.079490714, -0.06568137, 0.12483133, -0.06654926, 0.08256699, -0.13500753, 0.037839346, -0.03931127, -0.0015489804, 0.058998242, 0.10678019, 0.06311886, -0.062161908, 0.012877659, -0.06752383, 0.1127042, 0.11677583, 0.042275008, 0.13643572, 0.113308445
0.08006026, 0.09539027, 0.0042110393, -0.10366863, -0.10981967, 0.09577038, -0.12573327, 0.035344277, 0.07397104, -0.0759065, -0.12328129, -0.09825959, -0.098580584, 0.1235886, -0.10003831, -0.07393045, -0.07733872, 0.028242748, 0.06658627, 0.09528825, -0.096141174, 0.053935297, 0.1103197, 0.13303286, -0.024206227, -0.046237744, 0.05331593, -0.12669954, 0.033952516, 0.10454916, 0.089252844, -0.08957814, 0.091344744, 0.04446577, 0.0063669016, 0.1108458, 0.07059306, -0.103053555, 0.052222572, 0.11131056, 0.0105824405, 0.10319803, 0.05233437, 0.06791114, -0.082141414, -0.08845093, -0.027093418, -0.04569568, 0.10378633, 0.13740146, -0.10695552, 0.042124208, 0.10103962, -0.07313641, 0.013707855, 0.11272056, 0.055684444, 0.08401104, 0.053196687, -0.039024066, -0.02664585, -0.10799686, -0.052802138, 0.050004605
0.051282294, 0.035624, -0.07909305, 0.06678271, -0.0071784533, -0.03541345, -0.019412115, 0.050014682, 0.052994795, -0.065894164, -0.08379431, -0.042044356, 0.015277354, 0.07474071, -0.032646734, -0.096919514, -0.033722695, 0.04408767, 0.028572375, 0.024088785, -0.051661238, 0.0513949, -0.06375037, 0.001620302, -0.07184093, -0.0032334006, 0.023641216, -0.06088199, 0.06903008, 0.048916426, 0.014561975, -0.009973037, 0.12158633, -0.016865496, -0.06690255, -0.002238145, 0.00049090764, -0.016500678, -0.03407938, -0.075976506, 0.08327609, 0.0067627025, 0.05999922, 0.0647605, -0.10890044, -0.07135048, 0.09793246, -0.06283026, 0.074724555, 0.11983621, -0.08624911, 0.030584447, 0.050185986, 0.01976235, 0.10649945, 0.1097299, 0.005107714, 0.1009995, 0.07660003, -0.08386475, -0.05810857, -0.07706629, 0.043338276, 0.036674626
0.12686758, -0.07405288, 0.12252836, 0.08325554, -0.12076789, -0.063101605, 0.05203944, 0.14716977, 0.14583655, 0.04672616, 0.051998198, 0.094835296, 0.038232733, 0.050964616, -0.09151466, -0.09139385, -0.06860909, -0.09390832, 0.11156729, 0.13683024, -0.034636702, -0.14674161, -0.041657224, -0.09172129, -0.035284393, 0.090314925, 0.10632174, -0.026437683, 0.10337709, -0.088641725, -0.0264339, 0.094848365, 0.10072358, -0.14558136, -0.13187227, -0.09635388, -0.14911033, -0.15051723, -0.0877868, -0.042302027, -0.10335003, 0.11892179, -0.04313327, 0.109259605, -0.057331864, -0.16382729, 0.104285866, 0.14054736, -0.13026935, 0.1084733, -0.14394486, -0.13197762, -0.06503841, 0.14681847, 0.16359219, -0.03047291, -0.14019634, -0.053946577, 0.07038262, -0.027920093, 0.14168823, 0.09592768, 0.13323016, -0.1436564
0.07689997, -0.01053858, 0.14191197, 0.01886666, 0.052199315, 0.09776313, 0.02696043, 0.024515098, 0.1296244, 0.046230797, -0.08231335, 0.028676165, 0.02997576, -0.013181472, -0.049959112, -0.0452018, -0.040249046, 0.02364529, 0.062499292, -0.061908804, -0.05396659, 0.042346276, 0.03029561, 0.056623794, 0.07217999, 0.0034580159, -0.032446425, 0.115101494, 0.07223078, 0.059641227, 0.040702, -0.02331345, 0.09239297, 0.06731785, 0.054446176, 0.09355583, 0.1526471, 0.015052076, -0.033148028, -0.0619481, -0.043166667, 0.043130133, 0.12403492, 0.11465162, 0.10986706, -0.009164388, -0.0026106513, 0.09273693, 0.076065734, -0.052795343, -0.03975553, 0.035464946, 0.06672444, 0.06845963, 0.054673288, 0.08498625, -0.09693427, 0.02871828, -0.103343084, 0.033985153, 0.04967699, -0.119862586, -0.0074903616, 0.04602323
0.13779245, 0.05310938, 0.10417422, 0.11348414, -0.0053406027, 0.031431854, 0.015374948, 0.05908093, 0.09688608, 0.13358691, 0.023878902, 0.105925836, 0.08883396, 0.016800756, -0.026693594, -0.060534462, -0.08316928, 0.06145439, 0.0507718, -0.0009987609, -0.029373918, 0.01890035, 0.05053907, 0.08631972, -0.082058586, 0.0024034476, 0.06512511, -0.06123922, 0.03710563, 0.087913916, 0.12759367, 0.040397193, 0.05647984, 0.008496451, -0.036030777, 0.12700216, 0.006972212, -0.14898628, -0.016601091, -0.08167936, 0.043079298, 0.025955236, 0.013855117, 0.07889102, -0.014665484, 0.03193272, 0.04196848, 0.067116655, 0.11121751, 0.09025176, -0.038831927, 0.112274654, 0.034204274, -0.0039479476, 0.11810023, 0.11963568, 0.00055455446, 0.06398123, 0.1272172, 0.053943597, 0.057018887, 0.06092477, 0.10713405, 0.07510072
0.1005158, -0.11626133, 0.1016927, 0.14355555, 0.014295271, -0.0739482, 0.10426676, 0.1479919, 0.09543728, 0.09548786, 0.05639168, 0.14278662, 0.14616407, 0.09758904, -0.05939686, -0.030453064, -0.07816678, 0.060170475, 0.04321407, 0.08444712, -0.038259745, -0.0956033, -0.11179444, -0.011804366, -0.029074946, 0.12831156, 0.11196121, 0.06422464, 0.061463308, 0.013837357, -0.03159774, 0.039109062, 0.050205126, 0.009895065, -0.0524917, -0.027960226, -0.09832037, -0.047902998, -0.06635588, -0.029110901, -0.03441561, 0.057936817, -0.099967085, 0.092384435, -0.09835449, -0.06444606, 0.13390817, 0.15701643, -0.09368004, 0.10781659, -0.06817947, -0.08582534, 0.02552959, 0.14075775, 0.035985637, -0.08085098, 0.10804758, 0.021265285, 0.06587472, -0.0076849945, 0.12549086, 0.07944392, 0.09856509, -0.03024578
-0.015741449, 0.0044855075, -0.015686765, -0.020992067, 0.027500648, -0.00044768915, 0.10135323, -0.116979636, -0.019465573, 0.010058602, -0.008782268, -0.0060984287, -0.061075952, 0.011352106, 0.036394645, 0.10836677, 0.085634604, 0.020239415, -0.024814017, 0.002615648, 0.060518384, 0.028771987, 0.10470817, 0.13226168, 0.13264121, -0.08603467, -0.014887428, 0.08464615, -0.012607585, 0.021618472, 0.079157926, 0.07093857, -0.037772756, 0.0746596, 0.013973028, 0.12604804, 0.12022383, 0.123765886, 0.08866759, 0.027736226, 0.083277695, -0.08847546, 0.02244272, -0.090760164, 0.05428518, 0.10467687, -0.027540274, 0.07532558, 0.0833767, 0.088995904, 0.09212649, 0.1012259, 0.12978116, -0.023992235, 0.015537108, -0.016864209, 0.0801965, 0.07151221, 0.04777099, -0.011450151, -0.12656496, -0.03838908, 0.056025654, -0.008591432
-0.0018333227, -0.04728447, 0.12029232, -0.02302715, 0.037190903, 0.068481386, 0.0050750994, -0.022544764, 0.043784134, 0.064085156, 0.0662966, 0.1473865, 0.08732344, -0.11344063, 0.033694554, 0.09519886, 0.00017035363, -0.11995527, -0.033010326, 0.010944066, -0.021045618, -0.020009652, 0.07113569, 0.03906205, 0.07525016, 0.04965901, -0.13990624, 0.08597416, -0.08290458, 0.07589425, 0.008964445, -0.016755665, -0.04256198, -0.091882944, 0.12505445, -0.011052756, 0.10143791, 0.06597585, 0.11059122, 0.07403659, 0.06423573, -0.009967083, 0.050530337, -0.052802313, 0.080148436, 0.08052642, -0.10639944, 0.01776329, -0.12339884, -0.108876415, 0.06727001, 0.050624683, -0.06403335, -0.10971589, -0.089761466, -0.031552993, 0.008324105, -0.115381725, -0.04968658, -0.017455913, 0.053325992, 0.017690219, 0.055556796, 0.014986839
-0.047908388, 0.11993291, -0.095786035, -0.037759095, -0.0072065624, 0.14276773, 0.08965576, -0.10406609, -0.112141944, 0.11010019, 0.086289465, 0.0725208, -0.1235281, 0.074336484, 0.07458858, -0.113426454, 0.070673645, 0.11107324, -0.081603214, 0.077544816, 0.1639895, 0.06878831, 0.07288964, -0.022076607, 0.17424771, 0.113623425, 0.10741784, -0.16655293, -0.021385824, 0.13416667, 0.013441934, 0.067541555, 0.09134322, 0.015040002, -0.09546323, 0.006459923, 0.16695154, -0.07409229, 0.14003271, 0.033768117, -0.06674317, -0.035752703, 0.00962977, -0.059461392, 0.0044447277, 0.1120743, 0.06756231, -0.08271346, 0.11615708, 0.07879092, 0.010434561, -0.04858127, -0.121371366, -0.12672593, 0.11833878, 0.0629217, 0.09130946, 0.10089224, -0.027133623, 0.17314947, -0.037381046, 0.09283692, -0.14319262, 0.00019995742
-0.022654397, 0.10735528, -0.05257654, -0.084301114, 0.053198215, 0.031505838, 0.07076532, 0.043156672, 0.07957904, 0.065979905, 0.0030342548, -0.09114892, 0.044326015, 0.103006616, 0.012896383, 0.0456219, 0.041859087, 0.063889995, 0.063295186, 0.02183927, 0.088899076, 0.080412455, 0.013759448, 0.086175784, 0.048773907, 0.08643744, 0.039612107, -0.016546687, 0.03909653, 0.056567032, 0.05451395, -0.016573934, 0.084864266, 0.04227292, 0.056326166, 0.09127233, 0.06362937, 0.027717048, 0.071783535, 0.04223243, 0.11031488, 0.08597936, 0.038234897, 0.06862561, -0.03471989, -0.032316312, 0.10373165, -0.11737028, 0.05044689, 0.0364928, 0.08732532, 0.061231498, 0.08896964, 0.008249767, 0.0046472764, 0.115830675, 0.050176468, 0.0809458, -0.049181927, 0.13826749, 0.021099094, -0.03082638, 0.05225319, 0.06551923
0.10891377, 0.052887358, 0.037899863, 0.12632254, 0.047090307, 0.053661782, 0.05757245, -0.04058353, 0.0599806, 0.0393368, -0.109775215, 0.06301354, 0.0005427175, -0.085676126, 0.13759159, 0.070924364, 0.07458178, 0.045117322, 0.03606375, -0.100192934, 0.05373026, 0.022067271, 0.07179337, 0.017957475, 0.11539055, 0.04969735, -0.047560036, 0.043898158, -0.0036937648, -0.019934561, 0.13469486, 0.10898187, 0.020489525, 0.11116247, 0.013885673, 0.099675156, 0.055816833, 0.05344232, 0.05269311, 0.030080425, 0.035770617, 0.07175155, 0.102998845, 0.07724527, 0.05145992, 0.08256761, 0.020516418, 0.05817587, 0.044299833, -0.16244957, -0.037592143, 0.05134489, -0.0102427695, 0.006891921, 0.06085556, 0.08955671, -0.037599467, -0.06526503, 0.066108845, 0.08714331, 0.042544317, -0.07784923, 0.04947625, 0.061918166
0.046525475, 0.09270521, 0.02181075, 0.10543829, 0.078277275, 0.06981912, 0.09510881, 0.015979296, -0.0024245, -0.08719897, 0.06856311, 0.09793672, 0.08167515, 0.10188859, 0.06277221, 0.07458044, 0.048565004, 0.052557826, 0.038701423, -0.020615676, 0.024712544, -0.07798187, -0.034084786, -0.025120463, -0.022250779, 0.07702466, -0.036695495, 0.025392974, 0.0088397125, -0.08472016, 0.018376708, 0.08638627, 0.0552213, 0.10063625, -0.06001467, -0.03968127, -0.050318446, 0.0430875, -0.08495907, -0.021707727, 0.054714702, 0.049535375, -0.09561708, 0.010343805, 0.018149693, -0.007935282, 0.1041861, 0.10345126, 0.1040918, -0.033357166, -0.022959452, -0.04010126, -0.044180688, 0.0883767, 0.01716704, -0.038384426, 0.03417878, -0.086235784, 0.15316406, 0.016759692, 0.08051363, 0.014366908, 0.0687158, -0.037804183
-0.13083339, 0.06588037, -0.06555246, -0.041103248, -0.07045738, 0.08442764, 0.034548577, -0.065221235, -0.08152281, 0.12392394, 0.05263333, 0.04547206, -0.06107049, 0.09455697, 0.08419301, -0.08365356, 0.08790176, 0.04259705, -0.012968496, 0.066984214, 0.10158152, 0.0556118, 0.044657864, -0.09106402, 0.12670578, 0.121035695, 0.12867002, -0.08138723, -0.03637028, 0.036155086, -0.086200625, 0.028817791, 0.09585912, -0.12513775, -0.06405711, -0.0544679, 0.103427105, -0.061145168, 0.095961764, 0.11522393, -0.033739492, -0.1331141, -0.09747385, -0.09259219, -0.07241639, 0.131862, 0.13796149, -0.05178843, 0.014165488, 0.13232651, 0.110182695, -0.089474104, -0.021536257, -0.087739795, 0.02577824, -0.056057833, 0.13258569, 0.03590767, -0.08969583, 0.11422328, 0.008221394, 0.089860454, -0.05438386, -0.068366654
0.06800958, -0.13081475, 0.12396199, 0.038380414, 0.046558533, 0.034986626, 0.09501516, 0.04662076, 0.1358771, 0.15639639, 0.036321837, 0.07170702, -0.058004607, 0.03472442, -0.09448925, 0.12656106, 0.09909631, -0.011116518, 0.05669931, 0.013672231, -0.067080274, 0.073955834, 0.08319445, 0.06673956, 0.09101448, -0.028816998, 0.043718673, 0.13056232, 0.01009508, 0.10232463, 0.031669002, -0.092921585, 0.005532929, 0.057323556, 0.035453804, 0.07669338, 0.09872904, -0.0039085033, 0.019009683, 0.022991018, 0.048775326, -0.035302818, 0.06076611, 0.056939524, 0.07955677, 0.039441932, -0.09399374, 0.07918841, -0.03610577, 0.01799622, 0.057227395, 0.08168087, 0.044269986, 0.032199528, -0.0059750006, 0.03430693, -0.0633725, 0.049660012, -0.029647736, -0.09788973, -0.03612235, -0.10520862, 0.09297772, 0.06549163
0.019849408, -0.010205538, -0.003007358, 0.11672632, 0.08210845, -0.14308281, -0.0125134075, 0.064684175, 0.057444345, 0.014035991, 0.029926015, -0.04307359, -0.024168259, 0.056283947, 0.049351804, 0.08366263, -0.045194108, 0.07756114, 0.035597444, 0.08793748, 0.05927472, 0.017443385, 0.013651707, -0.056936033, 0.048578337, -0.028120741, 0.12671179, 0.0883235, 0.033762343, 0.10707804, -0.06746648, 0.10439109, -0.00074126775, -0.030000338, 0.023238277, -0.067246154, -0.08543313, -0.08666057, 0.076779544, 0.06268395, 0.08868996, 0.02694582, -0.018159514, 0.16017623, -0.06860213, 0.10085114, -0.019520247, 0.14501399, -0.04428826, 0.048860244, 0.03000514, 0.0021853906, 0.042368792, 0.1417728, 0.017432341, -0.07501993, 0.054877874, -0.0012793146, 0.076713406, -0.017537998, 0.0028615622, 0.077391356, 0.1379839, -0.049321588
0.12286386, -0.008380191, 0.039331105, 0.0050203465, 0.10113915, -0.10938007, -0.13355958, 0.08188504, 0.10677442, 0.039204765, 0.060039666, 0.029200109, 0.029950235, 0.044728838, -0.076089956, -0.12034459, -0.116181985, -0.034994382, 0.13930169, 0.045600027, -0.0769366, 0.036999755, 0.056955308, 0.032841656, -0.09559558, -0.050241325, 0.13030647, -0.03682881, 0.10755689, 0.0075317835, 0.047998514, 0.0153368395, 0.03942055, 0.09764833, -0.015524627, 0.14460988, -0.046530154, -0.044856984, -0.08675144, -0.08804376, 0.051110636, 0.053539526, 0.1050409, 0.12664221, -0.054172274, -0.13045894, 0.0072734915, 0.09915026, 0.034156404, 0.11518386, -0.099229865, 0.12165539, 0.07742881, 0.07792639, 0.103315584, 0.12160862, -0.012015542, 0.06605133, 0.10627193, -0.097252555, 0.1083278, -0.022271419, 0.13405667, 0.09452385
0.14710167, -0.050660346, 0.09574916, 0.13935213, 0.09743058, -0.077586554, -0.081579186, 0.0071066767, 0.13084671, 0.02130714, -8.150567e-05, 0.08298978, -0.04491411, 0.0008544849, -0.074696474, 0.03448843, 0.0015515505, -0.08542719, -0.14726055, 0.027397057, -0.12340726, 0.07817602, 0.11915411, 0.100544274, 0.09663516, -0.023583004, 0.058442954, 0.1258552, 0.056701556, 0.13584414, -0.005860627, -0.025253912, -0.09934769, -0.1025804, 0.036377717, 0.08115008, 0.029844964, -0.026863536, 0.098348655, 0.10052762, 0.037892774, -0.12403226, 0.099866115, 0.023285346, 0.059649676, 0.057841416, -0.021188714, 0.14102057, -0.00938956, 0.1347844, 0.07607218, 0.036664557, 0.050494216, 0.007273287, -0.015849689, -0.013281954, 0.13716584, 0.04882625, 0.0760504, -0.027028985, -0.04339108, -0.0933096, 0.10036297, 0.042754475
0.08806177, 0.0719711, 0.025491865, 0.12591419, 0.07659113, -0.09935288, 0.024897214, -0.0032456054, 0.10639152, 0.026081469, 0.11413337, 0.06940415, 0.10030118, 0.106807835, 0.038438562, -0.039927457, 0.014148953, 0.028780041, 0.01648277, 0.009429823, 0.034411296, 0.09703487, 0.047027003, -0.06910602, 0.045407176, 0.10166883, -0.073648766, 0.08530039, -0.10357817, -0.0515904, 0.07007774, 0.053308826, 0.032924186, -0.07462654, -0.033054274, -0.09992262, 0.030009162, 0.08561989, -0.08843577, -0.041726846, -0.028723333, 0.019107535, -0.0872036, 0.10978995, -0.029099667, 0.041759547, 0.10087834, 0.044138312, 0.09132049, 0.050345756, 0.036282133, 0.05730915, -0.10941178, -0.0050573256, 0.0670178, -0.103106536, 0.10921995, -0.11942585, 0.044684924, 0.0065499446, 0.07819701, 0.09461177, -0.025610473, 0.04166622
-0.007305491, -0.008512259, -0.038328655, -0.035126194, -0.0564111, -0.013645857, -0.07825592, 0.01942578, -0.03285236, 0.009533061, -0.0697157, -0.022713562, -0.05324629, 0.09434183, 0.036973927, 0.044137415, -0.009461471, -0.013809817, -0.040794104, 0.0689108, 0.04722081, 0.02162755, -0.092203245, -0.01673664, 0.08962821, -0.08130251, 0.10069295, -0.060761478, 0.024020145, 0.047668092, -0.027024038, -0.068919756, -0.033800066, -0.016959742, 0.025695086, 0.012292055, 0.009499596, -0.03148428, 0.052672703, 0.018486377, 0.025289316, 0.029452417, 0.03916193, -0.013023114, -0.022781385, -0.054975092, 0.0048535718, 0.07659863, -0.07262665, 0.025548426, -0.042804312, -0.039664064, 0.0058589247, 0.018997323, -0.0945572, -0.07697585, 0.112082474, -0.01418973, 0.09166994, -0.07103208, -0.05117766, 0.0075168023, 0.096047424, -0.061253633
-0.032385334, 0.08849826, -0.06643746, -0.06576044, -0.090199366, 0.076603, 0.08069017, -0.04766625, -0.12116209, 0.1265516, 0.041185215, 0.028033787, -0.10869885, 0.1274182, 0.063393235, -0.03327313, 0.04438118, 0.10375972, -0.1255603, 0.102509946, 0.025394823, 0.092138626, 0.043462455, -0.10569185, 0.07364026, 0.14868985, 0.11249829, -0.054564714, -0.12806687, 0.13564757, -0.035223152, 0.015026719, 0.069061935, -0.013743676, -0.041192587, -0.052474584, 0.029696073, -0.033086784, 0.026163856, 0.06274266, -0.062113896, -0.043791134, -0.048367564, -0.03937183, -0.15426072, 0.010600925, 0.12790513, -0.043709904, 0.06911884, 0.091608025, 0.10592379, -0.06058499, -0.0073198318, -0.086681075, 0.028579645, 0.024433857, 0.108790495, 0.10020388, -0.07503126, 0.077825226, -0.11928717, 0.07988286, -0.10796273, -0.020844096
-0.032276902, 0.058135107, -0.017870674, -0.055597804, -0.013425997, 0.06775479, 0.017325459, -0.11873941, -0.12892953, 0.042059295, 0.025559144, 0.040733702, -0.0988226, 0.0073011313, 0.05125298, -0.10709761, 0.12371848, 0.0991917, -0.060234062, 0.10352474, 0.06367349, 0.078070834, 0.11396413, -0.020458002, 0.10780648, 0.044545848, 0.049911384, -0.029873349, -0.11268532, 0.053856596, -0.017671784, 0.16709968, 0.05633619, -0.069465354, -0.093199044, -0.018484173, -0.0025054472, 0.072470054, 0.12130715, 0.02082936, -0.07427611, -0.073539846, -0.112502635, -0.05178866, -0.0053790566, 0.04692118, 0.0306362, -0.11064754, 0.11409782, 0.049386732, 0.013140554, -0.11381955, -0.10792751, -0.013171276, 0.046794668, -0.03902984, 0.032723278, 0.0025182248, -0.022303315, 0.10822481, -0.09841757, 0.09734245, -0.03983198, -0.089100376
0.123574585, -0.04497273, 0.15154971, 0.1071287, 0.1030215, -0.10448333, 0.090331115, 0.100827776, 0.1421225, 0.10313838, 0.10834032, 0.1391782, 0.11361883, 0.035033222, -0.094659664, -0.061305046, -0.11872265, -0.05338515, 0.14697118, 0.08695162, -0.060657736, -0.11775987, -0.05570853, -0.07155498, -0.14667317, 0.109048955, 0.09707182, 0.06480745, 0.042129006, -0.056882404, -0.13628036, 0.09857942, 0.06590388, 0.021387119, -0.041134898, -0.09490613, -0.12194693, -0.04534394, -0.16329004, -0.06597882, -0.051080994, 0.059599094, -0.12711234, 0.055123173, -0.0717747, -0.12166101, 0.057404403, 0.14799859, -0.03623861, 0.15097497, -0.04637436, -0.14109625, -0.08748191, 0.14038202, 0.03414955, -0.06514325, -0.07239006, -0.14642651, 0.038247492, -0.05550187, 0.11026509, 0.11700767, 0.071751155, -0.080686726
0.0041129645, 0.0038951116, -0.034423463, -0.038309596, -0.12844132, 0.02333819, 0.04245865, 0.018481573, -0.012973754, -0.02609348, -0.0043881284, -0.101996236, 0.067305475, 0.058038518, 0.08834454, 0.05082711, 0.10926059, -0.023728529, 0.031834815, -5.277132e-06, 0.096209735, -0.07201229, -0.09038449, -0.03659612, -0.00844439, 0.020549083, 0.068585925, 0.07585972, -0.035886798, -0.03960009, 0.08373722, -0.05132602, 0.09459833, -0.07424873, 0.10612772, 0.039723516, 0.023823049, 0.088368535, 0.050717648, 0.111871295, 0.07437237, -0.010680598, 0.028465282, -0.02230202, -0.012848376, -0.00456133, 0.0039812345, -0.042175688, -0.010142724, -0.04868605, 0.00062132353, -0.07197459, 0.10007688, 0.034764197, -0.016691184, -0.031209253, 0.022995824, 0.004879979, -0.034385208, 0.101280406, 0.08916148, 0.033320166, 0.026780529, -0.009421186
0.04179824, 0.09442105, 0.08776506, -0.03793701, -0.08891347, 0.07604417, 0.01066033, 0.026925683, 0.115942545, 0.029021807, -0.08306589, -0.03352644, 0.07136538, -0.11976213, -0.0011499473, 0.042666197, 0.010908299, 0.027626984, 0.13603914, -0.07439826, 0.02000003, -0.14502329, 0.037050545, 0.057108503, -0.11778622, 0.099931344, -0.00018645615, -0.11565302, 0.08219031, -0.08092003, 0.052503772, -0.15195699, 0.045112398, 0.01844434, 0.015712561, 0.09711624, 0.0886354, 0.10640313, 0.06906002, -0.11094959, 0.08082307, 0.060911037, 0.088168986, 0.03571256, 0.06238231, -0.029279578, 0.054076403, -0.095624745, 0.071931176, -0.06597297, -0.049541086, -0.108730495, 0.007448061, -0.05796855, 0.081925124, 0.13059333, -0.03400968, 0.12000019, -0.13878338, 0.0983702, 0.054036632, -0.041069064, -0.0938206, 0.0819782
-0.00888954, 0.07486485, -0.053030785, 0.05018666, -0.054516304, 0.09001768, 0.08995396, 0.13190964, 0.011736057, 0.06171664, 0.104583815, 0.045897275, 0.13382883, 0.07512171, 0.0080971625, 0.03230647, 0.09901403, 0.035719667, 0.063048586, -0.02901261, 0.10827312, -0.08045929, -0.09711563, -0.13194725, -0.110566355, 0.07131107, 0.019107131, 0.08605051, 0.0010627711, -0.008191186, -0.005156853, -0.03366652, 0.12868015, -0.045024157, 0.03021605, -0.068095446, -0.0055932314, 0.03288847, 0.022789082, -0.012712717, 0.04867888, 0.14510112, -0.013821245, -0.017837372, -0.01091334, -0.1241858, 0.09831875, -0.07954251, -0.13163288, 0.046831094, 0.06681081, -0.10036167, -0.07131718, 0.10035393, 0.020281516, 0.017824043, -0.026498735, 0.096892394, -0.003584917, 0.07338503, 0.023450501, 0.07319049, 0.05080473, -0.016164145
-0.09648286, 0.14520045, -0.14277633, -0.114918, -0.10949924, 0.11148017, 0.045626827, 0.1337783, -0.0680882, -0.03285617, -0.14282756, -0.110045485, 0.1298434, 0.09288603, 0.023111306, 0.053690463, 0.071238674, -0.12109275, 0.042713843, -0.109844126, 0.0982165, -0.10159639, -0.074694015, -0.04019476, -0.03440707, 0.07970871, -0.10807815, 0.13224605, -0.049434394, -0.029556584, 0.07759302, -0.108078815, 0.04970581, -0.048505284, 0.14998809, -0.061958265, 0.062177677, 0.13227065, 0.08356964, 0.056474686, 0.135585, 0.0050417986, 0.12674905, -0.10260791, 0.12868345, -0.01696836, -0.1339804, -0.10386873, -0.053669013, -0.107138164, 0.100452185, -0.060875595, -0.08082793, 0.16467126, -0.0652892, 0.095482, -0.107555486, 0.05625574, -0.08959897, 0.07294578, 0.07217935, 0.06449744, 0.035205282, 0.06791025
0.0712858, -0.12961873, -0.0364681, 0.06734548, -0.047739618, -0.077124186, 0.14912838, 0.14544055, 0.11320931, 0.044801034, 0.12818103, 0.10945105, 0.10562883, 0.102546915, -0.065244876, -0.0911356, 0.039610155, -0.055545133, 0.12378718, 0.059661683, -0.084626086, -0.13340673, -0.09624252, -0.14500947, -0.046720292, 0.069904685, 0.11643224, 0.0600166, 0.14617212, -0.037559725, -0.091585524, 0.043435577, 0.10173638, -0.050570313, -0.066855095, -0.1345969, -0.021307986, -0.112456456, -0.015850212, -0.07689863, -0.018283788, 0.015689686, -0.06475693, 0.04878662, -0.034718927, -0.06302732, 0.034252327, 0.030408623, -0.08434376, 0.12889338, 0.00996581, -0.07806859, -0.07066788, 0.044658326, -0.03007634, -0.11055554, -0.11918377, 0.031091228, -0.005268888, -0.031884674, 0.1136112, 0.11038144, 0.07390231, -0.08487301
-0.066371426, 0.10122222, 0.084257014, 0.08366664, 0.14655276, -0.1427757, -0.106692016, -0.08799498, -0.14499001, -0.055519607, -0.010503205, 0.09356856, -0.13021319, -0.099875994, 0.04539735, -0.15291657, -0.1202403, 0.09663736, -0.1469518, -0.12573592, 0.13717866, 0.08903145, 0.04034464, 0.09139803, 0.10515826, -0.11952455, -0.12842013, 0.06576014, -0.13493115, -0.11968894, 0.02865971, 0.14834978, -0.07099478, 0.05292504, -0.052733444, -0.14465606, -0.016949473, 0.11172482, -0.13551569, -0.04547765, 0.15154774, -0.11482555, -0.044098973, 0.08410924, 0.13592753, 0.16292755, -0.064607926, 0.12804502, 0.12369515, -0.09939932, -0.09457632, 0.07984917, -0.15997139, 0.06524792, 0.022410164, -0.116955206, 0.04424965, -0.06817083, 0.05522514, 0.06613378, -0.14654869, 0.052361283, 0.04615557, 0.030711722
0.03653106, -0.019688886, 0.0479927, 0.053012904, 0.07581326, 0.12328154, 0.05629392, 0.008480964, 0.085487954, 0.09735288, 0.02564138, 0.07565279, 0.015368566, -0.08086263, -0.011872179, 0.09937467, 0.0883588, -0.096662365, 0.042329196, -0.10704678, -0.056060422, -0.00013666705, 0.10735009, 0.0073767267, 0.08758723, -0.07604735, -0.045476437, 0.10422774, -0.08257171, 0.070685826, -0.10489001, -0.08662902, -0.052288488, -0.054147083, 0.09988259, 0.06086278, 0.0020871852, 0.12101971, 0.04410106, 0.08738314, -0.051488657, -0.06834922, 0.10734965, -0.030574517, 0.047282323, 0.07533604, -0.07152647, 0.06439057, -0.030056288, 0.0100462, 0.0548066, 0.014611985, 0.0153584145, 0.0045813117, -0.12726074, -0.03613952, -0.050974198, -0.10841535, -0.057554234, -0.09753109, 0.0003049757, -0.020743757, -0.02910292, 0.05829737
0.01380775, 0.07953184, 0.019041264, -0.12174536, -0.033265922, 0.021267477, -0.11000732, 0.0294562, 0.13733709, -0.039894503, -0.07081446, -0.14250866, 0.09105826, 0.13358593, -0.031155966, 0.103483915, 0.011651814, 0.03081738, 0.0809167, 0.017022409, -0.06699379, -0.041668758, -0.005787806, 0.14153413, -0.012284939, -0.012020298, 0.028328113, -0.031984955, 0.043197095, 0.08685457, 0.039413586, -0.04962849, 0.11390022, 0.1277665, 0.02940823, 0.10483742, 0.1395138, -0.04328217, 0.06230224, 0.032037284, 0.034212053, 0.08456473, 0.12456704, 0.023973238, 0.020725936, -0.04674918, 0.015821705, -0.12606153, 0.095778115, -0.084437475, -0.0079166265, 0.04940912, 0.100571156, 0.06859597, 0.06384724, 0.06316362, -0.04886793, 0.09518825, -0.029726185, 0.017553998, 0.00310734, -0.000417961, 0.0031564771, 0.03125874
0.02319109, -0.025315788, -0.083136775, -0.028979339, -0.050289195, -0.08148762, -0.07391507, 0.013548788, -0.010228471, -0.025526294, -0.04587552, -0.099068545, -0.061903033, 0.066888064, -0.00010344233, 0.09068838, -0.019323185, -0.013768734, -0.010327006, 0.032276012, -0.049124025, 0.029193413, 0.003585981, -0.036697377, 0.029358776, -0.09321919, 0.09565548, -0.025270551, 0.020266054, -0.014413585, 0.059193254, -0.046276335, -0.017575635, -0.08162578, 0.019200748, -0.038224902, -0.065264426, -0.04290832, 0.029838057, 0.07494857, -0.007689579, -0.06360066, 0.07846488, -0.01708999, -0.07387862, 0.011239357, -0.062227163, 0.04132338, -0.025435956, -0.004140266, -0.08012049, -0.026116375, 0.042340048, 0.03241862, -0.01610936, -0.05468365, 0.00925555, -0.011124334, 0.09409147, -0.037424296, -0.027558688, -0.027313037, 0.046556808, -0.09200088
0.07152762, -0.070242465, -0.086250626, 0.10723594, 0.117207386, -0.097766645, -0.08637065, 0.11810071, -0.06956476, -0.09054908, -0.014547243, -0.030892516, 0.10045528, 0.09198631, -0.10038147, 0.11039418, -0.057252858, -0.02977339, -0.01912851, 0.041989755, -0.07266984, 0.09138057, -0.085453145, 0.09803512, 0.08041653, -0.10384341, 0.06430657, -0.018647686, 0.11642644, 0.069235586, -0.088111416, 0.026017463, -0.018313881, -0.10375269, 0.07567997, 0.03127693, -0.13432452, -0.06764266, 0.086537436, 0.099085525, 0.09139782, -0.03204198, 0.001483052, 0.09244893, -0.055606768, 0.033323307, -0.06996699, 0.08126386, -0.059491172, 0.026310377, -0.12457931, 0.1278456, 0.10063636, 0.13004208, -0.08858746, -0.1262065, 0.04154696, 0.05178119, 0.079449035, -0.088160306, -0.064690135, 0.013058052, 0.058620453, -0.1278276
0.011848662, -0.1018814, -0.117379755, 0.04333285, -0.05241963, -0.077764966, 0.11916595, 0.100349694, -0.003999896, 0.07911968, 0.017453535, 0.06720343, 0.097234115, 0.10252335, -0.008031362, 0.116058566, 0.07868543, 0.088414714, -0.045904517, 0.14625923, 0.010192308, 0.12532382, -0.021400187, -0.015733715, 0.105033, -0.0076746363, 0.08845771, -0.0054967725, 0.11408455, 0.13182226, -0.11290189, 0.0125654, 0.09220416, -0.06957856, 0.09656867, -0.07526272, -0.04538558, -0.11336347, 0.06703304, 0.05438231, -0.088751726, -0.030420441, -0.057166405, -0.0013034286, -0.072321504, 0.06515031, 0.03983556, 0.054742243, -0.053403273, 0.10022773, 0.11227678, -0.058198426, 0.06271124, 0.036132593, -0.053507607, -0.075613245, 0.06970869, 0.10191697, 0.067208745, 0.03994451, 0.023554381, 0.040200744, 0.032573607, -0.10719785
0.049202554, 0.04540907, -0.11565226, -0.005750956, -0.10305395, -0.10619252, -0.08121165, 0.0056175864, -0.028144164, -0.05521533, -0.033082865, -0.10485597, -0.084403455, 0.023059966, -0.03799208, 0.009058692, -0.096481, -0.08727681, 0.00029021304, 0.080199555, -0.030859893, -0.032372955, -0.07469857, 0.034332775, -0.025635283, -0.09286888, 0.057053857, -0.085349746, 0.0042010387, 0.027250325, 0.054543715, -0.043271016, 0.059084944, 0.025929745, 0.04678067, 0.08815034, -0.04968162, -0.07137889, -0.01745719, 0.08011814, 0.09863716, 0.0265993, 0.08862567, 0.013555376, -0.11151512, -0.0041538323, 0.0040648826, -0.08747991, -0.024563769, 0.048001535, -0.11126393, -0.025682874, 0.091799736, 0.058507275, -0.038616624, -0.040104695, 0.055441123, 0.05375892, 0.0117566595, -6.882471e-05, -0.019359665, -0.050636496, -0.0021758727, -0.12085976
0.055887345, 0.10305992, 0.11394893, 0.04842536, 0.040769953, 0.043898877, -0.018213196, -0.07950449, 0.12518917, 0.031551894, 0.01884568, 0.06565573, -0.04383609, -0.09209274, -0.07054548, 0.025973503, -0.07806735, 0.033524796, 0.04540122, -0.10901528, -0.061880395, 0.12073146, 0.14004084, 0.09774736, 0.055863198, -0.044517368, -0.061280925, 0.034695067, -0.015462256, 0.03297334, -0.07340816, -0.027426736, -0.056113414, 0.059065342, 0.059475057, 0.1101154, 0.08811066, 0.005346068, -0.022591004, -0.05338206, -0.08288836, -0.02358985, 0.032835733, 0.08912715, 0.08489632, 0.1433696, -0.007972185, 0.039116222, 0.085665755, -0.026201041, -0.055027302, 0.11313709, 0.042121198, -0.13496533, 0.018077878, 0.108984955, -0.14001772, -0.12854543, -0.028621957, -0.046147276, -0.044514496, -0.108165674, -0.09131068, 0.033383198
0.13109219, -0.03541428, -0.08405224, -0.11339073, -0.10236822, -0.039378986, -0.11430773, 0.1025282, -0.013453757, -0.0036106876, -0.093244664, -0.024239386, -0.14026389, 0.10992735, -0.115755305, 0.034730647, -0.06763406, -0.031577874, -0.14146264, 0.08138421, -0.12366687, 0.15763226, -0.10612798, 0.02259012, 0.10275984, -0.03653552, 0.13445832, -0.15070136, 0.11097413, 0.0920531, -0.086615585, -0.044721805, -0.02428176, -0.11851119, 0.049095955, 0.041648876, -0.08425503, -0.13814057, 0.11121072, 0.12089718, 0.11318197, -0.019074336, 0.06349454, -0.045480054, -0.12623452, -0.13052991, -0.032735817, 0.15654026, -0.10802374, 0.092972524, 0.0010302622, 0.13723932, 0.06262889, 0.1475533, -0.08923783, -0.10506603, 0.117882796, 0.14234455, 0.14624572, -0.08296277, -0.14228123, -0.044827804, 0.10807505, -0.07626951
0.012198938, -0.05945345, 0.013096, -0.033616353, 0.109131016, 0.05994522, 0.060513526, 0.057819355, -0.012331316, 0.04838981, -0.046971366, 0.012700514, 0.026107, -0.06675893, 0.008153491, 0.061964083, 0.019425472, -0.11082652, 0.145458, -0.077072516, -0.019238953, -0.017266648, -0.06468449, 0.02535813, 0.011471941, 0.06259806, -0.068679616, 0.053157132, -0.11314486, 0.073920846, 0.044669133, -0.06473551, 0.07909962, -0.0352581, 0.062205914, 0.10526454, 0.12558325, 0.1464008, 0.03348285, 0.046546854, -0.002512498, 0.015264432, 0.086636975, -0.031094072, 0.05174335, -0.0015731564, -0.105509385, 0.06847221, -0.08376393, -0.10085023, 0.10598805, -0.033640824, 0.019676441, -0.052738234, -0.052827165, 0.063710384, -0.0625528, -0.04920755, -0.14234518, 0.12110322, 0.11607488, 0.09038347, 0.04300403, 0.078505844
0.036011044, 0.06854718, 0.008717966, 0.12686746, 0.09075222, 0.006774026, 0.016898876, 0.00415122, -0.07475304, -0.009587049, -0.0722995, 0.03228595, 0.03645236, 0.004645966, 0.037153047, 0.010389287, -0.019213988, -0.037779637, 0.057818595, 0.053984676, 0.059524294, -0.010199398, 0.0042059817, 0.007964671, 0.03792857, 0.022351284, -0.0024215484, 0.008062924, -0.011936842, -0.023525715, 0.06771782, 0.11631477, 0.031593125, 0.10535802, 0.016559357, -0.07632017, -0.108159095, 0.042586062, 0.0044041267, 0.06613193, 0.058550898, 0.07693354, 0.06943551, -0.019703079, 0.07269736, 0.03735388, -0.050840233, 0.07148241, 0.024400597, -0.109451406, -0.056097664, 0.036203776, 0.12418009, 0.12386879, 0.013311462, -0.024310015, 0.09242892, -0.09180856, 0.1242604, 0.004440883, 0.022378158, 0.008591956, 0.031002432, 0.039270867
